{"learner":{"attributes":{"best_iteration":"0","best_score":"0.693797909167775","scikit_learn":"{\"_estimator_type\": \"classifier\"}"},"feature_names":["log_returns","volatility_short","volatility_long","skew","kurtosis","momentum_short","momentum_long","efficiency_ratio"],"feature_types":["float","float","float","float","float","float","float","float"],"gradient_booster":{"model":{"cats":{"enc":[],"feature_segments":[],"sorted_idx":[]},"gbtree_model_param":{"num_parallel_tree":"1","num_trees":"51"},"iteration_indptr":[0,1,2,3,4,5,6,7,8,9,10,11,12,13,14,15,16,17,18,19,20,21,22,23,24,25,26,27,28,29,30,31,32,33,34,35,36,37,38,39,40,41,42,43,44,45,46,47,48,49,50,51],"tree_info":[0,0,0,0,0,0,0,0,0,0,0,0,0,0,0,0,0,0,0,0,0,0,0,0,0,0,0,0,0,0,0,0,0,0,0,0,0,0,0,0,0,0,0,0,0,0,0,0,0,0,0],"trees":[{"base_weights":[-9.77891E-3,1.1028996E0,-1.5622577E-2,1.828768E-3,1.3790629E-2,4.656043E-2,-9.340912E-2,2.8823127E-4,7.690916E-3,-8.578123E-3,-5.5291504E-4],"categories":[],"categories_nodes":[],"categories_segments":[],"categories_sizes":[],"default_left":[0,0,0,0,0,0,0,0,0,0,0],"id":0,"left_children":[1,3,5,-1,-1,7,9,-1,-1,-1,-1],"loss_changes":[5.9055953E0,9.534626E-1,4.366655E0,0E0,0E0,6.4096375E0,1.1636439E1,0E0,0E0,0E0,0E0],"parents":[2147483647,0,0,1,1,2,2,5,5,6,6],"right_children":[2,4,6,-1,-1,8,10,-1,-1,-1,-1],"split_conditions":[-2.9953525E0,-2.1534095E0,-7.137868E-2,1.828768E-3,1.3790629E-2,2.7626436E0,-7.412512E-3,2.8823127E-4,7.690916E-3,-8.578123E-3,-5.5291504E-4],"split_indices":[2,4,7,0,0,2,7,0,0,0,0],"split_type":[0,0,0,0,0,0,0,0,0,0,0],"sum_hessian":[9.046068E2,3.745267E0,9.008616E2,1.2484224E0,2.4968448E0,5.0086703E2,3.999945E2,4.8988092E2,1.0986116E1,1.7977282E1,3.8201724E2],"tree_param":{"num_deleted":"0","num_feature":"8","num_nodes":"11","size_leaf_vector":"1"}},{"base_weights":[-5.4345583E-3,2.0624933E-1,-1.8892665E-1,-1.0430818E-1,2.5443906E-1,-1.17458075E-1,-4.1508013E-1,2.9698443E-3,-4.822469E-3,3.6018817E-3,1.2263022E-3,-1.9430611E-3,1.6633151E-3,-5.013486E-3,2.4675722E-3],"categories":[],"categories_nodes":[],"categories_segments":[],"categories_sizes":[],"default_left":[0,0,0,0,0,0,0,0,0,0,0,0,0,0,0],"id":1,"left_children":[1,3,5,7,9,11,13,-1,-1,-1,-1,-1,-1,-1,-1],"loss_changes":[3.563203E1,6.401413E0,7.893383E0,8.92886E0,5.099722E0,8.205773E0,6.838272E0,0E0,0E0,0E0,0E0,0E0,0E0,0E0,0E0],"parents":[2147483647,0,0,1,1,2,2,3,3,4,4,5,5,6,6],"right_children":[2,4,6,8,10,12,14,-1,-1,-1,-1,-1,-1,-1,-1],"split_conditions":[-4.9856927E-2,-1.0846219E0,5.522694E-1,-1.1696458E0,-8.97104E-2,6.262193E-3,2.6513307E0,2.9698443E-3,-4.822469E-3,3.6018817E-3,1.2263022E-3,-1.9430611E-3,1.6633151E-3,-5.013486E-3,2.4675722E-3],"split_indices":[0,1,1,2,5,1,2,0,0,0,0,0,0,0,0],"split_type":[0,0,0,0,0,0,0,0,0,0,0,0,0,0,0],"sum_hessian":[9.1534766E2,4.2496588E2,4.903818E2,5.6928307E1,3.6803757E2,3.7377994E2,1.16601845E2,2.771496E1,2.9213346E1,2.0324397E2,1.647936E2,2.9437955E2,7.94004E1,1.0337032E2,1.3231517E1],"tree_param":{"num_deleted":"0","num_feature":"8","num_nodes":"15","size_leaf_vector":"1"}},{"base_weights":[-3.201529E-2,2.0186143E-1,-1.9738358E-1,4.094725E-1,1.1868479E-1,1.1468862E-1,-2.3828004E-1,5.769364E-3,2.231359E-3,-5.643371E-3,1.7809445E-3,1.0290079E-2,6.3657615E-4,-2.6423677E-3,2.8216694E-3],"categories":[],"categories_nodes":[],"categories_segments":[],"categories_sizes":[],"default_left":[0,0,0,0,0,0,0,0,0,0,0,0,0,0,0],"id":2,"left_children":[1,3,5,7,9,11,13,-1,-1,-1,-1,-1,-1,-1,-1],"loss_changes":[3.533538E1,6.4874144E0,6.856678E0,3.236885E0,1.1123114E1,2.8588052E0,6.470173E0,0E0,0E0,0E0,0E0,0E0,0E0,0E0,0E0],"parents":[2147483647,0,0,1,1,2,2,3,3,4,4,5,5,6,6],"right_children":[2,4,6,8,10,12,14,-1,-1,-1,-1,-1,-1,-1,-1],"split_conditions":[-1.2230416E-1,-9.9818474E-1,-1.5820955E0,-9.9403866E-2,-1.0498251E0,-1.4257193E0,2.211746E0,5.769364E-3,2.231359E-3,-5.643371E-3,1.7809445E-3,1.0290079E-2,6.3657615E-4,-2.6423677E-3,2.8216694E-3],"split_indices":[0,2,2,5,1,7,0,0,0,0,0,0,0,0,0],"split_type":[0,0,0,0,0,0,0,0,0,0,0,0,0,0,0],"sum_hessian":[9.1160016E2,3.774957E2,5.341045E2,1.0685641E2,2.7063928E2,6.1674564E1,4.7242993E2,5.5174194E1,5.1682213E1,2.0976564E1,2.4966272E2,2.2472026E0,5.942736E1,4.504562E2,2.1973722E1],"tree_param":{"num_deleted":"0","num_feature":"8","num_nodes":"15","size_leaf_vector":"1"}},{"base_weights":[-2.5154224E-2,2.4236661E-1,-2.1212377E-1,-1.1085106E-1,2.9176205E-1,2.3449056E-1,-2.6382083E-1,3.3554735E-3,-4.4652848E-3,8.588519E-3,2.658955E-3,-3.9476007E-3,3.9530797E-3,2.1287173E-3,-2.9106922E-3],"categories":[],"categories_nodes":[],"categories_segments":[],"categories_sizes":[],"default_left":[0,0,0,0,0,0,0,0,0,0,0,0,0,0,0],"id":3,"left_children":[1,3,5,7,9,11,13,-1,-1,-1,-1,-1,-1,-1,-1],"loss_changes":[4.579841E1,6.6051025E0,1.2504019E1,7.1840987E0,4.623682E0,5.867053E0,6.341549E0,0E0,0E0,0E0,0E0,0E0,0E0,0E0,0E0],"parents":[2147483647,0,0,1,1,2,2,3,3,4,4,5,5,6,6],"right_children":[2,4,6,8,10,12,14,-1,-1,-1,-1,-1,-1,-1,-1],"split_conditions":[-1.3322027E-1,-1.097739E0,-1.2123414E0,-1.2200586E0,-1.3492496E0,-1.1055065E0,-1.8638417E0,3.3554735E-3,-4.4652848E-3,8.588519E-3,2.658955E-3,-3.9476007E-3,3.9530797E-3,2.1287173E-3,-2.9106922E-3],"split_indices":[0,1,1,2,7,6,2,0,0,0,0,0,0,0,0],"split_type":[0,0,0,0,0,0,0,0,0,0,0,0,0,0,0],"sum_hessian":[9.136061E2,3.7571997E2,5.378861E2,4.594335E1,3.2977664E2,5.543591E1,4.8245023E2,1.9719667E1,2.6223684E1,1.29810505E1,3.167956E2,1.0987807E1,4.44481E1,2.5718048E1,4.5673218E2],"tree_param":{"num_deleted":"0","num_feature":"8","num_nodes":"15","size_leaf_vector":"1"}},{"base_weights":[2.3304876E-3,2.055147E-1,-1.3995534E-1,2.9172808E-1,4.2866103E-2,-4.321379E-2,-2.566422E-1,5.3718262E-3,2.1752303E-3,-2.210021E-3,3.2572146E-3,3.7456013E-3,-1.1523471E-3,-6.262838E-3,-1.7279705E-3],"categories":[],"categories_nodes":[],"categories_segments":[],"categories_sizes":[],"default_left":[0,0,0,0,0,0,0,0,0,0,0,0,0,0,0],"id":4,"left_children":[1,3,5,7,9,11,13,-1,-1,-1,-1,-1,-1,-1,-1],"loss_changes":[2.6318699E1,5.2450485E0,6.03306E0,4.3433E0,9.853997E0,8.887194E0,7.4072723E0,0E0,0E0,0E0,0E0,0E0,0E0,0E0,0E0],"parents":[2147483647,0,0,1,1,2,2,3,3,4,4,5,5,6,6],"right_children":[2,4,6,8,10,12,14,-1,-1,-1,-1,-1,-1,-1,-1],"split_conditions":[-1.2944146E-1,1.6521049E-1,-8.517391E-2,-1.0101169E0,9.4333357E-1,-8.566853E-1,-9.539641E-1,5.3718262E-3,2.1752303E-3,-2.210021E-3,3.2572146E-3,3.7456013E-3,-1.1523471E-3,-6.262838E-3,-1.7279705E-3],"split_indices":[0,5,4,7,5,5,7,0,0,0,0,0,0,0,0],"split_type":[0,0,0,0,0,0,0,0,0,0,0,0,0,0,0],"sum_hessian":[9.083643E2,3.7393732E2,5.34427E2,2.4387535E2,1.3006197E2,2.929343E2,2.4149269E2,5.5164303E1,1.8871104E2,6.740257E1,6.2659386E1,4.2456264E1,2.5047804E2,4.345341E1,1.9803928E2],"tree_param":{"num_deleted":"0","num_feature":"8","num_nodes":"15","size_leaf_vector":"1"}},{"base_weights":[-1.5495594E-2,2.2110581E-1,-1.7842217E-1,-6.289129E-1,2.498541E-1,-9.466952E-2,-4.5775357E-1,6.269151E-3,-8.242374E-3,1.9272472E-3,4.996481E-3,-1.716364E-3,2.1712293E-3,-2.3038536E-3,-7.71398E-3],"categories":[],"categories_nodes":[],"categories_segments":[],"categories_sizes":[],"default_left":[0,0,0,0,0,0,0,0,0,0,0,0,0,0,0],"id":5,"left_children":[1,3,5,7,9,11,13,-1,-1,-1,-1,-1,-1,-1,-1],"loss_changes":[3.5248E1,9.269783E0,1.2623598E1,3.5789356E0,5.0614643E0,1.0063726E1,8.710281E0,0E0,0E0,0E0,0E0,0E0,0E0,0E0,0E0],"parents":[2147483647,0,0,1,1,2,2,3,3,4,4,5,5,6,6],"right_children":[2,4,6,8,10,12,14,-1,-1,-1,-1,-1,-1,-1,-1],"split_conditions":[-1.2944146E-1,-1.6425922E0,5.522694E-1,-1.5128329E0,-2.6902637E-1,3.1864736E-2,1.9776426E-1,6.269151E-3,-8.242374E-3,1.9272472E-3,4.996481E-3,-1.716364E-3,2.1712293E-3,-2.3038536E-3,-7.71398E-3],"split_indices":[0,1,1,3,0,1,3,0,0,0,0,0,0,0,0],"split_type":[0,0,0,0,0,0,0,0,0,0,0,0,0,0,0],"sum_hessian":[9.1235345E2,3.7191E2,5.404435E2,1.14838295E1,3.6042618E2,4.168094E2,1.236341E2,1.2483062E0,1.0235523E1,2.9477982E2,6.564636E1,3.3464966E2,8.215974E1,7.26807E1,5.0953403E1],"tree_param":{"num_deleted":"0","num_feature":"8","num_nodes":"15","size_leaf_vector":"1"}},{"base_weights":[1.3366413E-2,2.3639989E-1,-1.4018407E-1,1.8983163E-1,5.070617E-1,2.1445993E-2,-2.4510281E-1,3.1727664E-3,-2.576672E-5,5.7482785E-3,-4.173936E-3,-2.1094203E-3,1.2873985E-3,-5.7290653E-3,-1.7164035E-3],"categories":[],"categories_nodes":[],"categories_segments":[],"categories_sizes":[],"default_left":[0,0,0,0,0,0,0,0,0,0,0,0,0,0,0],"id":6,"left_children":[1,3,5,7,9,11,13,-1,-1,-1,-1,-1,-1,-1,-1],"loss_changes":[3.1047478E1,4.562662E0,9.111363E0,7.773361E0,3.6016846E0,5.3202286E0,7.7448006E0,0E0,0E0,0E0,0E0,0E0,0E0,0E0,0E0],"parents":[2147483647,0,0,1,1,2,2,3,3,4,4,5,5,6,6],"right_children":[2,4,6,8,10,12,14,-1,-1,-1,-1,-1,-1,-1,-1],"split_conditions":[-1.2944146E-1,1.4584485E0,-5.733476E-1,-9.74141E-2,-1.8558641E-1,-1.3580089E0,-9.802026E-1,3.1727664E-3,-2.576672E-5,5.7482785E-3,-4.173936E-3,-2.1094203E-3,1.2873985E-3,-5.7290653E-3,-1.7164035E-3],"split_indices":[0,6,4,6,0,4,7,0,0,0,0,0,0,0,0],"split_type":[0,0,0,0,0,0,0,0,0,0,0,0,0,0,0],"sum_hessian":[9.0461017E2,3.686309E2,5.359793E2,3.159688E2,5.2662098E1,2.1128491E2,3.2469437E2,1.8968117E2,1.2628763E2,4.9417786E1,3.244315E0,6.6432526E1,1.4485239E2,5.819927E1,2.664951E2],"tree_param":{"num_deleted":"0","num_feature":"8","num_nodes":"15","size_leaf_vector":"1"}},{"base_weights":[-2.1876909E-2,2.1503337E-1,-1.8851742E-1,-9.2279956E-2,2.5960162E-1,-1.2162223E-1,-4.3013945E-1,4.9282424E-3,-2.3344252E-3,3.5822731E-3,8.254166E-4,-2.628068E-3,-3.825353E-6,1.3032624E-3,-5.7240645E-3],"categories":[],"categories_nodes":[],"categories_segments":[],"categories_sizes":[],"default_left":[0,0,0,0,0,0,0,0,0,0,0,0,0,0,0],"id":7,"left_children":[1,3,5,7,9,11,13,-1,-1,-1,-1,-1,-1,-1,-1],"loss_changes":[3.5999348E1,5.181814E0,8.599169E0,4.1155095E0,5.718258E0,7.1992E0,9.297131E0,0E0,0E0,0E0,0E0,0E0,0E0,0E0,0E0],"parents":[2147483647,0,0,1,1,2,2,3,3,4,4,5,5,6,6],"right_children":[2,4,6,8,10,12,14,-1,-1,-1,-1,-1,-1,-1,-1],"split_conditions":[-1.2230416E-1,-1.097739E0,6.477495E-1,-1.0266668E0,1.6521049E-1,2.790333E-1,-1.350585E0,4.9282424E-3,-2.3344252E-3,3.5822731E-3,8.254166E-4,-2.628068E-3,-3.825353E-6,1.3032624E-3,-5.7240645E-3],"split_indices":[0,1,1,4,5,0,6,0,0,0,0,0,0,0,0],"split_type":[0,0,0,0,0,0,0,0,0,0,0,0,0,0,0],"sum_hessian":[9.0983734E2,3.7558435E2,5.34253E2,4.74348E1,3.2814957E2,4.1958932E2,1.1466364E2,8.735573E0,3.8699226E1,2.1009793E2,1.1805162E2,1.933103E2,2.2627902E2,2.3230448E1,9.14332E1],"tree_param":{"num_deleted":"0","num_feature":"8","num_nodes":"15","size_leaf_vector":"1"}},{"base_weights":[1.2107635E-3,1.7283739E-1,-1.8864217E-1,9.4778895E-2,2.9607606E-1,-1.22940116E-1,-4.0864834E-1,2.4597528E-3,-8.3041814E-5,7.646865E-3,1.9867062E-3,-2.6397784E-3,6.4119365E-4,-5.6253746E-3,-9.453287E-4],"categories":[],"categories_nodes":[],"categories_segments":[],"categories_sizes":[],"default_left":[0,0,0,0,0,0,0,0,0,0,0,0,0,0,0],"id":8,"left_children":[1,3,5,7,9,11,13,-1,-1,-1,-1,-1,-1,-1,-1],"loss_changes":[3.0101057E1,4.6393614E0,6.2898827E0,4.6546173E0,8.414505E0,8.965342E0,4.8017235E0,0E0,0E0,0E0,0E0,0E0,0E0,0E0,0E0],"parents":[2147483647,0,0,1,1,2,2,3,3,4,4,5,5,6,6],"right_children":[2,4,6,8,10,12,14,-1,-1,-1,-1,-1,-1,-1,-1],"split_conditions":[2.8005887E-2,6.262193E-3,6.1787105E-1,-1.0460393E0,2.6366615E-1,-3.1593382E-1,1.0364498E0,2.4597528E-3,-8.3041814E-5,7.646865E-3,1.9867062E-3,-2.6397784E-3,6.4119365E-4,-5.6253746E-3,-9.453287E-4],"split_indices":[0,1,1,2,1,1,0,0,0,0,0,0,0,0,0],"split_type":[0,0,0,0,0,0,0,0,0,0,0,0,0,0,0],"sum_hessian":[9.2180316E2,4.84188E2,4.376152E2,2.975139E2,1.8667409E2,3.3818063E2,9.943457E1,1.2004806E2,1.7746584E2,3.094576E1,1.5572832E2,1.9257394E2,1.4560669E2,6.620771E1,3.3226864E1],"tree_param":{"num_deleted":"0","num_feature":"8","num_nodes":"15","size_leaf_vector":"1"}},{"base_weights":[-9.575325E-3,-1.3006809E-3,-8.76916E-1,2.0191337E-1,-2.5829097E-2,-1.1812097E0,-1.764048E-1,3.6753945E-3,1.2973546E-4,-2.6349435E-3,1.13041395E-4,-1.3845965E-2,-2.4950455E-3,-4.3637287E-3,1.9086918E-3],"categories":[],"categories_nodes":[],"categories_segments":[],"categories_sizes":[],"default_left":[0,0,0,0,0,0,0,0,0,0,0,0,0,0,0],"id":9,"left_children":[1,3,5,7,9,11,13,-1,-1,-1,-1,-1,-1,-1,-1],"loss_changes":[6.44979E0,4.448163E0,1.6019325E0,3.0029593E0,7.029979E0,7.4322987E-1,4.4109613E-1,0E0,0E0,0E0,0E0,0E0,0E0,0E0,0E0],"parents":[2147483647,0,0,1,1,2,2,3,3,4,4,5,5,6,6],"right_children":[2,4,6,8,10,12,14,-1,-1,-1,-1,-1,-1,-1,-1],"split_conditions":[3.1370425E0,-1.5820955E0,2.6783884E0,-8.3856785E-1,-1.0303605E0,2.3507283E0,-1.973572E-1,3.6753945E-3,1.2973546E-4,-2.6349435E-3,1.13041395E-4,-1.3845965E-2,-2.4950455E-3,-4.3637287E-3,1.9086918E-3],"split_indices":[5,2,7,1,1,1,2,0,0,0,0,0,0,0,0],"split_type":[0,0,0,0,0,0,0,0,0,0,0,0,0,0,0],"sum_hessian":[8.97842E2,8.903493E2,7.4926524E0,9.51139E1,7.952354E2,4.745188E0,2.7474642E0,5.0180244E1,4.493366E1,1.0663561E2,6.885998E2,3.4959502E0,1.2492379E0,1.4985814E0,1.2488829E0],"tree_param":{"num_deleted":"0","num_feature":"8","num_nodes":"15","size_leaf_vector":"1"}},{"base_weights":[-7.141221E-3,2.299412E-1,-1.7513563E-1,5.011184E-1,1.6955198E-1,-8.3868116E-2,-2.8775328E-1,7.3282043E-3,2.567515E-3,5.304589E-3,1.2504662E-3,3.108527E-3,-1.2281211E-3,-1.29445875E-2,-2.4623887E-3],"categories":[],"categories_nodes":[],"categories_segments":[],"categories_sizes":[],"default_left":[0,0,0,0,0,0,0,0,0,0,0,0,0,0,0],"id":10,"left_children":[1,3,5,7,9,11,13,-1,-1,-1,-1,-1,-1,-1,-1],"loss_changes":[3.6445835E1,6.129999E0,5.480377E0,3.6965885E0,4.943531E0,4.607108E0,9.683144E0,0E0,0E0,0E0,0E0,0E0,0E0,0E0,0E0],"parents":[2147483647,0,0,1,1,2,2,3,3,4,4,5,5,6,6],"right_children":[2,4,6,8,10,12,14,-1,-1,-1,-1,-1,-1,-1,-1],"split_conditions":[-1.2944146E-1,-1.0493044E0,-6.73398E-2,-1.8138081E-1,-1.2197413E0,-1.0542483E0,1.5820594E-3,7.3282043E-3,2.567515E-3,5.304589E-3,1.2504662E-3,3.108527E-3,-1.2281211E-3,-1.29445875E-2,-2.4623887E-3],"split_indices":[0,3,4,7,5,5,4,0,0,0,0,0,0,0,0],"split_type":[0,0,0,0,0,0,0,0,0,0,0,0,0,0,0],"sum_hessian":[9.130577E2,3.7851248E2,5.345452E2,6.761041E1,3.1090207E2,2.9622415E2,2.3832104E2,3.367851E1,3.39319E1,3.2931553E1,2.7797052E2,2.5974543E1,2.7024963E2,8.243319E0,2.3007773E2],"tree_param":{"num_deleted":"0","num_feature":"8","num_nodes":"15","size_leaf_vector":"1"}},{"base_weights":[-1.5241175E-3,2.0106499E-1,-1.4210153E-1,-1.8579233E-1,2.518111E-1,-1.3519278E-2,-2.2441368E-1,9.348688E-3,-2.893086E-3,3.6602435E-3,1.3015711E-3,4.8086687E-4,-4.6574706E-3,-5.6198896E-3,-1.5065161E-3],"categories":[],"categories_nodes":[],"categories_segments":[],"categories_sizes":[],"default_left":[0,0,0,0,0,0,0,0,0,0,0,0,0,0,0],"id":11,"left_children":[1,3,5,7,9,11,13,-1,-1,-1,-1,-1,-1,-1,-1],"loss_changes":[2.6294857E1,7.471962E0,5.765829E0,5.425351E0,4.6041183E0,5.9788957E0,8.188683E0,0E0,0E0,0E0,0E0,0E0,0E0,0E0,0E0],"parents":[2147483647,0,0,1,1,2,2,3,3,4,4,5,5,6,6],"right_children":[2,4,6,8,10,12,14,-1,-1,-1,-1,-1,-1,-1,-1],"split_conditions":[-1.2230416E-1,-1.097739E0,-5.733476E-1,-1.5128329E0,-7.137868E-2,1.3437458E0,-9.802026E-1,9.348688E-3,-2.893086E-3,3.6602435E-3,1.3015711E-3,4.8086687E-4,-4.6574706E-3,-5.6198896E-3,-1.5065161E-3],"split_indices":[0,1,4,3,7,7,7,0,0,0,0,0,0,0,0],"split_type":[0,0,0,0,0,0,0,0,0,0,0,0,0,0,0],"sum_hessian":[9.21289E2,3.7722778E2,5.440613E2,4.3436108E1,3.3379166E2,2.1280167E2,3.3125958E2,2.9938407E0,4.0442265E1,1.711247E2,1.6266698E2,1.8807439E2,2.472728E1,5.8215385E1,2.730442E2],"tree_param":{"num_deleted":"0","num_feature":"8","num_nodes":"15","size_leaf_vector":"1"}},{"base_weights":[-2.1628048E-2,-8.127276E-2,5.7684444E-2,1.5573402E-1,-1.3411185E-1,-1.5950179E-2,3.8125482E-1,3.7472663E-3,-7.344299E-4,-1.0374949E-3,-5.251208E-3,1.879897E-3,-1.7872642E-3,4.798953E-3,-6.132149E-3],"categories":[],"categories_nodes":[],"categories_segments":[],"categories_sizes":[],"default_left":[0,0,0,0,0,0,0,0,0,0,0,0,0,0,0],"id":12,"left_children":[1,3,5,7,9,11,13,-1,-1,-1,-1,-1,-1,-1,-1],"loss_changes":[4.3155627E0,6.539795E0,9.339536E0,4.8133807E0,5.005194E0,1.0658947E1,7.421919E0,0E0,0E0,0E0,0E0,0E0,0E0,0E0,0E0],"parents":[2147483647,0,0,1,1,2,2,3,3,4,4,5,5,6,6],"right_children":[2,4,6,8,10,12,14,-1,-1,-1,-1,-1,-1,-1,-1],"split_conditions":[1.1469149E-2,-1.5820955E0,9.463824E-1,-7.921556E-1,1.824126E0,-6.058917E-1,3.1370425E0,3.7472663E-3,-7.344299E-4,-1.0374949E-3,-5.251208E-3,1.879897E-3,-1.7872642E-3,4.798953E-3,-6.132149E-3],"split_indices":[2,2,7,4,7,7,5,0,0,0,0,0,0,0,0],"split_type":[0,0,0,0,0,0,0,0,0,0,0,0,0,0,0],"sum_hessian":[9.1027997E2,5.1954565E2,3.907343E2,9.435851E1,4.2518713E2,3.190737E2,7.1660614E1,4.7926617E1,4.64319E1,3.9572397E2,2.9463158E1,1.415602E2,1.775135E2,6.566482E1,5.9957924E0],"tree_param":{"num_deleted":"0","num_feature":"8","num_nodes":"15","size_leaf_vector":"1"}},{"base_weights":[6.2030526E-3,2.2545661E-1,-1.4746575E-1,1.16313845E-1,3.9416063E-1,-9.359565E-2,-3.2308155E-1,6.7448383E-3,8.921192E-4,9.2622675E-3,2.806591E-3,-1.9403462E-3,3.2227085E-4,-4.393854E-3,5.3602265E-4],"categories":[],"categories_nodes":[],"categories_segments":[],"categories_sizes":[],"default_left":[0,0,0,0,0,0,0,0,0,0,0,0,0,0,0],"id":13,"left_children":[1,3,5,7,9,11,13,-1,-1,-1,-1,-1,-1,-1,-1],"loss_changes":[3.072007E1,6.8718987E0,5.0414104E0,3.4121768E0,8.627298E0,5.2085447E0,5.5188446E0,0E0,0E0,0E0,0E0,0E0,0E0,0E0,0E0],"parents":[2147483647,0,0,1,1,2,2,3,3,4,4,5,5,6,6],"right_children":[2,4,6,8,10,12,14,-1,-1,-1,-1,-1,-1,-1,-1],"split_conditions":[-1.2230416E-1,6.262193E-3,5.522694E-1,-1.6113724E0,2.6366615E-1,1.4431213E-1,1.2741659E0,6.7448383E-3,8.921192E-4,9.2622675E-3,2.806591E-3,-1.9403462E-3,3.2227085E-4,-4.393854E-3,5.3602265E-4],"split_indices":[0,1,1,3,1,5,4,0,0,0,0,0,0,0,0],"split_type":[0,0,0,0,0,0,0,0,0,0,0,0,0,0,0],"sum_hessian":[9.097928E2,3.7470258E2,5.3509015E2,2.2853908E2,1.461635E2,4.1065488E2,1.24435295E2,9.476736E0,2.1906233E2,2.4439041E1,1.21724464E2,2.2806116E2,1.8259372E2,9.495179E1,2.9483505E1],"tree_param":{"num_deleted":"0","num_feature":"8","num_nodes":"15","size_leaf_vector":"1"}},{"base_weights":[1.9306518E-2,2.0845114E-1,-1.070657E-1,3.8122374E-1,1.447457E-1,1.4616086E-1,-1.3977906E-1,2.3896303E-3,9.226158E-3,7.877772E-4,4.123981E-3,2.6616134E-4,7.329468E-3,-5.4196775E-4,-2.952322E-3],"categories":[],"categories_nodes":[],"categories_segments":[],"categories_sizes":[],"default_left":[0,0,0,0,0,0,0,0,0,0,0,0,0,0,0],"id":14,"left_children":[1,3,5,7,9,11,13,-1,-1,-1,-1,-1,-1,-1,-1],"loss_changes":[2.201874E1,4.0053844E0,4.5958624E0,7.386904E0,4.7550616E0,4.447379E0,6.4983206E0,0E0,0E0,0E0,0E0,0E0,0E0,0E0,0E0],"parents":[2147483647,0,0,1,1,2,2,3,3,4,4,5,5,6,6],"right_children":[2,4,6,8,10,12,14,-1,-1,-1,-1,-1,-1,-1,-1],"split_conditions":[-1.4638126E-1,-9.7669846E-1,-1.5820955E0,-3.0706206E-1,1.4584485E0,-1.6710953E0,5.452814E-1,2.3896303E-3,9.226158E-3,7.877772E-4,4.123981E-3,2.6616134E-4,7.329468E-3,-5.4196775E-4,-2.952322E-3],"split_indices":[0,6,2,0,6,2,3,0,0,0,0,0,0,0,0],"split_type":[0,0,0,0,0,0,0,0,0,0,0,0,0,0,0],"sum_hessian":[9.192512E2,3.6792245E2,5.5132874E2,9.777292E1,2.7014957E2,6.2678802E1,4.8864993E2,7.8568886E1,1.9204025E1,2.177703E2,5.237926E1,5.2939003E1,9.739798E0,3.1601917E2,1.7263075E2],"tree_param":{"num_deleted":"0","num_feature":"8","num_nodes":"15","size_leaf_vector":"1"}},{"base_weights":[-1.3796431E-2,1.811449E-1,-1.4795828E-1,-1.3729355E-1,2.2640419E-1,-8.7805524E-2,-3.489342E-1,-3.271701E-3,5.3352905E-3,-1.6553983E-3,2.7508028E-3,-7.0059E-4,-1.2447816E-2,3.5691245E-3,-4.2408174E-3],"categories":[],"categories_nodes":[],"categories_segments":[],"categories_sizes":[],"default_left":[0,0,0,0,0,0,0,0,0,0,0,0,0,0,0],"id":15,"left_children":[1,3,5,7,9,11,13,-1,-1,-1,-1,-1,-1,-1,-1],"loss_changes":[2.3872406E1,5.3943634E0,6.505018E0,6.152373E0,6.2689E0,8.483355E0,6.7391777E0,0E0,0E0,0E0,0E0,0E0,0E0,0E0,0E0],"parents":[2147483647,0,0,1,1,2,2,3,3,4,4,5,5,6,6],"right_children":[2,4,6,8,10,12,14,-1,-1,-1,-1,-1,-1,-1,-1],"split_conditions":[-1.2944146E-1,-1.097739E0,5.522694E-1,-2.3501052E-1,-1.7323774E0,2.5835068E0,-1.4183234E0,-3.271701E-3,5.3352905E-3,-1.6553983E-3,2.7508028E-3,-7.0059E-4,-1.2447816E-2,3.5691245E-3,-4.2408174E-3],"split_indices":[0,1,1,0,0,4,4,0,0,0,0,0,0,0,0],"split_type":[0,0,0,0,0,0,0,0,0,0,0,0,0,0,0],"sum_hessian":[9.1074927E2,3.711323E2,5.3961694E2,4.5931416E1,3.252009E2,4.1641846E2,1.231985E2,3.619788E1,9.733536E0,3.566031E1,2.8954056E2,4.1117215E2,5.246298E0,1.1493428E1,1.1170507E2],"tree_param":{"num_deleted":"0","num_feature":"8","num_nodes":"15","size_leaf_vector":"1"}},{"base_weights":[-1.6691105E-2,1.6084206E-1,-1.7302893E-1,-1.20394435E-2,2.675033E-1,-1.5347067E-1,-7.9828113E-1,-9.946689E-3,3.9585013E-4,9.161215E-3,2.358238E-3,-4.8572705E-3,-1.2474398E-3,-1.15743615E-2,-3.086102E-3],"categories":[],"categories_nodes":[],"categories_segments":[],"categories_sizes":[],"default_left":[0,0,0,0,0,0,0,0,0,0,0,0,0,0,0],"id":16,"left_children":[1,3,5,7,9,11,13,-1,-1,-1,-1,-1,-1,-1,-1],"loss_changes":[2.5353642E1,7.8915787E0,5.8168135E0,8.36801E0,5.2210884E0,4.4462643E0,2.191759E0,0E0,0E0,0E0,0E0,0E0,0E0,0E0,0E0],"parents":[2147483647,0,0,1,1,2,2,3,3,4,4,5,5,6,6],"right_children":[2,4,6,8,10,12,14,-1,-1,-1,-1,-1,-1,-1,-1],"split_conditions":[-4.9856927E-2,-4.5850468E-1,2.5835068E0,-1.674925E0,-4.128625E-1,-1.24243E0,3.0655715E0,-9.946689E-3,3.9585013E-4,9.161215E-3,2.358238E-3,-4.8572705E-3,-1.2474398E-3,-1.15743615E-2,-3.086102E-3],"split_indices":[0,1,4,0,1,7,1,0,0,0,0,0,0,0,0],"split_type":[0,0,0,0,0,0,0,0,0,0,0,0,0,0,0],"sum_hessian":[9.114725E2,4.2679092E2,4.8468152E2,1.6318314E2,2.636078E2,4.7118793E2,1.349359E1,7.233423E0,1.5594972E2,1.0975363E1,2.5263243E2,3.6230682E1,4.3495724E2,6.9974937E0,6.496097E0],"tree_param":{"num_deleted":"0","num_feature":"8","num_nodes":"15","size_leaf_vector":"1"}},{"base_weights":[-1.6276285E-2,1.2858106E-1,-6.2473908E-2,1.0387125E-1,8.93791E-1,-1.14262454E-1,8.949558E-2,2.5728694E-3,-5.894751E-4,-2.7551206E-3,1.20946895E-2,-8.538669E-4,-3.5638283E-3,-3.9130514E-3,1.3514332E-3],"categories":[],"categories_nodes":[],"categories_segments":[],"categories_sizes":[],"default_left":[0,0,0,0,0,0,0,0,0,0,0,0,0,0,0],"id":17,"left_children":[1,3,5,7,9,11,13,-1,-1,-1,-1,-1,-1,-1,-1],"loss_changes":[6.077484E0,4.060025E0,5.42757E0,5.3580165E0,2.8207207E0,3.5618825E0,3.9049108E0,0E0,0E0,0E0,0E0,0E0,0E0,0E0,0E0],"parents":[2147483647,0,0,1,1,2,2,3,3,4,4,5,5,6,6],"right_children":[2,4,6,8,10,12,14,-1,-1,-1,-1,-1,-1,-1,-1],"split_conditions":[-6.7882097E-1,2.2191274E0,1.2548383E0,-1.01300366E-1,-2.0878723E0,1.3699533E0,-1.1992182E0,2.5728694E-3,-5.894751E-4,-2.7551206E-3,1.20946895E-2,-8.538669E-4,-3.5638283E-3,-3.9130514E-3,1.3514332E-3],"split_indices":[5,2,6,4,5,4,7,0,0,0,0,0,0,0,0],"split_type":[0,0,0,0,0,0,0,0,0,0,0,0,0,0,0],"sum_hessian":[9.059623E2,2.18633E2,6.873293E2,2.1289406E2,5.7389374E0,5.12818E2,1.7451129E2,1.09313446E2,1.0358062E2,1.2470338E0,4.491904E0,4.5938367E2,5.3434353E1,1.447509E1,1.6003621E2],"tree_param":{"num_deleted":"0","num_feature":"8","num_nodes":"15","size_leaf_vector":"1"}},{"base_weights":[1.1122389E-2,-1.6530618E-1,4.236869E-2,2.1253172E-2,-5.54653E-1,1.5447468E-1,4.289667E-3,-5.1264125E-3,1.7068419E-3,-9.560782E-3,-1.6366831E-3,8.967211E-3,1.2334421E-3,7.9504703E-4,-1.8000749E-3],"categories":[],"categories_nodes":[],"categories_segments":[],"categories_sizes":[],"default_left":[0,0,0,0,0,0,0,0,0,0,0,0,0,0,0],"id":18,"left_children":[1,3,5,7,9,11,13,-1,-1,-1,-1,-1,-1,-1,-1],"loss_changes":[5.0233707E0,9.97127E0,3.3027914E0,7.5597777E0,6.8205976E0,4.4223695E0,8.035743E0,0E0,0E0,0E0,0E0,0E0,0E0,0E0,0E0],"parents":[2147483647,0,0,1,1,2,2,3,3,4,4,5,5,6,6],"right_children":[2,4,6,8,10,12,14,-1,-1,-1,-1,-1,-1,-1,-1],"split_conditions":[-1.0387576E0,-1.1958427E0,-9.58657E-1,-9.4510114E-1,-4.0018043E-1,-9.571602E-1,4.4555742E-1,-5.1264125E-3,1.7068419E-3,-9.560782E-3,-1.6366831E-3,8.967211E-3,1.2334421E-3,7.9504703E-4,-1.8000749E-3],"split_indices":[1,1,6,7,6,1,1,0,0,0,0,0,0,0,0],"split_type":[0,0,0,0,0,0,0,0,0,0,0,0,0,0,0],"sum_hessian":[9.0895886E2,1.3611441E2,7.728444E2,9.266059E1,4.345382E1,1.951777E2,5.7766675E2,1.9731676E1,7.292892E1,2.0727509E1,2.272631E1,6.7371836E0,1.8844052E2,4.10644E2,1.670227E2],"tree_param":{"num_deleted":"0","num_feature":"8","num_nodes":"15","size_leaf_vector":"1"}},{"base_weights":[-2.7100564E-4,1.8977769E-1,-1.6651133E-1,1.362163E-1,4.9100712E-1,-3.261303E-1,-6.798261E-2,1.5220937E-3,-5.905812E-3,8.810426E-3,2.5692687E-3,-2.4820787E-3,-9.139382E-3,-2.2389712E-3,9.853126E-4],"categories":[],"categories_nodes":[],"categories_segments":[],"categories_sizes":[],"default_left":[0,0,0,0,0,0,0,0,0,0,0,0,0,0,0],"id":19,"left_children":[1,3,5,7,9,11,13,-1,-1,-1,-1,-1,-1,-1,-1],"loss_changes":[2.8693647E1,6.770159E0,7.596751E0,4.288034E0,5.579317E0,8.230217E0,7.8316317E0,0E0,0E0,0E0,0E0,0E0,0E0,0E0,0E0],"parents":[2147483647,0,0,1,1,2,2,3,3,4,4,5,5,6,6],"right_children":[2,4,6,8,10,12,14,-1,-1,-1,-1,-1,-1,-1,-1],"split_conditions":[-4.9856927E-2,1.0638628E0,2.790333E-1,9.76369E-1,-8.610641E-1,2.2842099E-1,1.4431213E-1,1.5220937E-3,-5.905812E-3,8.810426E-3,2.5692687E-3,-2.4820787E-3,-9.139382E-3,-2.2389712E-3,9.853126E-4],"split_indices":[0,1,0,1,0,0,5,0,0,0,0,0,0,0,0],"split_type":[0,0,0,0,0,0,0,0,0,0,0,0,0,0,0],"sum_hessian":[9.0620605E2,4.2275916E2,4.8344687E2,3.6016983E2,6.2589336E1,1.8363828E2,2.998086E2,3.5318854E2,6.9812922E0,2.2438091E1,4.0151245E1,1.6339957E2,2.023871E1,1.546542E2,1.4515437E2],"tree_param":{"num_deleted":"0","num_feature":"8","num_nodes":"15","size_leaf_vector":"1"}},{"base_weights":[1.5627345E-2,2.5278738E-1,-1.3622883E-1,2.0397985E-1,6.035989E-1,-3.4987965E-1,-8.8431105E-2,4.76249E-3,1.3259838E-3,-9.2273846E-4,7.291731E-3,-3.818841E-3,7.375846E-3,1.7271303E-3,-1.198012E-3],"categories":[],"categories_nodes":[],"categories_segments":[],"categories_sizes":[],"default_left":[0,0,0,0,0,0,0,0,0,0,0,0,0,0,0],"id":20,"left_children":[1,3,5,7,9,11,13,-1,-1,-1,-1,-1,-1,-1,-1],"loss_changes":[3.29675E1,5.994879E0,5.668729E0,6.06242E0,3.8361464E0,3.8211765E0,3.768045E0,0E0,0E0,0E0,0E0,0E0,0E0,0E0,0E0],"parents":[2147483647,0,0,1,1,2,2,3,3,4,4,5,5,6,6],"right_children":[2,4,6,8,10,12,14,-1,-1,-1,-1,-1,-1,-1,-1],"split_conditions":[-1.4638126E-1,1.6053458E0,-9.802026E-1,-1.1779186E0,-4.6150222E-1,5.128618E-1,-7.857028E-1,4.76249E-3,1.3259838E-3,-9.2273846E-4,7.291731E-3,-3.818841E-3,7.375846E-3,1.7271303E-3,-1.198012E-3],"split_indices":[0,6,7,2,5,5,7,0,0,0,0,0,0,0,0],"split_type":[0,0,0,0,0,0,0,0,0,0,0,0,0,0,0],"sum_hessian":[9.134462E2,3.5631296E2,5.5713324E2,3.1418292E2,4.213004E1,1.0069905E2,4.564342E2,6.4082436E1,2.5010048E2,6.4809394E0,3.56491E1,9.845045E1,2.2486012E0,4.8466167E1,4.0796805E2],"tree_param":{"num_deleted":"0","num_feature":"8","num_nodes":"15","size_leaf_vector":"1"}},{"base_weights":[8.059993E-3,2.1451755E-1,-1.7031609E-1,1.13887504E-1,3.6953783E-1,-1.794692E-2,-2.662641E-1,2.303014E-3,-3.424475E-4,4.137427E-3,-8.102425E-3,-1.1853597E-2,4.2686657E-5,5.0322986E-3,-3.0273907E-3],"categories":[],"categories_nodes":[],"categories_segments":[],"categories_sizes":[],"default_left":[0,0,0,0,0,0,0,0,0,0,0,0,0,0,0],"id":21,"left_children":[1,3,5,7,9,11,13,-1,-1,-1,-1,-1,-1,-1,-1],"loss_changes":[3.3049587E1,6.446657E0,7.0342436E0,4.38233E0,8.850798E0,4.857795E0,8.4425125E0,0E0,0E0,0E0,0E0,0E0,0E0,0E0,0E0],"parents":[2147483647,0,0,1,1,2,2,3,3,4,4,5,5,6,6],"right_children":[2,4,6,8,10,12,14,-1,-1,-1,-1,-1,-1,-1,-1],"split_conditions":[-4.9856927E-2,6.262193E-3,-5.733476E-1,-7.137868E-2,2.3288274E0,-1.7586777E0,-1.6112247E0,2.303014E-3,-3.424475E-4,4.137427E-3,-8.102425E-3,-1.1853597E-2,4.2686657E-5,5.0322986E-3,-3.0273907E-3],"split_indices":[0,1,4,7,7,1,1,0,0,0,0,0,0,0,0],"split_type":[0,0,0,0,0,0,0,0,0,0,0,0,0,0,0],"sum_hessian":[8.954339E2,4.1495294E2,4.8048096E2,2.5266948E2,1.6228346E2,1.8611316E2,2.943678E2,1.4117131E2,1.1149816E2,1.5704837E2,5.235096E0,2.4978123E0,1.8361534E2,1.2742798E1,2.81625E2],"tree_param":{"num_deleted":"0","num_feature":"8","num_nodes":"15","size_leaf_vector":"1"}},{"base_weights":[-8.844332E-3,9.800242E-1,-1.4650201E-2,2.7411308E-3,1.32955145E-2,-8.491078E-2,5.596186E-2,1.4014427E-4,-2.4852962E-3,-1.2811336E-4,3.3869322E-3],"categories":[],"categories_nodes":[],"categories_segments":[],"categories_sizes":[],"default_left":[0,0,0,0,0,0,0,0,0,0,0],"id":22,"left_children":[1,3,5,-1,-1,7,9,-1,-1,-1,-1],"loss_changes":[5.155042E0,9.2872E-1,4.425988E0,0E0,0E0,7.2400365E0,8.658401E0,0E0,0E0,0E0,0E0],"parents":[2147483647,0,0,1,1,2,2,5,5,6,6],"right_children":[2,4,6,-1,-1,8,10,-1,-1,-1,-1],"split_conditions":[-2.9953525E0,-2.1534095E0,-2.6314524E-1,2.7411308E-3,1.32955145E-2,-9.662811E-1,8.965719E-1,1.4014427E-4,-2.4852962E-3,-1.2811336E-4,3.3869322E-3],"split_indices":[2,4,2,0,0,2,7,0,0,0,0],"split_type":[0,0,0,0,0,0,0,0,0,0,0],"sum_hessian":[8.943959E2,4.241114E0,8.901548E2,1.9954033E0,2.2457108E0,4.4608636E2,4.4406842E2,2.785732E2,1.6751315E2,3.5795264E2,8.611576E1],"tree_param":{"num_deleted":"0","num_feature":"8","num_nodes":"11","size_leaf_vector":"1"}},{"base_weights":[7.697626E-3,1.86549E-1,-1.4561313E-1,9.3234845E-2,3.3581454E-1,-7.924717E-2,-3.7481204E-1,1.4364147E-3,-4.7220895E-3,1.05838785E-2,2.8233551E-3,-3.8764193E-3,-1.2081121E-4,1.138996E-3,-4.9720905E-3],"categories":[],"categories_nodes":[],"categories_segments":[],"categories_sizes":[],"default_left":[0,0,0,0,0,0,0,0,0,0,0,0,0,0,0],"id":23,"left_children":[1,3,5,7,9,11,13,-1,-1,-1,-1,-1,-1,-1,-1],"loss_changes":[2.4887114E1,5.803405E0,7.4045057E0,7.454028E0,5.9132137E0,7.872013E0,6.6049633E0,0E0,0E0,0E0,0E0,0E0,0E0,0E0,0E0],"parents":[2147483647,0,0,1,1,2,2,3,3,4,4,5,5,6,6],"right_children":[2,4,6,8,10,12,14,-1,-1,-1,-1,-1,-1,-1,-1],"split_conditions":[-4.9856927E-2,6.262193E-3,6.1787105E-1,-1.1188783E-1,-1.2662778E0,-9.8545843E-1,-1.350585E0,1.4364147E-3,-4.7220895E-3,1.05838785E-2,2.8233551E-3,-3.8764193E-3,-1.2081121E-4,1.138996E-3,-4.9720905E-3],"split_indices":[0,1,1,1,7,7,6,0,0,0,0,0,0,0,0],"split_type":[0,0,0,0,0,0,0,0,0,0,0,0,0,0,0],"sum_hessian":[9.05641E2,4.1790216E2,4.877388E2,2.5814566E2,1.597565E2,3.792658E2,1.08473015E2,2.3770164E2,2.0444002E1,9.714181E0,1.5004233E2,6.697533E1,3.1229047E2,2.173962E1,8.673339E1],"tree_param":{"num_deleted":"0","num_feature":"8","num_nodes":"15","size_leaf_vector":"1"}},{"base_weights":[1.5569466E-2,2.174612E-1,-1.2380873E-1,-3.1037332E-2,2.5750768E-1,-3.6203418E-2,-2.310855E-1,-2.8391483E-3,3.996215E-3,4.778417E-3,1.8791939E-3,1.0226389E-2,-6.351111E-4,-6.266393E-3,-1.3867505E-3],"categories":[],"categories_nodes":[],"categories_segments":[],"categories_sizes":[],"default_left":[0,0,0,0,0,0,0,0,0,0,0,0,0,0,0],"id":24,"left_children":[1,3,5,7,9,11,13,-1,-1,-1,-1,-1,-1,-1,-1],"loss_changes":[2.5453882E1,3.6841373E0,5.0214825E0,5.794051E0,4.789749E0,8.61785E0,8.700666E0,0E0,0E0,0E0,0E0,0E0,0E0,0E0,0E0],"parents":[2147483647,0,0,1,1,2,2,3,3,4,4,5,5,6,6],"right_children":[2,4,6,8,10,12,14,-1,-1,-1,-1,-1,-1,-1,-1],"split_conditions":[-1.2944146E-1,-1.0498251E0,-8.517391E-2,-3.510327E-1,-8.3614314E-1,-1.9976022E0,-9.610472E-1,-2.8391483E-3,3.996215E-3,4.778417E-3,1.8791939E-3,1.0226389E-2,-6.351111E-4,-6.266393E-3,-1.3867505E-3],"split_indices":[0,1,4,0,7,6,7,0,0,0,0,0,0,0,0],"split_type":[0,0,0,0,0,0,0,0,0,0,0,0,0,0,0],"sum_hessian":[9.0261E2,3.6840652E2,5.342034E2,5.1161507E1,3.1724503E2,2.947993E2,2.3940416E2,3.244875E1,1.8712759E1,7.4738266E1,2.4250676E2,6.4953804E0,2.8830392E2,4.424344E1,1.9516072E2],"tree_param":{"num_deleted":"0","num_feature":"8","num_nodes":"15","size_leaf_vector":"1"}},{"base_weights":[-1.2608409E-2,2.0259929E-1,-1.6816509E-1,7.469989E-2,3.8698766E-1,-2.0332524E-1,1.0674623E-1,2.3321076E-3,-7.1753486E-4,5.9842956E-3,2.0212648E-3,1.1753205E-3,-2.3010592E-3,-4.0421537E-3,3.1984514E-3],"categories":[],"categories_nodes":[],"categories_segments":[],"categories_sizes":[],"default_left":[0,0,0,0,0,0,0,0,0,0,0,0,0,0,0],"id":25,"left_children":[1,3,5,7,9,11,13,-1,-1,-1,-1,-1,-1,-1,-1],"loss_changes":[3.0424227E1,8.963916E0,5.1201754E0,5.272242E0,5.9741077E0,4.0484734E0,6.7132964E0,0E0,0E0,0E0,0E0,0E0,0E0,0E0,0E0],"parents":[2147483647,0,0,1,1,2,2,3,3,4,4,5,5,6,6],"right_children":[2,4,6,8,10,12,14,-1,-1,-1,-1,-1,-1,-1,-1],"split_conditions":[-1.2230416E-1,6.262193E-3,1.2624422E0,-8.198919E-2,-2.9300067E-1,-1.8271873E0,-7.5277716E-1,2.3321076E-3,-7.1753486E-4,5.9842956E-3,2.0212648E-3,1.1753205E-3,-2.3010592E-3,-4.0421537E-3,3.1984514E-3],"split_indices":[0,1,0,6,3,2,2,0,0,0,0,0,0,0,0],"split_type":[0,0,0,0,0,0,0,0,0,0,0,0,0,0,0],"sum_hessian":[9.0679236E2,3.803239E2,5.2646844E2,2.2538954E2,1.5493437E2,4.6700107E2,5.946735E1,1.0795463E2,1.17434906E2,7.122777E1,8.370661E1,3.5714886E1,4.3128616E2,1.723794E1,4.2229412E1],"tree_param":{"num_deleted":"0","num_feature":"8","num_nodes":"15","size_leaf_vector":"1"}},{"base_weights":[-1.2883988E-2,1.6807356E-1,-1.7011148E-1,5.87621E-1,1.4264067E-1,-2.205032E-2,-2.64287E-1,9.079986E-3,-2.2726743E-3,2.8705692E-3,8.7930425E-4,3.775021E-3,-8.7376963E-4,1.2268019E-2,-2.7734945E-3],"categories":[],"categories_nodes":[],"categories_segments":[],"categories_sizes":[],"default_left":[0,0,0,0,0,0,0,0,0,0,0,0,0,0,0],"id":26,"left_children":[1,3,5,7,9,11,13,-1,-1,-1,-1,-1,-1,-1,-1],"loss_changes":[2.5685696E1,4.395112E0,6.7293806E0,6.3861084E0,3.112152E0,4.96302E0,6.088913E0,0E0,0E0,0E0,0E0,0E0,0E0,0E0,0E0],"parents":[2147483647,0,0,1,1,2,2,3,3,4,4,5,5,6,6],"right_children":[2,4,6,8,10,12,14,-1,-1,-1,-1,-1,-1,-1,-1],"split_conditions":[-4.9856927E-2,-1.3183993E0,-5.733476E-1,9.7404253E-1,-9.8571134E-1,-7.817102E-1,-2.9953525E0,9.079986E-3,-2.2726743E-3,2.8705692E-3,8.7930425E-4,3.775021E-3,-8.7376963E-4,1.2268019E-2,-2.7734945E-3],"split_indices":[0,7,4,6,6,5,2,0,0,0,0,0,0,0,0],"split_type":[0,0,0,0,0,0,0,0,0,0,0,0,0,0,0],"sum_hessian":[9.007838E2,4.1875635E2,4.8202747E2,2.2670666E1,3.960857E2,1.8787994E2,2.9414752E2,1.6190876E1,6.47979E0,1.0765819E2,2.884275E2,2.5730114E1,1.6214984E2,1.747525E0,2.924E2],"tree_param":{"num_deleted":"0","num_feature":"8","num_nodes":"15","size_leaf_vector":"1"}},{"base_weights":[-2.3573264E-2,1.7789215E-1,-1.62613E-1,-2.3256336E-1,2.2965267E-1,-2.7247784E-1,-7.799803E-2,-3.573546E-3,6.550843E-3,3.5419178E-3,8.949536E-4,-2.059113E-3,-9.297457E-3,4.1012852E-5,-3.2263643E-3],"categories":[],"categories_nodes":[],"categories_segments":[],"categories_sizes":[],"default_left":[0,0,0,0,0,0,0,0,0,0,0,0,0,0,0],"id":27,"left_children":[1,3,5,7,9,11,13,-1,-1,-1,-1,-1,-1,-1,-1],"loss_changes":[2.5226469E1,7.8672247E0,4.931282E0,4.8513584E0,5.67795E0,9.932285E0,6.074097E0,0E0,0E0,0E0,0E0,0E0,0E0,0E0,0E0],"parents":[2147483647,0,0,1,1,2,2,3,3,4,4,5,5,6,6],"right_children":[2,4,6,8,10,12,14,-1,-1,-1,-1,-1,-1,-1,-1],"split_conditions":[-1.2230416E-1,-1.1146092E0,2.790333E-1,1.8366851E0,-7.137868E-2,2.2842099E-1,6.953047E-1,-3.573546E-3,6.550843E-3,3.5419178E-3,8.949536E-4,-2.059113E-3,-9.297457E-3,4.1012852E-5,-3.2263643E-3],"split_indices":[0,1,0,3,7,0,1,0,0,0,0,0,0,0,0],"split_type":[0,0,0,0,0,0,0,0,0,0,0,0,0,0,0],"sum_hessian":[8.985365E2,3.6678864E2,5.317478E2,4.0683075E1,3.2610556E2,2.3038876E2,3.0135907E2,3.6192337E1,4.490739E0,1.7186497E2,1.542406E2,2.1039384E2,1.9994911E1,2.2637282E2,7.498625E1],"tree_param":{"num_deleted":"0","num_feature":"8","num_nodes":"15","size_leaf_vector":"1"}},{"base_weights":[-1.1446852E-2,1.787083E-1,-1.4713092E-1,2.9848984E-1,5.6446508E-2,-5.7368655E-2,-2.557568E-1,2.0885773E-3,7.0694024E-3,-6.934235E-4,3.6186995E-3,1.4698478E-4,-4.8839515E-3,-4.629675E-3,-1.0681684E-3],"categories":[],"categories_nodes":[],"categories_segments":[],"categories_sizes":[],"default_left":[0,0,0,0,0,0,0,0,0,0,0,0,0,0,0],"id":28,"left_children":[1,3,5,7,9,11,13,-1,-1,-1,-1,-1,-1,-1,-1],"loss_changes":[2.3401077E1,5.5145683E0,5.1458387E0,6.8286495E0,7.2536707E0,9.0489235E0,7.3320084E0,0E0,0E0,0E0,0E0,0E0,0E0,0E0,0E0],"parents":[2147483647,0,0,1,1,2,2,3,3,4,4,5,5,6,6],"right_children":[2,4,6,8,10,12,14,-1,-1,-1,-1,-1,-1,-1,-1],"split_conditions":[-1.2944146E-1,-1.4587964E-1,-8.517391E-2,-2.6902637E-1,1.4584485E0,1.1651663E0,-1.448253E-1,2.0885773E-3,7.0694024E-3,-6.934235E-4,3.6186995E-3,1.4698478E-4,-4.8839515E-3,-4.629675E-3,-1.0681684E-3],"split_indices":[0,6,4,0,6,5,5,0,0,0,0,0,0,0,0],"split_type":[0,0,0,0,0,0,0,0,0,0,0,0,0,0,0],"sum_hessian":[9.049634E2,3.7670755E2,5.2825586E2,1.8955577E2,1.8715176E2,2.9007907E2,2.3817679E2,1.5668376E2,3.2872013E1,1.3310524E2,5.404652E1,2.4935336E2,4.0725693E1,9.87223E1,1.394545E2],"tree_param":{"num_deleted":"0","num_feature":"8","num_nodes":"15","size_leaf_vector":"1"}},{"base_weights":[-1.0799953E-2,1.724545E-1,-1.626352E-1,2.498532E-1,7.476353E-2,-3.9007327E-1,-1.1206989E-1,4.229178E-3,1.1719693E-3,-6.7697384E-4,3.2276656E-3,-4.479137E-3,9.693892E-3,-9.0612157E-4,-7.2264615E-3],"categories":[],"categories_nodes":[],"categories_segments":[],"categories_sizes":[],"default_left":[0,0,0,0,0,0,0,0,0,0,0,0,0,0,0],"id":29,"left_children":[1,3,5,7,9,11,13,-1,-1,-1,-1,-1,-1,-1,-1],"loss_changes":[2.5354599E1,3.10351E0,5.6869774E0,5.229969E0,6.5213375E0,7.529272E0,5.2939687E0,0E0,0E0,0E0,0E0,0E0,0E0,0E0,0E0],"parents":[2147483647,0,0,1,1,2,2,3,3,4,4,5,5,6,6],"right_children":[2,4,6,8,10,12,14,-1,-1,-1,-1,-1,-1,-1,-1],"split_conditions":[-4.9856927E-2,-9.9403866E-2,-9.802026E-1,-3.93031E-1,9.4333357E-1,4.9946293E-1,2.8566036E0,4.229178E-3,1.1719693E-3,-6.7697384E-4,3.2276656E-3,-4.479137E-3,9.693892E-3,-9.0612157E-4,-7.2264615E-3],"split_indices":[0,5,7,4,5,5,6,0,0,0,0,0,0,0,0],"split_type":[0,0,0,0,0,0,0,0,0,0,0,0,0,0,0],"sum_hessian":[9.0922534E2,4.1192505E2,4.973003E2,2.289638E2,1.8296123E2,8.923143E1,4.0806888E2,9.840093E1,1.3056287E2,1.1666953E2,6.6291695E1,8.623303E1,2.9983966E0,3.9532422E2,1.2744637E1],"tree_param":{"num_deleted":"0","num_feature":"8","num_nodes":"15","size_leaf_vector":"1"}},{"base_weights":[2.318659E-2,1.982787E-1,-1.2969323E-1,8.898704E-1,1.7786175E-1,1.9529325E-1,-1.7185378E-1,1.2060825E-2,2.9778E-4,3.4303789E-3,1.1739668E-3,-2.506371E-3,4.1902508E-3,-4.8086406E-3,-1.0772814E-3],"categories":[],"categories_nodes":[],"categories_segments":[],"categories_sizes":[],"default_left":[0,0,0,0,0,0,0,0,0,0,0,0,0,0,0],"id":30,"left_children":[1,3,5,7,9,11,13,-1,-1,-1,-1,-1,-1,-1,-1],"loss_changes":[2.4442123E1,5.8510113E0,6.7140102E0,3.2151766E0,4.100772E0,5.737648E0,8.510658E0,0E0,0E0,0E0,0E0,0E0,0E0,0E0,0E0],"parents":[2147483647,0,0,1,1,2,2,3,3,4,4,5,5,6,6],"right_children":[2,4,6,8,10,12,14,-1,-1,-1,-1,-1,-1,-1,-1],"split_conditions":[-4.9856927E-2,-1.4502292E0,-1.5694274E0,1.1106694E0,-9.8571134E-1,-5.878567E-1,-1.1245999E0,1.2060825E-2,2.9778E-4,3.4303789E-3,1.1739668E-3,-2.506371E-3,4.1902508E-3,-4.8086406E-3,-1.0772814E-3],"split_indices":[0,7,2,6,6,7,2,0,0,0,0,0,0,0,0],"split_type":[0,0,0,0,0,0,0,0,0,0,0,0,0,0,0],"sum_hessian":[9.111476E2,4.245811E2,4.865665E2,1.0953791E1,4.136273E2,5.545676E1,4.311097E2,7.71508E0,3.2387114E0,1.09587364E2,3.0403992E2,1.8487738E1,3.6969025E1,7.297194E1,3.581378E2],"tree_param":{"num_deleted":"0","num_feature":"8","num_nodes":"15","size_leaf_vector":"1"}},{"base_weights":[-3.4867667E-3,2.0285761E-1,-1.4728667E-1,2.8997028E-1,3.911369E-2,-1.857978E-1,1.1771594E-1,-4.4674161E-4,3.4748316E-3,-8.12018E-3,1.0826343E-3,-1.620596E-3,-7.3227845E-3,2.0940846E-3,-7.924652E-3],"categories":[],"categories_nodes":[],"categories_segments":[],"categories_sizes":[],"default_left":[0,0,0,0,0,0,0,0,0,0,0,0,0,0,0],"id":31,"left_children":[1,3,5,7,9,11,13,-1,-1,-1,-1,-1,-1,-1,-1],"loss_changes":[2.702792E1,5.3248053E0,5.499996E0,4.7122154E0,7.801769E0,5.9661655E0,5.9011855E0,0E0,0E0,0E0,0E0,0E0,0E0,0E0,0E0],"parents":[2147483647,0,0,1,1,2,2,3,3,4,4,5,5,6,6],"right_children":[2,4,6,8,10,12,14,-1,-1,-1,-1,-1,-1,-1,-1],"split_conditions":[-1.2230416E-1,1.4431213E-1,1.2213547E0,-1.0498251E0,-1.0033637E0,1.0623112E0,2.5939946E0,-4.4674161E-4,3.4748316E-3,-8.12018E-3,1.0826343E-3,-1.620596E-3,-7.3227845E-3,2.0940846E-3,-7.924652E-3],"split_indices":[0,5,0,1,7,0,6,0,0,0,0,0,0,0,0],"split_type":[0,0,0,0,0,0,0,0,0,0,0,0,0,0,0],"sum_hessian":[9.088735E2,3.7309436E2,5.357791E2,2.4303012E2,1.3006424E2,4.6805814E2,6.7721E1,3.5674973E1,2.0735515E2,8.965779E0,1.2109846E2,4.4981546E2,1.8242662E1,6.2222565E1,5.4984355E0],"tree_param":{"num_deleted":"0","num_feature":"8","num_nodes":"15","size_leaf_vector":"1"}},{"base_weights":[-1.2830387E-2,1.9735429E-1,-1.5144289E-1,-1.4218779E-1,2.5148135E-1,7.486306E-2,-1.809784E-1,2.5223175E-3,-4.4973353E-3,1.9367072E-3,5.510269E-3,-5.4242043E-3,1.9076349E-3,-4.055466E-3,-1.3739645E-3],"categories":[],"categories_nodes":[],"categories_segments":[],"categories_sizes":[],"default_left":[0,0,0,0,0,0,0,0,0,0,0,0,0,0,0],"id":32,"left_children":[1,3,5,7,9,11,13,-1,-1,-1,-1,-1,-1,-1,-1],"loss_changes":[2.6799047E1,6.7544518E0,3.7181683E0,6.288093E0,5.3597507E0,4.7317724E0,4.745392E0,0E0,0E0,0E0,0E0,0E0,0E0,0E0,0E0],"parents":[2147483647,0,0,1,1,2,2,3,3,4,4,5,5,6,6],"right_children":[2,4,6,8,10,12,14,-1,-1,-1,-1,-1,-1,-1,-1],"split_conditions":[-1.4638126E-1,-1.0387576E0,-1.5820955E0,-1.1696458E0,1.4584485E0,-2.2207554E-2,-1.142993E0,2.5223175E-3,-4.4973353E-3,1.9367072E-3,5.510269E-3,-5.4242043E-3,1.9076349E-3,-4.055466E-3,-1.3739645E-3],"split_indices":[0,1,2,2,6,0,2,0,0,0,0,0,0,0,0],"split_type":[0,0,0,0,0,0,0,0,0,0,0,0,0,0,0],"sum_hessian":[9.178218E2,3.6457526E2,5.5324646E2,4.990314E1,3.1467212E2,6.3692154E1,4.8955432E2,2.1942415E1,2.7960726E1,2.6514682E2,4.9525307E1,9.486608E0,5.4205547E1,7.8216515E1,4.1133783E2],"tree_param":{"num_deleted":"0","num_feature":"8","num_nodes":"15","size_leaf_vector":"1"}},{"base_weights":[-1.1899386E-3,1.9752441E-1,-1.7337623E-1,5.674898E-2,2.882045E-1,-6.2302345E-1,-1.3845454E-1,-7.6679075E-3,1.0721431E-3,5.729035E-3,2.1015157E-3,-8.165888E-3,3.9039503E-3,1.5524973E-3,-1.7206814E-3],"categories":[],"categories_nodes":[],"categories_segments":[],"categories_sizes":[],"default_left":[0,0,0,0,0,0,0,0,0,0,0,0,0,0,0],"id":33,"left_children":[1,3,5,7,9,11,13,-1,-1,-1,-1,-1,-1,-1,-1],"loss_changes":[3.1043936E1,5.3605366E0,7.546546E0,6.992235E0,5.5669727E0,7.134592E0,4.4924707E0,0E0,0E0,0E0,0E0,0E0,0E0,0E0,0E0],"parents":[2147483647,0,0,1,1,2,2,3,3,4,4,5,5,6,6],"right_children":[2,4,6,8,10,12,14,-1,-1,-1,-1,-1,-1,-1,-1],"split_conditions":[-4.9856927E-2,-4.5850468E-1,-1.24243E0,-1.497091E0,-8.453756E-1,1.9362509E-1,-1.1958427E0,-7.6679075E-3,1.0721431E-3,5.729035E-3,2.1015157E-3,-8.165888E-3,3.9039503E-3,1.5524973E-3,-1.7206814E-3],"split_indices":[0,1,7,0,7,5,1,0,0,0,0,0,0,0,0],"split_type":[0,0,0,0,0,0,0,0,0,0,0,0,0,0,0],"sum_hessian":[9.05295E2,4.2020428E2,4.8509067E2,1.6526538E2,2.5493892E2,3.374563E1,4.5134506E2,8.722887E0,1.565425E2,5.3490753E1,2.0144817E2,2.8496878E1,5.2487497E0,4.5978844E1,4.053662E2],"tree_param":{"num_deleted":"0","num_feature":"8","num_nodes":"15","size_leaf_vector":"1"}},{"base_weights":[-2.5600144E-3,1.9040689E-1,-1.3832824E-1,5.0877E-2,3.0695483E-1,-8.596936E-2,-3.2627895E-1,-4.041023E-5,7.051537E-3,-8.438746E-3,3.3233517E-3,-1.6117363E-3,1.9194208E-3,-4.1422555E-3,2.1546509E-3],"categories":[],"categories_nodes":[],"categories_segments":[],"categories_sizes":[],"default_left":[0,0,0,0,0,0,0,0,0,0,0,0,0,0,0],"id":34,"left_children":[1,3,5,7,9,11,13,-1,-1,-1,-1,-1,-1,-1,-1],"loss_changes":[2.4037073E1,6.146515E0,5.2717905E0,6.2427287E0,6.305277E0,8.862713E0,5.662839E0,0E0,0E0,0E0,0E0,0E0,0E0,0E0,0E0],"parents":[2147483647,0,0,1,1,2,2,3,3,4,4,5,5,6,6],"right_children":[2,4,6,8,10,12,14,-1,-1,-1,-1,-1,-1,-1,-1],"split_conditions":[-1.2944146E-1,-2.8533262E-1,6.1787105E-1,1.1244192E0,-2.2930481E0,3.1864736E-2,2.6513307E0,-4.041023E-5,7.051537E-3,-8.438746E-3,3.3233517E-3,-1.6117363E-3,1.9194208E-3,-4.1422555E-3,2.1546509E-3],"split_indices":[0,1,1,5,4,1,2,0,0,0,0,0,0,0,0],"split_type":[0,0,0,0,0,0,0,0,0,0,0,0,0,0,0],"sum_hessian":[9.1548315E2,3.7793005E2,5.375531E2,1.7266E2,2.0527005E2,4.215704E2,1.159827E2,1.6020656E2,1.2453436E1,3.7334578E0,2.0153659E2,3.3211768E2,8.9452705E1,9.998633E1,1.599637E1],"tree_param":{"num_deleted":"0","num_feature":"8","num_nodes":"15","size_leaf_vector":"1"}},{"base_weights":[9.376554E-3,1.8021345E-1,-1.13133065E-1,1.1539087E-1,4.1676098E-1,-2.1662386E-1,6.5539377E-3,3.6000174E-3,4.2049141E-4,7.7077383E-3,3.0289309E-3,3.5998202E-4,-3.2914244E-3,1.1399965E-3,-2.1776361E-3],"categories":[],"categories_nodes":[],"categories_segments":[],"categories_sizes":[],"default_left":[0,0,0,0,0,0,0,0,0,0,0,0,0,0,0],"id":35,"left_children":[1,3,5,7,9,11,13,-1,-1,-1,-1,-1,-1,-1,-1],"loss_changes":[1.9038662E1,5.7768908E0,6.563968E0,5.3589444E0,3.0448942E0,8.089039E0,5.9696536E0,0E0,0E0,0E0,0E0,0E0,0E0,0E0,0E0],"parents":[2147483647,0,0,1,1,2,2,3,3,4,4,5,5,6,6],"right_children":[2,4,6,8,10,12,14,-1,-1,-1,-1,-1,-1,-1,-1],"split_conditions":[-1.2230416E-1,1.1835005E0,1.4431213E-1,-1.2495501E0,-8.343622E-1,-7.817102E-1,1.2280061E0,3.6000174E-3,4.2049141E-4,7.7077383E-3,3.0289309E-3,3.5998202E-4,-3.2914244E-3,1.1399965E-3,-2.1776361E-3],"split_indices":[0,2,5,2,3,5,5,0,0,0,0,0,0,0,0],"split_type":[0,0,0,0,0,0,0,0,0,0,0,0,0,0,0],"sum_hessian":[9.076973E2,3.788828E2,5.288145E2,2.9855557E2,8.0327225E1,2.831612E2,2.4565334E2,6.796586E1,2.3058972E2,1.814519E1,6.2182034E1,8.746608E1,1.9569511E2,1.6642793E2,7.922541E1],"tree_param":{"num_deleted":"0","num_feature":"8","num_nodes":"15","size_leaf_vector":"1"}},{"base_weights":[-3.94523E-3,1.6445567E-1,-1.12381354E-1,2.072612E-2,2.9960707E-1,3.6108788E-2,-1.9002447E-1,1.9960382E-3,-2.177568E-3,6.099456E-3,2.1021543E-3,-3.551224E-4,4.2167837E-3,1.9054218E-3,-2.346767E-3],"categories":[],"categories_nodes":[],"categories_segments":[],"categories_sizes":[],"default_left":[0,0,0,0,0,0,0,0,0,0,0,0,0,0,0],"id":36,"left_children":[1,3,5,7,9,11,13,-1,-1,-1,-1,-1,-1,-1,-1],"loss_changes":[1.661611E1,6.9175034E0,6.388243E0,7.4579396E0,4.9657516E0,5.2862067E0,6.223632E0,0E0,0E0,0E0,0E0,0E0,0E0,0E0,0E0],"parents":[2147483647,0,0,1,1,2,2,3,3,4,4,5,5,6,6],"right_children":[2,4,6,8,10,12,14,-1,-1,-1,-1,-1,-1,-1,-1],"split_conditions":[-1.5603669E-1,-2.905606E-1,-7.3803145E-1,-1.0069103E0,-9.90271E-1,-9.240117E-1,-1.5183284E0,1.9960382E-3,-2.177568E-3,6.099456E-3,2.1021543E-3,-3.551224E-4,4.2167837E-3,1.9054218E-3,-2.346767E-3],"split_indices":[0,2,4,2,5,4,6,0,0,0,0,0,0,0,0],"split_type":[0,0,0,0,0,0,0,0,0,0,0,0,0,0,0],"sum_hessian":[9.0792413E2,3.5542847E2,5.5249567E2,1.7280684E2,1.8262163E2,1.8988368E2,3.62612E2,9.883625E1,7.397059E1,3.9537407E1,1.4308423E2,1.609032E2,2.8980492E1,3.773481E1,3.248772E2],"tree_param":{"num_deleted":"0","num_feature":"8","num_nodes":"15","size_leaf_vector":"1"}},{"base_weights":[-3.0392064E-3,1.8505074E-1,-1.350142E-1,-3.9887357E-1,2.0454037E-1,-1.2319972E-1,-1.0096918E0,8.359915E-3,-6.7739314E-3,3.8720178E-3,1.399752E-3,-1.6190639E-3,1.3654205E-3,-1.5833432E-2,1.3950411E-3],"categories":[],"categories_nodes":[],"categories_segments":[],"categories_sizes":[],"default_left":[0,0,0,0,0,0,0,0,0,0,0,0,0,0,0],"id":37,"left_children":[1,3,5,7,9,11,13,-1,-1,-1,-1,-1,-1,-1,-1],"loss_changes":[2.2623304E1,4.3583965E0,5.410104E0,4.857562E0,4.242502E0,5.3462696E0,4.8346744E0,0E0,0E0,0E0,0E0,0E0,0E0,0E0,0E0],"parents":[2147483647,0,0,1,1,2,2,3,3,4,4,5,5,6,6],"right_children":[2,4,6,8,10,12,14,-1,-1,-1,-1,-1,-1,-1,-1],"split_conditions":[-1.2944146E-1,-1.6425922E0,3.314916E0,-2.5199783E0,-1.0069103E0,1.1967069E0,1.1993302E0,8.359915E-3,-6.7739314E-3,3.8720178E-3,1.399752E-3,-1.6190639E-3,1.3654205E-3,-1.5833432E-2,1.3950411E-3],"split_indices":[0,1,6,1,2,0,4,0,0,0,0,0,0,0,0],"split_type":[0,0,0,0,0,0,0,0,0,0,0,0,0,0,0],"sum_hessian":[9.0937195E2,3.7480292E2,5.34569E2,1.1477003E1,3.6332593E2,5.285703E2,5.998675E0,1.7438387E0,9.733165E0,9.35804E1,2.697455E2,4.6034625E2,6.822405E1,3.74932E0,2.2493548E0],"tree_param":{"num_deleted":"0","num_feature":"8","num_nodes":"15","size_leaf_vector":"1"}},{"base_weights":[1.7196186E-3,1.8766938E-1,-1.2889533E-1,-1.05584934E-1,2.3598953E-1,1.21832766E-1,-1.8516268E-1,3.2630702E-3,-4.42101E-3,9.818431E-3,2.1705101E-3,-2.4775953E-3,2.4544708E-3,-1.1241417E-3,-4.9351705E-3],"categories":[],"categories_nodes":[],"categories_segments":[],"categories_sizes":[],"default_left":[0,0,0,0,0,0,0,0,0,0,0,0,0,0,0],"id":38,"left_children":[1,3,5,7,9,11,13,-1,-1,-1,-1,-1,-1,-1,-1],"loss_changes":[2.2134565E1,5.3531237E0,7.574895E0,7.975612E0,4.3512764E0,4.5710516E0,9.761124E0,0E0,0E0,0E0,0E0,0E0,0E0,0E0,0E0],"parents":[2147483647,0,0,1,1,2,2,3,3,4,4,5,5,6,6],"right_children":[2,4,6,8,10,12,14,-1,-1,-1,-1,-1,-1,-1,-1],"split_conditions":[-1.2230416E-1,-1.0498251E0,-1.1442835E0,-1.2200586E0,-9.998862E-1,-1.774516E0,6.370499E-1,3.2630702E-3,-4.42101E-3,9.818431E-3,2.1705101E-3,-2.4775953E-3,2.4544708E-3,-1.1241417E-3,-4.9351705E-3],"split_indices":[0,1,6,2,1,6,1,0,0,0,0,0,0,0,0],"split_type":[0,0,0,0,0,0,0,0,0,0,0,0,0,0,0],"sum_hessian":[9.0934827E2,3.7501785E2,5.343304E2,5.2883495E1,3.2213437E2,9.7720634E1,4.3660977E2,2.3173046E1,2.971045E1,6.717957E0,3.154164E2,2.4240395E1,7.348024E1,3.5436966E2,8.2240105E1],"tree_param":{"num_deleted":"0","num_feature":"8","num_nodes":"15","size_leaf_vector":"1"}},{"base_weights":[1.3929242E-2,-7.133133E-3,3.6029E-1,7.1229273E-1,-1.5401834E-2,4.6644005E-1,-6.7231554E-1,1.1125595E-2,-3.197734E-3,-2.837916E-4,4.509391E-3,5.4489885E-4,8.633605E-3,-9.306756E-3,-1.5646391E-4],"categories":[],"categories_nodes":[],"categories_segments":[],"categories_sizes":[],"default_left":[0,0,0,0,0,0,0,0,0,0,0,0,0,0,0],"id":39,"left_children":[1,3,5,7,9,11,13,-1,-1,-1,-1,-1,-1,-1,-1],"loss_changes":[6.603277E0,5.0906816E0,6.0009785E0,4.3728166E0,5.1277843E0,7.7427425E0,8.7550783E-1,0E0,0E0,0E0,0E0,0E0,0E0,0E0,0E0],"parents":[2147483647,0,0,1,1,2,2,3,3,4,4,5,5,6,6],"right_children":[2,4,6,8,10,12,14,-1,-1,-1,-1,-1,-1,-1,-1],"split_conditions":[2.2616158E0,-1.5341804E0,3.1370425E0,1.7528354E0,2.5566936E0,1.3678291E0,4.768117E-1,1.1125595E-2,-3.197734E-3,-2.837916E-4,4.509391E-3,5.4489885E-4,8.633605E-3,-9.306756E-3,-1.5646391E-4],"split_indices":[6,7,5,2,2,5,4,0,0,0,0,0,0,0,0],"split_type":[0,0,0,0,0,0,0,0,0,0,0,0,0,0,0],"sum_hessian":[9.0380383E2,8.5291693E2,5.088691E1,8.724115E0,8.441928E2,4.664062E1,4.2462864E0,6.2299557E0,2.4941597E0,8.2225037E2,2.1942421E1,2.344507E1,2.3195553E1,2.747889E0,1.4983975E0],"tree_param":{"num_deleted":"0","num_feature":"8","num_nodes":"15","size_leaf_vector":"1"}},{"base_weights":[-1.717285E-2,1.5414354E-1,-1.3329116E-1,-1.1318875E-1,2.0070007E-1,-3.0682143E-3,-1.9887023E-1,-3.6959662E-3,2.897733E-3,1.09287035E-2,1.8943051E-3,-7.1648275E-4,3.8227518E-3,-2.587759E-3,5.510834E-4],"categories":[],"categories_nodes":[],"categories_segments":[],"categories_sizes":[],"default_left":[0,0,0,0,0,0,0,0,0,0,0,0,0,0,0],"id":40,"left_children":[1,3,5,7,9,11,13,-1,-1,-1,-1,-1,-1,-1,-1],"loss_changes":[1.825376E1,4.636962E0,4.6692343E0,5.8547397E0,2.9712744E0,4.894209E0,5.547328E0,0E0,0E0,0E0,0E0,0E0,0E0,0E0,0E0],"parents":[2147483647,0,0,1,1,2,2,3,3,4,4,5,5,6,6],"right_children":[2,4,6,8,10,12,14,-1,-1,-1,-1,-1,-1,-1,-1],"split_conditions":[-1.2230416E-1,-1.0387576E0,-7.3803145E-1,-3.510327E-1,-2.4151843E0,-8.9419264E-1,9.295231E-1,-3.6959662E-3,2.897733E-3,1.09287035E-2,1.8943051E-3,-7.1648275E-4,3.8227518E-3,-2.587759E-3,5.510834E-4],"split_indices":[0,1,4,0,2,4,7,0,0,0,0,0,0,0,0],"split_type":[0,0,0,0,0,0,0,0,0,0,0,0,0,0,0],"sum_hessian":[9.155658E2,3.6973935E2,5.458265E2,5.4628086E1,3.1511127E2,1.8316176E2,3.626647E2,3.343557E1,2.1192514E1,2.733511E0,3.1237775E2,1.5618024E2,2.698153E1,2.9343387E2,6.9230835E1],"tree_param":{"num_deleted":"0","num_feature":"8","num_nodes":"15","size_leaf_vector":"1"}},{"base_weights":[-8.787691E-3,1.2001852E-1,-1.507621E-1,6.5179594E-2,4.4682184E-1,-3.4103668E-1,-6.682251E-2,6.330572E-3,4.807619E-4,8.111641E-3,2.3784158E-3,-2.2139351E-3,-7.146323E-3,-6.7676694E-5,-4.473101E-3],"categories":[],"categories_nodes":[],"categories_segments":[],"categories_sizes":[],"default_left":[0,0,0,0,0,0,0,0,0,0,0,0,0,0,0],"id":41,"left_children":[1,3,5,7,9,11,13,-1,-1,-1,-1,-1,-1,-1,-1],"loss_changes":[1.6700369E1,8.552738E0,6.914963E0,3.9635997E0,5.0331297E0,5.774329E0,6.912715E0,0E0,0E0,0E0,0E0,0E0,0E0,0E0,0E0],"parents":[2147483647,0,0,1,1,2,2,3,3,4,4,5,5,6,6],"right_children":[2,4,6,8,10,12,14,-1,-1,-1,-1,-1,-1,-1,-1],"split_conditions":[3.405147E-2,1.0638628E0,2.790333E-1,-1.4502292E0,-5.828091E-1,8.3635813E-1,1.4261497E0,6.330572E-3,4.807619E-4,8.111641E-3,2.3784158E-3,-2.2139351E-3,-7.146323E-3,-6.7676694E-5,-4.473101E-3],"split_indices":[0,1,0,7,5,2,1,0,0,0,0,0,0,0,0],"split_type":[0,0,0,0,0,0,0,0,0,0,0,0,0,0,0],"sum_hessian":[9.112385E2,4.7785733E2,4.333812E2,4.1022018E2,6.763716E1,1.3172455E2,3.0165665E2,1.094088E1,3.992793E2,2.3603903E1,4.4033257E1,1.0097889E2,3.0745665E1,2.614138E2,4.024285E1],"tree_param":{"num_deleted":"0","num_feature":"8","num_nodes":"15","size_leaf_vector":"1"}},{"base_weights":[-5.036423E-3,1.632479E-1,-1.1830831E-1,-4.7218075E-1,1.8515927E-1,1.6805348E-1,-1.5054904E-1,7.454125E-3,-7.059487E-3,1.381162E-3,3.950907E-3,-4.3349166E-4,4.980912E-3,-6.1606686E-3,-1.0969839E-3],"categories":[],"categories_nodes":[],"categories_segments":[],"categories_sizes":[],"default_left":[0,0,0,0,0,0,0,0,0,0,0,0,0,0,0],"id":42,"left_children":[1,3,5,7,9,11,13,-1,-1,-1,-1,-1,-1,-1,-1],"loss_changes":[1.7336567E1,5.1819725E0,5.043814E0,4.0780478E0,3.445692E0,3.8923824E0,9.233317E0,0E0,0E0,0E0,0E0,0E0,0E0,0E0,0E0],"parents":[2147483647,0,0,1,1,2,2,3,3,4,4,5,5,6,6],"right_children":[2,4,6,8,10,12,14,-1,-1,-1,-1,-1,-1,-1,-1],"split_conditions":[-1.3322027E-1,-1.6830885E0,-1.2123414E0,-1.5128329E0,1.0638628E0,3.1297296E-1,-9.998862E-1,7.454125E-3,-7.059487E-3,1.381162E-3,3.950907E-3,-4.3349166E-4,4.980912E-3,-6.1606686E-3,-1.0969839E-3],"split_indices":[0,1,1,3,1,0,1,0,0,0,0,0,0,0,0],"split_type":[0,0,0,0,0,0,0,0,0,0,0,0,0,0,0],"sum_hessian":[9.074755E2,3.649058E2,5.4256976E2,1.1478554E1,3.5342725E2,5.4478626E1,4.8809113E2,1.496301E0,9.982252E0,2.9008145E2,6.3345787E1,3.3737213E1,2.0741411E1,3.8240173E1,4.4985095E2],"tree_param":{"num_deleted":"0","num_feature":"8","num_nodes":"15","size_leaf_vector":"1"}},{"base_weights":[1.070026E-2,1.8894215E-1,-1.1116101E-1,-4.5476574E-1,2.1179017E-1,-5.692012E-2,-3.0858907E-1,5.962907E-3,-6.998246E-3,4.036331E-3,1.3732184E-3,-1.6482116E-3,7.9165056E-4,1.7663126E-3,-4.400804E-3],"categories":[],"categories_nodes":[],"categories_segments":[],"categories_sizes":[],"default_left":[0,0,0,0,0,0,0,0,0,0,0,0,0,0,0],"id":43,"left_children":[1,3,5,7,9,11,13,-1,-1,-1,-1,-1,-1,-1,-1],"loss_changes":[1.9758162E1,5.528536E0,5.768594E0,3.760122E0,5.050089E0,6.255065E0,7.49329E0,0E0,0E0,0E0,0E0,0E0,0E0,0E0,0E0],"parents":[2147483647,0,0,1,1,2,2,3,3,4,4,5,5,6,6],"right_children":[2,4,6,8,10,12,14,-1,-1,-1,-1,-1,-1,-1,-1],"split_conditions":[-1.3322027E-1,-1.6425922E0,6.1787105E-1,-9.4831157E-1,-9.4519764E-1,1.4431213E-1,-1.3357497E0,5.962907E-3,-6.998246E-3,4.036331E-3,1.3732184E-3,-1.6482116E-3,7.9165056E-4,1.7663126E-3,-4.400804E-3],"split_indices":[0,1,1,4,6,5,6,0,0,0,0,0,0,0,0],"split_type":[0,0,0,0,0,0,0,0,0,0,0,0,0,0,0],"sum_hessian":[9.076763E2,3.6835168E2,5.393246E2,1.1978272E1,3.563734E2,4.2409744E2,1.1522716E2,1.993766E0,9.984507E0,9.841628E1,2.5795712E2,2.3642581E2,1.8767163E2,2.4494808E1,9.073235E1],"tree_param":{"num_deleted":"0","num_feature":"8","num_nodes":"15","size_leaf_vector":"1"}},{"base_weights":[-2.2379768E-3,1.6652536E-1,-1.22659124E-1,7.024513E-2,3.0217364E-1,1.1620094E0,-1.3709748E-1,3.0063533E-3,-8.222434E-4,7.976223E-3,1.9951037E-3,1.5218092E-2,1.8335903E-3,-5.778317E-3,-1.0709285E-3],"categories":[],"categories_nodes":[],"categories_segments":[],"categories_sizes":[],"default_left":[0,0,0,0,0,0,0,0,0,0,0,0,0,0,0],"id":44,"left_children":[1,3,5,7,9,11,13,-1,-1,-1,-1,-1,-1,-1,-1],"loss_changes":[1.8460293E1,4.9189606E0,9.991741E0,7.841883E0,7.812557E0,1.8326225E0,6.882022E0,0E0,0E0,0E0,0E0,0E0,0E0,0E0,0E0],"parents":[2147483647,0,0,1,1,2,2,3,3,4,4,5,5,6,6],"right_children":[2,4,6,8,10,12,14,-1,-1,-1,-1,-1,-1,-1,-1],"split_conditions":[-1.2230416E-1,6.262193E-3,-1.5341804E0,-1.0069103E0,2.6366615E-1,3.5112482E-1,-1.24243E0,3.0063533E-3,-8.222434E-4,7.976223E-3,1.9951037E-3,1.5218092E-2,1.8335903E-3,-5.778317E-3,-1.0709285E-3],"split_indices":[0,1,7,2,1,0,7,0,0,0,0,0,0,0,0],"split_type":[0,0,0,0,0,0,0,0,0,0,0,0,0,0,0],"sum_hessian":[9.063544E2,3.7726135E2,5.29093E2,2.21537E2,1.5572433E2,4.9970207E0,5.24096E2,8.783757E1,1.3369943E2,2.5567476E1,1.3015686E2,3.2479186E0,1.749102E0,3.2241825E1,4.918542E2],"tree_param":{"num_deleted":"0","num_feature":"8","num_nodes":"15","size_leaf_vector":"1"}},{"base_weights":[1.8777262E-2,-1.7859764E-1,5.385823E-2,-1.5632277E-2,-4.590963E-1,1.4657201E-1,-3.8723887E-3,7.3556183E-3,-7.4655015E-4,1.5545444E-3,-6.761143E-3,2.2416562E-3,-6.426719E-4,-6.612375E-4,1.7540742E-3],"categories":[],"categories_nodes":[],"categories_segments":[],"categories_sizes":[],"default_left":[0,0,0,0,0,0,0,0,0,0,0,0,0,0,0],"id":45,"left_children":[1,3,5,7,9,11,13,-1,-1,-1,-1,-1,-1,-1,-1],"loss_changes":[6.3005323E0,6.271103E0,4.1337495E0,3.9525673E0,6.8317986E0,4.862591E0,5.3335476E0,0E0,0E0,0E0,0E0,0E0,0E0,0E0,0E0],"parents":[2147483647,0,0,1,1,2,2,3,3,4,4,5,5,6,6],"right_children":[2,4,6,8,10,12,14,-1,-1,-1,-1,-1,-1,-1,-1],"split_conditions":[-1.0387576E0,-1.2123414E0,-5.3391755E-1,-1.4968106E0,-1.519777E0,-1.7713407E-1,1.5319481E0,7.3556183E-3,-7.4655015E-4,1.5545444E-3,-6.761143E-3,2.2416562E-3,-6.426719E-4,-6.612375E-4,1.7540742E-3],"split_indices":[1,1,6,6,2,3,6,0,0,0,0,0,0,0,0],"split_type":[0,0,0,0,0,0,0,0,0,0,0,0,0,0,0],"sum_hessian":[9.075529E2,1.3634554E2,7.712074E2,8.6908676E1,4.9436855E1,2.953479E2,4.7585947E2,5.49612E0,8.141255E1,1.2975779E1,3.6461075E1,2.1584781E2,7.950009E1,3.536817E2,1.2217779E2],"tree_param":{"num_deleted":"0","num_feature":"8","num_nodes":"15","size_leaf_vector":"1"}},{"base_weights":[3.4192645E-3,1.5051039E-1,-1.2565814E-1,-1.259852E-1,1.9855726E-1,-1.7386635E-1,7.9197265E-2,3.00296E-3,-5.22029E-3,3.8461601E-3,1.2533516E-3,1.7762686E-3,-1.970395E-3,-9.033322E-3,1.2785927E-3],"categories":[],"categories_nodes":[],"categories_segments":[],"categories_sizes":[],"default_left":[0,0,0,0,0,0,0,0,0,0,0,0,0,0,0],"id":46,"left_children":[1,3,5,7,9,11,13,-1,-1,-1,-1,-1,-1,-1,-1],"loss_changes":[1.7221395E1,5.6568556E0,4.784947E0,1.0855759E1,4.8775444E0,3.2230396E0,4.5486665E0,0E0,0E0,0E0,0E0,0E0,0E0,0E0,0E0],"parents":[2147483647,0,0,1,1,2,2,3,3,4,4,5,5,6,6],"right_children":[2,4,6,8,10,12,14,-1,-1,-1,-1,-1,-1,-1,-1],"split_conditions":[-4.9856927E-2,-1.0387576E0,9.295231E-1,-1.1696458E0,-9.192084E-1,-1.8638417E0,-1.5256381E-2,3.00296E-3,-5.22029E-3,3.8461601E-3,1.2533516E-3,1.7762686E-3,-1.970395E-3,-9.033322E-3,1.2785927E-3],"split_indices":[0,1,7,2,6,2,0,0,0,0,0,0,0,0,0],"split_type":[0,0,0,0,0,0,0,0,0,0,0,0,0,0,0],"sum_hessian":[9.050549E2,4.229327E2,4.821222E2,6.237291E1,3.605598E2,3.9040112E2,9.1721054E1,3.0156141E1,3.2216766E1,1.0062274E2,2.5993704E2,2.3734097E1,3.6666702E2,3.499506E0,8.822155E1],"tree_param":{"num_deleted":"0","num_feature":"8","num_nodes":"15","size_leaf_vector":"1"}},{"base_weights":[-1.4578803E-2,1.0889443E-1,-1.4934328E-1,9.164862E-1,9.8068416E-2,-1.2069035E-1,-6.4491236E-1,1.2465775E-2,-7.686934E-4,2.2275117E-3,4.1742602E-4,-2.9781135E-3,-3.5227908E-4,-8.143007E-3,-8.1415696E-5],"categories":[],"categories_nodes":[],"categories_segments":[],"categories_sizes":[],"default_left":[0,0,0,0,0,0,0,0,0,0,0,0,0,0,0],"id":47,"left_children":[1,3,5,7,9,11,13,-1,-1,-1,-1,-1,-1,-1,-1],"loss_changes":[1.5266574E1,4.096816E0,6.1505375E0,2.133565E0,3.3170657E0,6.2848945E0,2.5544958E0,0E0,0E0,0E0,0E0,0E0,0E0,0E0,0E0],"parents":[2147483647,0,0,1,1,2,2,3,3,4,4,5,5,6,6],"right_children":[2,4,6,8,10,12,14,-1,-1,-1,-1,-1,-1,-1,-1],"split_conditions":[2.8005887E-2,-2.54962E0,2.3507283E0,2.7145057E0,-9.9818474E-1,2.790333E-1,3.449854E0,1.2465775E-2,-7.686934E-4,2.2275117E-3,4.1742602E-4,-2.9781135E-3,-3.5227908E-4,-8.143007E-3,-8.1415696E-5],"split_indices":[0,6,1,4,2,0,2,0,0,0,0,0,0,0,0],"split_type":[0,0,0,0,0,0,0,0,0,0,0,0,0,0,0],"sum_hessian":[9.1549585E2,4.7786276E2,4.376331E2,5.2145576E0,4.7264822E2,4.1488852E2,2.2744574E1,3.7226186E0,1.4919392E0,1.4615811E2,3.264901E2,1.3422414E2,2.8066437E2,1.774532E1,4.999255E0],"tree_param":{"num_deleted":"0","num_feature":"8","num_nodes":"15","size_leaf_vector":"1"}},{"base_weights":[1.9080753E-2,2.3749587E-1,-7.824329E-3,7.1588564E-1,1.3964821E-1,-9.769518E-2,6.429067E-2,1.12240445E-2,-1.4576184E-3,-1.8489915E-3,2.5558465E-3,-7.0135033E-4,-4.9169883E-3,1.4476049E-3,-3.5032895E-4],"categories":[],"categories_nodes":[],"categories_segments":[],"categories_sizes":[],"default_left":[0,0,0,0,0,0,0,0,0,0,0,0,0,0,0],"id":48,"left_children":[1,3,5,7,9,11,13,-1,-1,-1,-1,-1,-1,-1,-1],"loss_changes":[5.344938E0,4.569275E0,5.259041E0,6.01171E0,3.209971E0,3.8879051E0,3.6038268E0,0E0,0E0,0E0,0E0,0E0,0E0,0E0,0E0],"parents":[2147483647,0,0,1,1,2,2,3,3,4,4,5,5,6,6],"right_children":[2,4,6,8,10,12,14,-1,-1,-1,-1,-1,-1,-1,-1],"split_conditions":[-1.5820955E0,-7.107895E-1,-2.6314524E-1,-6.044945E-1,-2.2703564E0,-3.8669115E-1,4.7165483E-1,1.12240445E-2,-1.4576184E-3,-1.8489915E-3,2.5558465E-3,-7.0135033E-4,-4.9169883E-3,1.4476049E-3,-3.5032895E-4],"split_indices":[2,6,2,4,2,2,1,0,0,0,0,0,0,0,0],"split_type":[0,0,0,0,0,0,0,0,0,0,0,0,0,0,0],"sum_hessian":[9.082319E2,9.8750374E1,8.094815E2,1.5695709E1,8.3054665E1,3.6021774E2,4.4926373E2,1.0458731E1,5.236978E0,2.1703634E1,6.135103E1,3.3776913E2,2.2448593E1,2.4793481E2,2.0132893E2],"tree_param":{"num_deleted":"0","num_feature":"8","num_nodes":"15","size_leaf_vector":"1"}},{"base_weights":[-1.4581747E-2,1.8484977E-1,-3.8020488E-2,-1.0319544E-1,4.7034246E-1,-7.0997775E-2,1.09007455E-1,2.2206483E-3,-6.438134E-3,1.1213241E-2,2.7446912E-3,-3.722011E-4,-2.839858E-3,1.7446907E-3,-2.2198535E-3],"categories":[],"categories_nodes":[],"categories_segments":[],"categories_sizes":[],"default_left":[0,0,0,0,0,0,0,0,0,0,0,0,0,0,0],"id":49,"left_children":[1,3,5,7,9,11,13,-1,-1,-1,-1,-1,-1,-1,-1],"loss_changes":[4.3074656E0,8.019072E0,4.0033064E0,8.770887E0,5.9220686E0,4.836214E0,3.3184128E0,0E0,0E0,0E0,0E0,0E0,0E0,0E0,0E0],"parents":[2147483647,0,0,1,1,2,2,3,3,4,4,5,5,6,6],"right_children":[2,4,6,8,10,12,14,-1,-1,-1,-1,-1,-1,-1,-1],"split_conditions":[-1.4968106E0,-1.774516E0,1.4795825E0,-1.9976022E0,-1.0611631E0,9.896856E-1,2.7880623E0,2.2206483E-3,-6.438134E-3,1.1213241E-2,2.7446912E-3,-3.722011E-4,-2.839858E-3,1.7446907E-3,-2.2198535E-3],"split_indices":[6,6,6,6,3,6,6,0,0,0,0,0,0,0,0],"split_type":[0,0,0,0,0,0,0,0,0,0,0,0,0,0,0],"sum_hessian":[9.189931E2,9.59241E1,8.2306903E2,4.8066444E1,4.7857662E1,6.727036E2,1.5036537E2,3.0378561E1,1.7687881E1,9.976426E0,3.7881233E1,5.816369E2,9.1066765E1,1.25932205E2,2.4433168E1],"tree_param":{"num_deleted":"0","num_feature":"8","num_nodes":"15","size_leaf_vector":"1"}},{"base_weights":[1.8970052E-3,1.837135E-1,-9.9617645E-2,4.663459E-1,1.1860403E-1,-5.0813515E-2,-2.4813724E-1,1.1430246E-2,3.7169906E-3,-8.440737E-3,1.4596083E-3,-1.0664565E-3,1.3072747E-3,-5.6250254E-3,-1.2829878E-3],"categories":[],"categories_nodes":[],"categories_segments":[],"categories_sizes":[],"default_left":[0,0,0,0,0,0,0,0,0,0,0,0,0,0,0],"id":50,"left_children":[1,3,5,7,9,11,13,-1,-1,-1,-1,-1,-1,-1,-1],"loss_changes":[1.6762808E1,5.9326715E0,4.21187E0,3.4553194E0,7.1235933E0,4.4729624E0,5.348645E0,0E0,0E0,0E0,0E0,0E0,0E0,0E0,0E0],"parents":[2147483647,0,0,1,1,2,2,3,3,4,4,5,5,6,6],"right_children":[2,4,6,8,10,12,14,-1,-1,-1,-1,-1,-1,-1,-1],"split_conditions":[-2.1284217E-1,-1.0493044E0,8.822758E-1,-1.5534933E0,-1.6425922E0,1.1469149E-2,1.24159224E-1,1.1430246E-2,3.7169906E-3,-8.440737E-3,1.4596083E-3,-1.0664565E-3,1.3072747E-3,-5.6250254E-3,-1.2829878E-3],"split_indices":[0,3,2,2,1,2,0,0,0,0,0,0,0,0,0],"split_type":[0,0,0,0,0,0,0,0,0,0,0,0,0,0,0],"sum_hessian":[9.062154E2,3.243976E2,5.818178E2,5.958476E1,2.6481284E2,4.3892682E2,1.4289098E2,5.952261E0,5.36325E1,6.492418E0,2.5832043E2,3.3600305E2,1.02923744E2,3.8417843E1,1.0447314E2],"tree_param":{"num_deleted":"0","num_feature":"8","num_nodes":"15","size_leaf_vector":"1"}}]},"name":"gbtree"},"learner_model_param":{"base_score":"[5.1776314E-1]","boost_from_average":"1","num_class":"0","num_feature":"8","num_target":"1"},"objective":{"name":"binary:logistic","reg_loss_param":{"scale_pos_weight":"1"}}},"version":[3,1,2]}