{"learner":{"attributes":{"scikit_learn":"{\"_estimator_type\": \"classifier\"}"},"feature_names":["velocity","acceleration","amplitude","phase","fracdiff"],"feature_types":["float","float","float","float","float"],"gradient_booster":{"model":{"cats":{"enc":[],"feature_segments":[],"sorted_idx":[]},"gbtree_model_param":{"num_parallel_tree":"1","num_trees":"100"},"iteration_indptr":[0,1,2,3,4,5,6,7,8,9,10,11,12,13,14,15,16,17,18,19,20,21,22,23,24,25,26,27,28,29,30,31,32,33,34,35,36,37,38,39,40,41,42,43,44,45,46,47,48,49,50,51,52,53,54,55,56,57,58,59,60,61,62,63,64,65,66,67,68,69,70,71,72,73,74,75,76,77,78,79,80,81,82,83,84,85,86,87,88,89,90,91,92,93,94,95,96,97,98,99,100],"tree_info":[0,0,0,0,0,0,0,0,0,0,0,0,0,0,0,0,0,0,0,0,0,0,0,0,0,0,0,0,0,0,0,0,0,0,0,0,0,0,0,0,0,0,0,0,0,0,0,0,0,0,0,0,0,0,0,0,0,0,0,0,0,0,0,0,0,0,0,0,0,0,0,0,0,0,0,0,0,0,0,0,0,0,0,0,0,0,0,0,0,0,0,0,0,0,0,0,0,0,0,0],"trees":[{"base_weights":[6.06759E-8,9.9187887E-1,-7.353317E-1,-5.9774745E-1,1.3153325E0,-9.108641E-1,-4.667247E-2,5.1983017E-1,-1.0892074E0,-3.949744E-2,1.6176709E0,-9.979152E-1,1.4896196E-1,-4.9270713E-1,8.3499424E-2,3.168093E-2,7.983393E-3,-1.5714144E-2,-5.9923287E-2,-4.9928952E-2,4.558898E-1,3.1876963E-1,1.8751289E0,-1.0651109E-1,-1.1094581E0,-3.941168E-2,6.8020487E-1,4.3155873E-1,-1.1411607E0,5.2866466E-2,-2.991811E-2,4.016226E-2,-4.2791884E-2,1.1704629E-1,4.6342563E-2,2.1564482E-2,-3.6123227E-2,-1.7037584E-2,-5.801282E-2,6.441642E-2,-1.5714144E-2,5.4704268E-2,-2.991811E-2,-1.5714144E-2,-6.2186547E-2],"categories":[],"categories_nodes":[],"categories_segments":[],"categories_sizes":[],"default_left":[0,0,0,0,0,0,0,0,0,0,0,0,0,0,0,0,0,0,0,0,0,0,0,0,0,0,0,0,0,0,0,0,0,0,0,0,0,0,0,0,0,0,0,0,0],"id":0,"left_children":[1,3,5,7,9,11,13,15,17,19,21,23,25,27,-1,-1,-1,-1,-1,-1,29,31,33,35,37,-1,39,41,43,-1,-1,-1,-1,-1,-1,-1,-1,-1,-1,-1,-1,-1,-1,-1,-1],"loss_changes":[7.7393036E1,2.4013878E1,7.3235397E0,5.138938E0,1.5567688E1,4.6236534E0,1.11069145E1,3.0788183E-2,1.4028883E-1,4.199888E0,9.758324E0,4.3514977E0,2.8023822E0,7.344943E0,0E0,0E0,0E0,0E0,0E0,0E0,4.3633146E0,4.288306E0,9.155754E0,2.3341503E0,1.1606407E0,0E0,2.4864218E0,4.3664355E0,2.0226479E-1,0E0,0E0,0E0,0E0,0E0,0E0,0E0,0E0,0E0,0E0,0E0,0E0,0E0,0E0,0E0,0E0],"parents":[2147483647,0,0,1,1,2,2,3,3,4,4,5,5,6,6,7,7,8,8,9,9,10,10,11,11,12,12,13,13,20,20,21,21,22,22,23,23,24,24,26,26,27,27,28,28],"right_children":[2,4,6,8,10,12,14,16,18,20,22,24,26,28,-1,-1,-1,-1,-1,-1,30,32,34,36,38,-1,40,42,44,-1,-1,-1,-1,-1,-1,-1,-1,-1,-1,-1,-1,-1,-1,-1,-1],"split_conditions":[-1.1395061E-1,8.185878E2,2.4123476E0,1.7936346E4,-2.5641506E0,1.9294759E2,1.8735703E4,-2.0253794E1,-1.5087568E1,-2.9414177E0,1.1368881E3,3.9216852E2,2.57148E3,-1.839427E2,8.3499424E-2,3.168093E-2,7.983393E-3,-1.5714144E-2,-5.9923287E-2,-4.9928952E-2,8.0243324E1,1.8162428E4,1.07186195E2,1.2036943E1,3.629165E-1,-3.941168E-2,3.0206773E-1,-8.122279E-1,-6.3516632E1,5.2866466E-2,-2.991811E-2,4.016226E-2,-4.2791884E-2,1.1704629E-1,4.6342563E-2,2.1564482E-2,-3.6123227E-2,-1.7037584E-2,-5.801282E-2,6.441642E-2,-1.5714144E-2,5.4704268E-2,-2.991811E-2,-1.5714144E-2,-6.2186547E-2],"split_indices":[3,2,3,4,3,0,4,0,0,3,2,2,2,0,0,0,0,0,0,0,1,4,0,0,3,0,3,1,1,0,0,0,0,0,0,0,0,0,0,0,0,0,0,0,0],"split_type":[0,0,0,0,0,0,0,0,0,0,0,0,0,0,0,0,0,0,0,0,0,0,0,0,0,0,0,0,0,0,0,0,0,0,0,0,0,0,0,0,0,0,0,0,0],"sum_hessian":[1.0411087E2,4.4174976E1,5.9935898E1,7.3254986E0,3.6849476E1,4.750475E1,1.2431149E1,2.2198482E0,5.1056504E0,6.881529E0,2.9967949E1,4.395299E1,3.5517569E0,1.0433286E1,1.9978633E0,1.1099241E0,1.1099241E0,1.1099241E0,3.9957266E0,1.9978633E0,4.8836656E0,5.3276353E0,2.4640314E1,5.1056504E0,3.884734E1,1.1099241E0,2.4418328E0,4.4396963E0,5.99359E0,3.1077871E0,1.7758784E0,3.9957266E0,1.3319088E0,1.5538937E1,9.101377E0,2.8858025E0,2.2198482E0,2.8858025E0,3.5961536E1,1.3319088E0,1.1099241E0,2.6638176E0,1.7758784E0,1.1099241E0,4.8836656E0],"tree_param":{"num_deleted":"0","num_feature":"5","num_nodes":"45","size_leaf_vector":"1"}},{"base_weights":[-2.4837293E-4,9.296905E-1,-7.087362E-1,-5.7762426E-1,1.2278848E0,-8.807765E-1,-4.269448E-2,5.038217E-1,-1.062922E0,-4.8836436E-2,1.3727374E0,-9.664237E-1,1.4306296E-1,-4.765258E-1,7.9266705E-2,7.237402E-3,3.1275813E-2,-1.4932622E-2,-5.8633097E-2,1.9705349E0,9.800172E-1,-1.0380092E-1,-1.0762253E0,-3.865539E-2,6.5589756E-1,4.1202235E-1,-1.1133113E0,4.9242094E-2,1.0890447E-1,-2.2288245E-4,5.6928396E-2,2.0651354E-2,-3.51841E-2,-1.6477121E-2,-5.6312174E-2,6.1821163E-2,-1.53447045E-2,5.2024413E-2,-2.9155472E-2,-1.4694087E-2,-6.08644E-2],"categories":[],"categories_nodes":[],"categories_segments":[],"categories_sizes":[],"default_left":[0,0,0,0,0,0,0,0,0,0,0,0,0,0,0,0,0,0,0,0,0,0,0,0,0,0,0,0,0,0,0,0,0,0,0,0,0,0,0,0,0],"id":1,"left_children":[1,3,5,7,9,11,13,15,17,-1,19,21,23,25,-1,-1,-1,-1,-1,27,29,31,33,-1,35,37,39,-1,-1,-1,-1,-1,-1,-1,-1,-1,-1,-1,-1,-1,-1],"loss_changes":[6.98505E1,2.1315205E1,6.8574944E0,4.866207E0,1.3665241E1,4.3272133E0,1.0222119E1,5.079168E-2,1.5445805E-1,0E0,6.668213E0,4.0759163E0,2.648967E0,6.8818865E0,0E0,0E0,0E0,0E0,0E0,6.2366104E-1,3.7661953E0,2.1815274E0,1.0896378E0,0E0,2.3154118E0,4.0271087E0,2.287054E-1,0E0,0E0,0E0,0E0,0E0,0E0,0E0,0E0,0E0,0E0,0E0,0E0,0E0,0E0],"parents":[2147483647,0,0,1,1,2,2,3,3,4,4,5,5,6,6,7,7,8,8,10,10,11,11,12,12,13,13,19,19,20,20,21,21,22,22,24,24,25,25,26,26],"right_children":[2,4,6,8,10,12,14,16,18,-1,20,22,24,26,-1,-1,-1,-1,-1,28,30,32,34,-1,36,38,40,-1,-1,-1,-1,-1,-1,-1,-1,-1,-1,-1,-1,-1,-1],"split_conditions":[-1.1395061E-1,8.185878E2,2.4123476E0,1.7936346E4,-2.9414177E0,1.9294759E2,1.8735703E4,-1.89914E0,-2.6129525E0,-4.8836436E-2,-1.1010579E1,3.9216852E2,2.57148E3,-1.839427E2,7.9266705E-2,7.237402E-3,3.1275813E-2,-1.4932622E-2,-5.8633097E-2,-8.233869E1,-2.5641506E0,1.2036943E1,3.629165E-1,-3.865539E-2,3.0206773E-1,-8.122279E-1,4.3929004E2,4.9242094E-2,1.0890447E-1,-2.2288245E-4,5.6928396E-2,2.0651354E-2,-3.51841E-2,-1.6477121E-2,-5.6312174E-2,6.1821163E-2,-1.53447045E-2,5.2024413E-2,-2.9155472E-2,-1.4694087E-2,-6.08644E-2],"split_indices":[3,2,3,4,3,0,4,3,3,0,1,2,2,0,0,0,0,0,0,1,3,0,3,0,3,1,2,0,0,0,0,0,0,0,0,0,0,0,0,0,0],"split_type":[0,0,0,0,0,0,0,0,0,0,0,0,0,0,0,0,0,0,0,0,0,0,0,0,0,0,0,0,0,0,0,0,0,0,0,0,0,0,0,0,0],"sum_hessian":[1.04018684E2,4.4844707E1,5.9173973E1,7.2516985E0,3.759301E1,4.67706E1,1.2403375E1,2.2343855E0,5.017313E0,1.9636678E0,3.562934E1,4.3211876E1,3.5587208E0,1.0352086E1,2.0512886E0,1.1197813E0,1.1146042E0,1.0972322E0,3.920081E0,1.2533395E1,2.3095947E1,5.0989428E0,3.8112934E1,1.0950007E0,2.46372E0,4.469069E0,5.8830166E0,3.1793554E0,9.354039E0,3.3384848E0,1.9757462E1,2.906409E0,2.1925337E0,2.8692057E0,3.524373E1,1.3596798E0,1.1040403E0,2.711236E0,1.7578332E0,1.0932947E0,4.789722E0],"tree_param":{"num_deleted":"0","num_feature":"5","num_nodes":"41","size_leaf_vector":"1"}},{"base_weights":[-5.0835606E-5,8.750924E-1,-6.8369144E-1,-2.7044025E-1,1.2313156E0,-8.522895E-1,-3.918795E-2,5.7306796E-1,-1.076291E0,-1.329702E-1,1.550317E0,-9.3657136E-1,1.3726851E-1,-4.6135664E-1,7.543796E-2,-2.6986012E-1,8.009996E-2,-1.3768541E-2,-5.9341546E-2,-4.779585E-2,3.1072843E-1,1.8733072E0,7.979995E-1,-1.0124102E-1,-1.0447745E0,-3.7926506E-2,6.3282806E-1,3.9359814E-1,-1.0869553E0,3.076738E-2,-4.9342405E-2,4.3570638E-2,-4.3496452E-2,1.3681105E-2,1.02294564E-1,-8.44277E-3,5.4560013E-2,-2.937581E-2,2.5653899E-2,-3.697951E-2,-6.061834E-2,5.9400674E-2,-1.4984706E-2,4.9542755E-2,-2.8417213E-2,-1.4350583E-2,-5.9477538E-2],"categories":[],"categories_nodes":[],"categories_segments":[],"categories_sizes":[],"default_left":[0,0,0,0,0,0,0,0,0,0,0,0,0,0,0,0,0,0,0,0,0,0,0,0,0,0,0,0,0,0,0,0,0,0,0,0,0,0,0,0,0,0,0,0,0,0,0],"id":2,"left_children":[1,3,5,7,9,11,13,15,17,19,21,23,25,27,-1,29,-1,-1,-1,-1,31,33,35,37,39,-1,41,43,45,-1,-1,-1,-1,-1,-1,-1,-1,-1,-1,-1,-1,-1,-1,-1,-1,-1,-1],"loss_changes":[6.327713E1,1.9261307E1,6.418846E0,8.653212E0,1.5683365E1,4.049984E0,9.427114E0,6.008252E0,2.3924732E-1,3.0941994E0,5.5280685E0,3.8220062E0,2.5054026E0,6.452137E0,0E0,3.3933442E0,0E0,0E0,0E0,0E0,4.552365E0,4.817894E0,3.1391253E0,2.1209264E0,1.0655937E0,0E0,2.15908E0,3.719266E0,2.1419859E-1,0E0,0E0,0E0,0E0,0E0,0E0,0E0,0E0,0E0,0E0,0E0,0E0,0E0,0E0,0E0,0E0,0E0,0E0],"parents":[2147483647,0,0,1,1,2,2,3,3,4,4,5,5,6,6,7,7,8,8,9,9,10,10,11,11,12,12,13,13,15,15,20,20,21,21,22,22,23,23,24,24,26,26,27,27,28,28],"right_children":[2,4,6,8,10,12,14,16,18,20,22,24,26,28,-1,30,-1,-1,-1,-1,32,34,36,38,40,-1,42,44,46,-1,-1,-1,-1,-1,-1,-1,-1,-1,-1,-1,-1,-1,-1,-1,-1,-1,-1],"split_conditions":[-1.1395061E-1,1.0191832E3,2.4123476E0,1.8162428E4,-2.5641506E0,1.9294759E2,1.8735703E4,-1.0928409E0,-2.446496E0,-2.9414177E0,1.07186195E2,3.9216852E2,2.57148E3,-1.839427E2,7.543796E-2,-1.89914E0,8.009996E-2,-1.3768541E-2,-5.9341546E-2,-4.779585E-2,-2.6668377E0,1.1368881E3,2.0308171E3,2.800099E2,1.8764361E4,-3.7926506E-2,3.0206773E-1,-8.122279E-1,4.3929004E2,3.076738E-2,-4.9342405E-2,4.3570638E-2,-4.3496452E-2,1.3681105E-2,1.02294564E-1,-8.44277E-3,5.4560013E-2,-2.937581E-2,2.5653899E-2,-3.697951E-2,-6.061834E-2,5.9400674E-2,-1.4984706E-2,4.9542755E-2,-2.8417213E-2,-1.4350583E-2,-5.9477538E-2],"split_indices":[3,2,3,4,3,0,4,3,1,3,0,2,2,0,0,3,0,0,0,0,3,2,2,2,4,0,3,1,2,0,0,0,0,0,0,0,0,0,0,0,0,0,0,0,0,0,0],"split_type":[0,0,0,0,0,0,0,0,0,0,0,0,0,0,0,0,0,0,0,0,0,0,0,0,0,0,0,0,0,0,0,0,0,0,0,0,0,0,0,0,0,0,0,0,0,0,0],"sum_hessian":[1.0376446E2,4.5385475E1,5.8378983E1,1.082276E1,3.4562714E1,4.6018448E1,1.2360531E1,5.4289646E0,5.393795E0,6.66053E0,2.7902184E1,4.2455967E1,3.5624807E0,1.0263376E1,2.097155E0,3.3897324E0,2.0392323E0,1.0775464E0,4.316249E0,1.9287558E0,4.7317743E0,1.8478722E1,9.423463E0,5.0907726E0,3.7365196E1,1.0798448E0,2.482636E0,4.4934244E0,5.769952E0,1.5803548E0,1.8093774E0,3.3858082E0,1.3459661E0,2.051235E0,1.6427486E1,2.291416E0,7.1320467E0,2.8658712E0,2.2249012E0,1.5164249E1,2.2200947E1,1.3844265E0,1.0982095E0,2.7536583E0,1.7397659E0,1.0875738E0,4.682378E0],"tree_param":{"num_deleted":"0","num_feature":"5","num_nodes":"47","size_leaf_vector":"1"}},{"base_weights":[-3.139968E-4,8.256084E-1,-6.601712E-1,-9.716573E-1,1.0195467E0,-8.2534474E-1,-3.612718E-2,-1.31525695E-2,-5.4696687E-2,-4.8599426E-2,1.1468551E0,-9.0827405E-1,1.3158831E-1,-4.4715515E-1,7.195858E-2,1.6810516E0,8.037509E-1,-9.706853E-2,-1.015229E0,-3.722334E-2,6.10916E-1,3.7619254E-1,-1.0620697E0,3.2136366E-2,9.3440525E-2,2.2264926E-3,5.0573926E-2,1.9769588E-2,-3.395554E-2,-1.4300126E-2,-5.328496E-2,5.713848E-2,-1.4633849E-2,4.7237344E-2,-2.7702061E-2,-1.3398372E-2,-5.8318924E-2],"categories":[],"categories_nodes":[],"categories_segments":[],"categories_sizes":[],"default_left":[0,0,0,0,0,0,0,0,0,0,0,0,0,0,0,0,0,0,0,0,0,0,0,0,0,0,0,0,0,0,0,0,0,0,0,0,0],"id":3,"left_children":[1,3,5,7,9,11,13,-1,-1,-1,15,17,19,21,-1,23,25,27,29,-1,31,33,35,-1,-1,-1,-1,-1,-1,-1,-1,-1,-1,-1,-1,-1,-1],"loss_changes":[5.742296E1,1.7301237E1,6.007372E0,1.5150595E-1,1.1947102E1,3.7911377E0,8.710853E0,0E0,0E0,0E0,6.0932198E0,3.6065102E0,2.3709898E0,6.053733E0,0E0,1.7170486E0,4.1576214E0,2.0112903E0,1.0798988E0,0E0,2.0158777E0,3.4392815E0,2.3867416E-1,0E0,0E0,0E0,0E0,0E0,0E0,0E0,0E0,0E0,0E0,0E0,0E0,0E0,0E0],"parents":[2147483647,0,0,1,1,2,2,3,3,4,4,5,5,6,6,10,10,11,11,12,12,13,13,15,15,16,16,17,17,18,18,20,20,21,21,22,22],"right_children":[2,4,6,8,10,12,14,-1,-1,-1,16,18,20,22,-1,24,26,28,30,-1,32,34,36,-1,-1,-1,-1,-1,-1,-1,-1,-1,-1,-1,-1,-1,-1],"split_conditions":[-1.1395061E-1,5.658339E2,2.4123476E0,1.3447606E2,-2.9414177E0,1.9294759E2,1.8735703E4,-1.31525695E-2,-5.4696687E-2,-4.8599426E-2,-1.1010579E1,3.9216852E2,2.57148E3,-1.839427E2,7.195858E-2,1.7179791E4,1.0883439E3,1.2036943E1,3.629165E-1,-3.722334E-2,3.0206773E-1,-8.122279E-1,-6.3516632E1,3.2136366E-2,9.3440525E-2,2.2264926E-3,5.0573926E-2,1.9769588E-2,-3.395554E-2,-1.4300126E-2,-5.328496E-2,5.713848E-2,-1.4633849E-2,4.7237344E-2,-2.7702061E-2,-1.3398372E-2,-5.8318924E-2],"split_indices":[3,2,3,2,3,0,4,0,0,0,1,2,2,0,0,4,2,0,3,0,3,1,1,0,0,0,0,0,0,0,0,0,0,0,0,0,0],"split_type":[0,0,0,0,0,0,0,0,0,0,0,0,0,0,0,0,0,0,0,0,0,0,0,0,0,0,0,0,0,0,0,0,0,0,0,0,0],"sum_hessian":[1.033649E2,4.579436E1,5.757054E1,4.0696816E0,4.1724678E1,4.5266674E1,1.2303866E1,1.0626705E0,3.0070114E0,2.108328E0,3.9616352E1,4.1703438E1,3.5632377E0,1.0167922E1,2.1359448E0,1.3968515E1,2.5647835E1,5.08017E0,3.662327E1,1.0645106E0,2.498727E0,4.513172E0,5.65475E0,2.8164482E0,1.1152067E1,5.770753E0,1.9877083E1,2.9255621E0,2.154608E0,2.8021877E0,3.382108E1,1.406291E0,1.0924361E0,2.79145E0,1.721722E0,1.0709087E0,4.583841E0],"tree_param":{"num_deleted":"0","num_feature":"5","num_nodes":"37","size_leaf_vector":"1"}},{"base_weights":[-6.9363415E-4,7.7916783E-1,-6.3771766E-1,-9.4952136E-1,9.614624E-1,-8.793552E-2,-8.1871325E-1,-5.3554006E-2,-1.2681532E-2,-4.759783E-2,1.0808898E0,-3.929686E-1,9.228734E-1,-9.428461E-1,1.5012193E-1,1.5804002E0,7.5838065E-1,-8.65789E-1,5.7661682E-2,4.4310356E-5,7.30378E-2,-3.149384E-2,-1.0724711E0,8.9408195E-1,-4.6054382E-2,1.6086394E-2,8.423253E-2,2.1302458E-3,4.7605734E-2,-5.545215E-2,-2.753292E-3,2.3004154E-2,-3.224109E-2,-2.7861133E-2,3.2158863E-2,-6.2024403E-2,-3.7713632E-2,7.040505E-2,-2.1984873E-3],"categories":[],"categories_nodes":[],"categories_segments":[],"categories_sizes":[],"default_left":[0,0,0,0,0,0,0,0,0,0,0,0,0,0,0,0,0,0,0,0,0,0,0,0,0,0,0,0,0,0,0,0,0,0,0,0,0,0,0],"id":4,"left_children":[1,3,5,7,9,11,13,-1,-1,-1,15,17,19,21,23,25,27,29,31,-1,-1,33,35,37,-1,-1,-1,-1,-1,-1,-1,-1,-1,-1,-1,-1,-1,-1,-1],"loss_changes":[5.210899E1,1.57741585E1,5.672823E0,1.5144825E-1,1.0891006E1,5.116851E0,5.350544E0,0E0,0E0,0E0,5.420925E0,2.723087E0,1.9194319E0,4.5180626E0,5.431322E0,1.4523125E0,3.6884766E0,1.1586351E0,2.377684E0,0E0,0E0,2.425635E0,8.661766E-1,1.9518402E0,0E0,0E0,0E0,0E0,0E0,0E0,0E0,0E0,0E0,0E0,0E0,0E0,0E0,0E0,0E0],"parents":[2147483647,0,0,1,1,2,2,3,3,4,4,5,5,6,6,10,10,11,11,12,12,13,13,14,14,15,15,16,16,17,17,18,18,21,21,22,22,23,23],"right_children":[2,4,6,8,10,12,14,-1,-1,-1,16,18,20,22,24,26,28,30,32,-1,-1,34,36,38,-1,-1,-1,-1,-1,-1,-1,-1,-1,-1,-1,-1,-1,-1,-1],"split_conditions":[-1.1395061E-1,5.658339E2,-6.330766E1,-5.015997E-1,-2.9414177E0,1.8686158E4,2.2749043E3,-5.3554006E-2,-1.2681532E-2,-4.759783E-2,-1.1010579E1,2.5081737E0,2.3153002E0,3.9216852E2,4.7291723E-1,8.4890125E2,1.0883439E3,-9.53692E1,-8.122279E-1,4.4310356E-5,7.30378E-2,2.800099E2,1.4393147E0,2.60006E2,-4.6054382E-2,1.6086394E-2,8.423253E-2,2.1302458E-3,4.7605734E-2,-5.545215E-2,-2.753292E-3,2.3004154E-2,-3.224109E-2,-2.7861133E-2,3.2158863E-2,-6.2024403E-2,-3.7713632E-2,7.040505E-2,-2.1984873E-3],"split_indices":[3,2,0,3,3,4,2,0,0,0,1,3,3,2,3,2,2,0,1,0,0,2,3,0,0,0,0,0,0,0,0,0,0,0,0,0,0,0,0],"split_type":[0,0,0,0,0,0,0,0,0,0,0,0,0,0,0,0,0,0,0,0,0,0,0,0,0,0,0,0,0,0,0,0,0,0,0,0,0,0,0],"sum_hessian":[1.0289108E2,4.6158947E1,5.6732132E1,4.00176E0,4.215719E1,1.4419158E1,4.2312977E1,2.9477026E0,1.0540571E0,2.0671477E0,4.0090042E1,1.1546108E1,2.8730497E0,3.7531097E1,4.7818794E0,1.4198584E1,2.5891459E1,5.1847563E0,6.3613515E0,1.4276154E0,1.4454343E0,4.8282404E0,3.2702854E1,2.9195743E0,1.862305E0,1.3986015E0,1.2799982E1,5.7749724E0,2.0116486E1,3.7050922E0,1.4796642E0,4.263847E0,2.0975049E0,2.8114986E0,2.016742E0,1.9505163E1,1.3197692E1,1.5623637E0,1.3572106E0],"tree_param":{"num_deleted":"0","num_feature":"5","num_nodes":"39","size_leaf_vector":"1"}},{"base_weights":[-1.3705654E-3,7.3633325E-1,-6.160865E-1,-9.283745E-1,9.081816E-1,-8.379952E-2,-7.9353523E-1,-1.2191371E-2,-5.2482046E-2,-4.66405E-2,1.0205832E0,-3.816057E-1,8.911835E-1,-9.1620094E-1,1.4619955E-1,1.4901055E0,7.1654063E-1,-8.4447753E-1,5.3404763E-2,4.300674E-5,7.033629E-2,-2.9349925E-2,-1.0449308E0,8.594566E-1,-4.5136865E-2,2.7747786E-2,8.305701E-2,2.038212E-3,4.488935E-2,-5.430549E-2,-2.6728883E-3,2.1947516E-2,-3.1433847E-2,2.537939E-2,-3.286363E-2,-6.0648113E-2,-3.6509153E-2,6.737046E-2,-2.1360167E-3],"categories":[],"categories_nodes":[],"categories_segments":[],"categories_sizes":[],"default_left":[0,0,0,0,0,0,0,0,0,0,0,0,0,0,0,0,0,0,0,0,0,0,0,0,0,0,0,0,0,0,0,0,0,0,0,0,0,0,0],"id":5,"left_children":[1,3,5,7,9,11,13,-1,-1,-1,15,17,19,21,23,25,27,29,31,-1,-1,33,35,37,-1,-1,-1,-1,-1,-1,-1,-1,-1,-1,-1,-1,-1,-1,-1],"loss_changes":[4.732504E1,1.4413412E1,5.3101883E0,1.5357828E-1,9.95401E0,4.7971234E0,5.041565E0,0E0,0E0,0E0,4.853302E0,2.553731E0,1.7849689E0,4.284258E0,5.0987372E0,1.5373993E0,3.282796E0,1.1070237E0,2.2122912E0,0E0,0E0,2.2957675E0,8.583374E-1,1.7971342E0,0E0,0E0,0E0,0E0,0E0,0E0,0E0,0E0,0E0,0E0,0E0,0E0,0E0,0E0,0E0],"parents":[2147483647,0,0,1,1,2,2,3,3,4,4,5,5,6,6,10,10,11,11,12,12,13,13,14,14,15,15,16,16,17,17,18,18,21,21,22,22,23,23],"right_children":[2,4,6,8,10,12,14,-1,-1,-1,16,18,20,22,24,26,28,30,32,-1,-1,34,36,38,-1,-1,-1,-1,-1,-1,-1,-1,-1,-1,-1,-1,-1,-1,-1],"split_conditions":[-1.1395061E-1,5.658339E2,-6.330766E1,1.3447606E2,-2.9414177E0,1.8686158E4,2.2749043E3,-1.2191371E-2,-5.2482046E-2,-4.66405E-2,-1.1010579E1,2.5081737E0,2.3153002E0,3.9216852E2,4.7291723E-1,1.7179791E4,1.0883439E3,-9.53692E1,-8.122279E-1,4.300674E-5,7.033629E-2,1.2036943E1,1.4393147E0,2.60006E2,-4.5136865E-2,2.7747786E-2,8.305701E-2,2.038212E-3,4.488935E-2,-5.430549E-2,-2.6728883E-3,2.1947516E-2,-3.1433847E-2,2.537939E-2,-3.286363E-2,-6.0648113E-2,-3.6509153E-2,6.737046E-2,-2.1360167E-3],"split_indices":[3,2,0,2,3,4,2,0,0,0,1,3,3,2,3,4,2,0,1,0,0,0,3,0,0,0,0,0,0,0,0,0,0,0,0,0,0,0,0],"split_type":[0,0,0,0,0,0,0,0,0,0,0,0,0,0,0,0,0,0,0,0,0,0,0,0,0,0,0,0,0,0,0,0,0,0,0,0,0,0,0],"sum_hessian":[1.0235974E2,4.643569E1,5.592405E1,3.9331079E0,4.2502583E1,1.435027E1,4.1573776E1,1.0449657E0,2.888142E0,2.0256777E0,4.0476906E1,1.1458808E1,2.8914626E0,3.6795784E1,4.7779946E0,1.4375827E1,2.610108E1,5.095584E0,6.363224E0,1.4276426E0,1.46382E0,4.8197017E0,3.1976082E1,2.951602E0,1.8263927E0,2.8790438E0,1.1496783E1,5.779001E0,2.0322079E1,3.6174989E0,1.4780852E0,4.293043E0,2.070181E0,2.7013838E0,2.1183178E0,1.8986296E1,1.2989786E1,1.5952722E0,1.3563297E0],"tree_param":{"num_deleted":"0","num_feature":"5","num_nodes":"39","size_leaf_vector":"1"}},{"base_weights":[-2.0075424E-3,6.9735956E-1,-5.9569186E-1,-9.081229E-1,8.5984814E-1,-7.99832E-2,-7.697603E-1,-5.145045E-2,-1.1752018E-2,-4.5723792E-2,9.6598667E-1,-3.7077585E-1,8.614073E-1,-8.909723E-1,1.4225736E-1,1.4107642E0,6.77811E-1,-8.240975E-1,4.9348217E-2,4.1743675E-5,6.784286E-2,-2.9323798E-2,-1.0186673E0,9.8548317E-1,-7.104742E-1,2.6614249E-2,7.850769E-2,1.9501977E-3,4.239178E-2,-5.3218324E-2,-2.5948228E-3,2.1312172E-2,-3.107866E-2,-2.691557E-2,3.0624136E-2,-5.935551E-2,-3.534582E-2,6.993273E-2,5.15753E-3,-1.1158966E-2,-4.1222002E-2],"categories":[],"categories_nodes":[],"categories_segments":[],"categories_sizes":[],"default_left":[0,0,0,0,0,0,0,0,0,0,0,0,0,0,0,0,0,0,0,0,0,0,0,0,0,0,0,0,0,0,0,0,0,0,0,0,0,0,0,0,0],"id":6,"left_children":[1,3,5,7,9,11,13,-1,-1,-1,15,17,19,21,23,25,27,29,31,-1,-1,33,35,37,39,-1,-1,-1,-1,-1,-1,-1,-1,-1,-1,-1,-1,-1,-1,-1,-1],"loss_changes":[4.307326E1,1.3206732E1,4.9751415E0,1.5391159E-1,9.125938E0,4.500909E0,4.7512417E0,0E0,0E0,0E0,4.399372E0,2.3964012E0,1.6641748E0,4.04809E0,4.8489537E0,1.3350296E0,2.9299402E0,1.0590997E0,2.1268451E0,0E0,0E0,2.2287648E0,8.5429764E-1,1.0660579E0,7.5889826E-3,0E0,0E0,0E0,0E0,0E0,0E0,0E0,0E0,0E0,0E0,0E0,0E0,0E0,0E0,0E0,0E0],"parents":[2147483647,0,0,1,1,2,2,3,3,4,4,5,5,6,6,10,10,11,11,12,12,13,13,14,14,15,15,16,16,17,17,18,18,21,21,22,22,23,23,24,24],"right_children":[2,4,6,8,10,12,14,-1,-1,-1,16,18,20,22,24,26,28,30,32,-1,-1,34,36,38,40,-1,-1,-1,-1,-1,-1,-1,-1,-1,-1,-1,-1,-1,-1,-1,-1],"split_conditions":[-1.1395061E-1,5.658339E2,-6.330766E1,-5.015997E-1,-2.9414177E0,1.8686158E4,2.2749043E3,-5.145045E-2,-1.1752018E-2,-4.5723792E-2,-1.1010579E1,2.5081737E0,2.3153002E0,3.9216852E2,3.629165E-1,1.7179791E4,1.0883439E3,-9.53692E1,-1.839427E2,4.1743675E-5,6.784286E-2,2.800099E2,1.4393147E0,2.60006E2,-2.0094791E1,2.6614249E-2,7.850769E-2,1.9501977E-3,4.239178E-2,-5.3218324E-2,-2.5948228E-3,2.1312172E-2,-3.107866E-2,-2.691557E-2,3.0624136E-2,-5.935551E-2,-3.534582E-2,6.993273E-2,5.15753E-3,-1.1158966E-2,-4.1222002E-2],"split_indices":[3,2,0,3,3,4,2,0,0,0,1,3,3,2,3,4,2,0,0,0,0,2,3,0,1,0,0,0,0,0,0,0,0,0,0,0,0,0,0,0,0],"split_type":[0,0,0,0,0,0,0,0,0,0,0,0,0,0,0,0,0,0,0,0,0,0,0,0,0,0,0,0,0,0,0,0,0,0,0,0,0,0,0,0,0],"sum_hessian":[1.01739685E2,4.6632004E1,5.5107677E1,3.8640535E0,4.276795E1,1.427499E1,4.0832687E1,2.8274424E0,1.036611E0,1.9840814E0,4.0783867E1,1.1369214E1,2.9057755E0,3.6062824E1,4.769864E0,1.4503422E1,2.6280447E1,5.006043E0,6.363171E0,1.4276689E0,1.4781065E0,4.813357E0,3.1249468E1,2.320024E0,2.44984E0,2.8937857E0,1.1609636E1,5.7828474E0,2.0497599E1,3.5294938E0,1.4765494E0,4.307878E0,2.0552936E0,2.7743788E0,2.038978E0,1.846482E1,1.2784646E1,1.1815562E0,1.1384678E0,1.0250849E0,1.4247551E0],"tree_param":{"num_deleted":"0","num_feature":"5","num_nodes":"41","size_leaf_vector":"1"}},{"base_weights":[-2.495377E-3,6.614016E-1,-5.759858E-1,-8.8869846E-1,8.1541884E-1,-7.6457575E-2,-7.4669933E-1,-1.12931235E-2,-5.0479192E-2,-4.4844445E-2,9.1591805E-1,-3.6042732E-1,8.33382E-1,-8.665532E-1,1.3916321E-1,1.339506E0,6.4184076E-1,-8.0456716E-1,4.5467507E-2,4.051502E-5,6.553509E-2,-2.7381683E-2,-9.935398E-1,8.073715E-1,-4.3726336E-2,1.1652793E-2,7.178919E-2,1.8660267E-3,4.0085856E-2,-5.218485E-2,-2.5190278E-3,2.0820685E-2,-3.0822283E-2,2.4221335E-2,-3.1828027E-2,-5.813695E-2,-3.422079E-2,6.289389E-2,-2.013005E-3],"categories":[],"categories_nodes":[],"categories_segments":[],"categories_sizes":[],"default_left":[0,0,0,0,0,0,0,0,0,0,0,0,0,0,0,0,0,0,0,0,0,0,0,0,0,0,0,0,0,0,0,0,0,0,0,0,0,0,0],"id":7,"left_children":[1,3,5,7,9,11,13,-1,-1,-1,15,17,19,21,23,25,27,29,31,-1,-1,33,35,37,-1,-1,-1,-1,-1,-1,-1,-1,-1,-1,-1,-1,-1,-1,-1],"loss_changes":[3.9231754E1,1.2126537E1,4.657192E0,1.561706E-1,8.386917E0,4.2261996E0,4.483042E0,0E0,0E0,0E0,4.018688E0,2.2500768E0,1.5552762E0,3.844202E0,4.606391E0,1.3258991E0,2.6214285E0,1.0144539E0,2.0643137E0,0E0,0E0,2.1177366E0,8.5313797E-1,1.574444E0,0E0,0E0,0E0,0E0,0E0,0E0,0E0,0E0,0E0,0E0,0E0,0E0,0E0,0E0,0E0],"parents":[2147483647,0,0,1,1,2,2,3,3,4,4,5,5,6,6,10,10,11,11,12,12,13,13,14,14,15,15,16,16,17,17,18,18,21,21,22,22,23,23],"right_children":[2,4,6,8,10,12,14,-1,-1,-1,16,18,20,22,24,26,28,30,32,-1,-1,34,36,38,-1,-1,-1,-1,-1,-1,-1,-1,-1,-1,-1,-1,-1,-1,-1],"split_conditions":[-1.1395061E-1,5.658339E2,-6.330766E1,1.3447606E2,-2.9414177E0,1.8686158E4,2.2749043E3,-1.12931235E-2,-5.0479192E-2,-4.4844445E-2,-1.1010579E1,2.5081737E0,2.3153002E0,3.9216852E2,4.7291723E-1,8.4890125E2,1.0883439E3,-9.53692E1,-8.122279E-1,4.051502E-5,6.553509E-2,1.2036943E1,1.4393147E0,2.60006E2,-4.3726336E-2,1.1652793E-2,7.178919E-2,1.8660267E-3,4.0085856E-2,-5.218485E-2,-2.5190278E-3,2.0820685E-2,-3.0822283E-2,2.4221335E-2,-3.1828027E-2,-5.813695E-2,-3.422079E-2,6.289389E-2,-2.013005E-3],"split_indices":[3,2,0,2,3,4,2,0,0,0,1,3,3,2,3,2,2,0,1,0,0,0,3,0,0,0,0,0,0,0,0,0,0,0,0,0,0,0,0],"split_type":[0,0,0,0,0,0,0,0,0,0,0,0,0,0,0,0,0,0,0,0,0,0,0,0,0,0,0,0,0,0,0,0,0,0,0,0,0,0,0],"sum_hessian":[1.0104061E2,4.6758118E1,5.428249E1,3.7948527E0,4.2963264E1,1.4194772E1,4.008772E1,1.0277758E0,2.767077E0,1.9425035E0,4.1020763E1,1.12785E1,2.9162726E0,3.532956E1,4.7581587E0,1.4587842E1,2.643292E1,4.9165196E0,6.3619795E0,1.4276946E0,1.4885782E0,4.8033013E0,3.0526258E1,2.9904401E0,1.7677187E0,1.4415703E0,1.3146272E1,5.78652E0,2.06464E1,3.441464E0,1.4750557E0,4.3147964E0,2.0471835E0,2.721549E0,2.0817525E0,1.794348E1,1.2582778E1,1.6366102E0,1.35383E0],"tree_param":{"num_deleted":"0","num_feature":"5","num_nodes":"39","size_leaf_vector":"1"}},{"base_weights":[-3.316395E-3,5.734001E-1,-6.103509E-1,-9.372179E-1,7.293432E-1,-7.3194906E-2,-8.2049465E-1,-1.10337725E-2,-5.278644E-2,-4.3999527E-2,8.145975E-1,3.581608E-1,-6.534763E-1,3.9417386E-2,-9.4761115E-1,1.0317668E0,3.089608E-1,-3.0564365E-1,9.109028E-1,2.3362537E-1,-5.583892E-2,-5.203088E-1,3.8319465E-2,-3.6619827E-1,-1.0548763E0,6.6861786E-2,2.9358938E-2,-3.815605E-2,4.3507077E-2,-4.3924693E-2,1.6519358E-2,6.800013E-2,8.930761E-3,-3.6482826E-2,5.192662E-2,1.3461891E-2,-4.5970313E-2,-4.5984346E-2,6.2093423E-3,-2.3993475E-2,-5.8583207E-2],"categories":[],"categories_nodes":[],"categories_segments":[],"categories_sizes":[],"default_left":[0,0,0,0,0,0,0,0,0,0,0,0,0,0,0,0,0,0,0,0,0,0,0,0,0,0,0,0,0,0,0,0,0,0,0,0,0,0,0,0,0],"id":8,"left_children":[1,3,5,7,9,11,13,-1,-1,-1,15,17,19,21,23,25,27,29,31,33,-1,35,-1,37,39,-1,-1,-1,-1,-1,-1,-1,-1,-1,-1,-1,-1,-1,-1,-1,-1],"loss_changes":[3.580858E1,1.3040461E1,5.564749E0,2.2099638E-1,7.3175583E0,4.016281E0,3.941824E0,0E0,0E0,0E0,4.755293E0,3.6955926E0,3.0544434E0,2.6612685E0,1.5569706E0,3.5467148E0,9.875513E0,2.1048203E0,1.5109577E0,3.2070594E0,0E0,1.4251319E0,0E0,1.8472378E0,1.1685963E0,0E0,0E0,0E0,0E0,0E0,0E0,0E0,0E0,0E0,0E0,0E0,0E0,0E0,0E0,0E0,0E0],"parents":[2147483647,0,0,1,1,2,2,3,3,4,4,5,5,6,6,10,10,11,11,12,12,13,13,14,14,15,15,16,16,17,17,18,18,19,19,21,21,23,23,24,24],"right_children":[2,4,6,8,10,12,14,-1,-1,-1,16,18,20,22,24,26,28,30,32,34,-1,36,-1,38,40,-1,-1,-1,-1,-1,-1,-1,-1,-1,-1,-1,-1,-1,-1,-1,-1],"split_conditions":[3.0206773E-1,5.658339E2,-6.330766E1,1.3447606E2,-2.9414177E0,2.0810027E3,3.9216852E2,-1.10337725E-2,-5.278644E-2,-4.3999527E-2,1.07186195E2,2.338011E0,-4.3057983E2,2.800099E2,-6.164165E1,2.5778614E1,2.0308171E3,-8.838341E1,-1.6349442E2,2.785347E0,-5.583892E-2,1.1200215E0,3.8319465E-2,-1.1452716E1,-3.354767E1,6.6861786E-2,2.9358938E-2,-3.815605E-2,4.3507077E-2,-4.3924693E-2,1.6519358E-2,6.800013E-2,8.930761E-3,-3.6482826E-2,5.192662E-2,1.3461891E-2,-4.5970313E-2,-4.5984346E-2,6.2093423E-3,-2.3993475E-2,-5.8583207E-2],"split_indices":[3,2,0,2,3,2,2,0,0,0,0,3,0,2,1,1,2,0,0,3,0,3,0,0,0,0,0,0,0,0,0,0,0,0,0,0,0,0,0,0,0],"split_type":[0,0,0,0,0,0,0,0,0,0,0,0,0,0,0,0,0,0,0,0,0,0,0,0,0,0,0,0,0,0,0,0,0,0,0,0,0,0,0,0,0],"sum_hessian":[1.0028519E2,5.145525E1,4.8829933E1,4.3459663E0,4.7109283E1,1.4110328E1,3.4719604E1,1.0229656E0,3.3230004E0,1.901071E0,4.5208214E1,8.313338E0,5.7969894E0,4.5602865E0,3.0159319E1,3.0897366E1,1.4310847E1,3.980308E0,4.33303E0,2.158935E0,3.6380544E0,2.7371325E0,1.8231541E0,5.384968E0,2.4774351E1,1.7123966E1,1.3773399E1,4.793492E0,9.517355E0,1.8935988E0,2.0867093E0,2.1545086E0,2.1785219E0,1.0253386E0,1.1335963E0,1.028266E0,1.7088666E0,2.1184611E0,3.2665064E0,5.0448456E0,1.9729506E1],"tree_param":{"num_deleted":"0","num_feature":"5","num_nodes":"41","size_leaf_vector":"1"}},{"base_weights":[-4.6449914E-3,5.4418635E-1,-5.915835E-1,-9.174762E-1,6.9234294E-1,-6.963984E-2,-7.985541E-1,-1.0298903E-2,-5.188449E-2,-4.318642E-2,7.7340263E-1,-3.4439856E-1,7.97159E-1,3.832463E-2,-9.248923E-1,9.78245E-1,2.9383677E-1,-7.7044535E-1,3.5122626E-2,3.566848E-4,6.2182683E-2,-5.064625E-1,3.681926E-2,-3.5637844E-1,-1.0316732E0,1.8874332E-2,5.9448685E-2,-3.6954362E-2,4.133148E-2,-5.0309774E-2,-2.6391938E-3,1.9542458E-2,-3.023583E-2,1.3082671E-2,-4.5030326E-2,-4.5117777E-2,5.958078E-3,-2.3215203E-2,-5.745569E-2],"categories":[],"categories_nodes":[],"categories_segments":[],"categories_sizes":[],"default_left":[0,0,0,0,0,0,0,0,0,0,0,0,0,0,0,0,0,0,0,0,0,0,0,0,0,0,0,0,0,0,0,0,0,0,0,0,0,0,0],"id":9,"left_children":[1,3,5,7,9,11,13,-1,-1,-1,15,17,19,21,23,25,27,29,31,-1,-1,33,-1,35,37,-1,-1,-1,-1,-1,-1,-1,-1,-1,-1,-1,-1,-1,-1],"loss_changes":[3.270978E1,1.1999775E1,5.244602E0,2.3614454E-1,6.750101E0,3.8533545E0,3.739891E0,0E0,0E0,0E0,4.2666664E0,1.9849159E0,1.3733411E0,2.4857717E0,1.4827328E0,3.609192E0,9.033577E0,9.194112E-1,1.9116079E0,0E0,0E0,1.3597364E0,0E0,1.7555696E0,1.1411667E0,0E0,0E0,0E0,0E0,0E0,0E0,0E0,0E0,0E0,0E0,0E0,0E0,0E0,0E0],"parents":[2147483647,0,0,1,1,2,2,3,3,4,4,5,5,6,6,10,10,11,11,12,12,13,13,14,14,15,15,16,16,17,17,18,18,21,21,23,23,24,24],"right_children":[2,4,6,8,10,12,14,-1,-1,-1,16,18,20,22,24,26,28,30,32,-1,-1,34,-1,36,38,-1,-1,-1,-1,-1,-1,-1,-1,-1,-1,-1,-1,-1,-1],"split_conditions":[3.0206773E-1,5.658339E2,-6.330766E1,-4.9669846E1,-2.9414177E0,1.8686158E4,3.9216852E2,-1.0298903E-2,-5.188449E-2,-4.318642E-2,1.07186195E2,2.5081737E0,2.3153002E0,2.800099E2,-6.164165E1,1.1368881E3,2.0308171E3,-9.53692E1,-1.839427E2,3.566848E-4,6.2182683E-2,1.1200215E0,3.681926E-2,-1.1452716E1,-3.354767E1,1.8874332E-2,5.9448685E-2,-3.6954362E-2,4.133148E-2,-5.0309774E-2,-2.6391938E-3,1.9542458E-2,-3.023583E-2,1.3082671E-2,-4.5030326E-2,-4.5117777E-2,5.958078E-3,-2.3215203E-2,-5.745569E-2],"split_indices":[3,2,0,1,3,4,2,0,0,0,0,3,3,2,1,2,2,0,0,0,0,3,0,0,0,0,0,0,0,0,0,0,0,0,0,0,0,0,0],"split_type":[0,0,0,0,0,0,0,0,0,0,0,0,0,0,0,0,0,0,0,0,0,0,0,0,0,0,0,0,0,0,0,0,0,0,0,0,0,0,0],"sum_hessian":[9.954272E1,5.147892E1,4.8063797E1,4.25987E0,4.7219048E1,1.4026898E1,3.40369E1,1.0079046E0,3.2519653E0,1.8598955E0,4.5359154E1,1.1108418E1,2.9184794E0,4.5557475E0,2.9481152E1,3.1054596E1,1.4304556E1,4.7481484E0,6.3602705E0,1.4206918E0,1.4977875E0,2.7129517E0,1.8427958E0,5.347565E0,2.4133587E1,8.789184E0,2.2265413E1,4.735895E0,9.568661E0,3.2714405E0,1.4767079E0,4.337775E0,2.022495E0,1.0340062E0,1.6789453E0,2.071591E0,3.2759743E0,4.988256E0,1.914533E1],"tree_param":{"num_deleted":"0","num_feature":"5","num_nodes":"39","size_leaf_vector":"1"}},{"base_weights":[-6.135055E-3,5.1686364E-1,-5.7380694E-1,-8.9845043E-1,6.579035E-1,-6.682324E-2,-7.7750325E-1,-1.0063411E-2,-5.0896227E-2,-4.240277E-2,7.3515505E-1,3.4689477E-1,-6.312133E-1,3.714238E-2,-9.030628E-1,9.2889065E-1,2.7961528E-1,-2.8480306E-1,8.62178E-1,2.2112542E-1,-5.441302E-2,6.067531E-1,-3.129064E-2,-3.469468E-1,-1.0094335E0,6.102022E-2,2.5543336E-2,-3.579887E-2,3.930455E-2,-4.2421594E-2,1.5943702E-2,6.390711E-2,8.600043E-3,-3.5788935E-2,4.9511038E-2,-1.959466E-2,6.8729766E-2,-4.428447E-2,5.7174056E-3,-2.246059E-2,-5.6385763E-2],"categories":[],"categories_nodes":[],"categories_segments":[],"categories_sizes":[],"default_left":[0,0,0,0,0,0,0,0,0,0,0,0,0,0,0,0,0,0,0,0,0,0,0,0,0,0,0,0,0,0,0,0,0,0,0,0,0,0,0,0,0],"id":10,"left_children":[1,3,5,7,9,11,13,-1,-1,-1,15,17,19,21,23,25,27,29,31,33,-1,35,-1,37,39,-1,-1,-1,-1,-1,-1,-1,-1,-1,-1,-1,-1,-1,-1,-1,-1],"loss_changes":[2.9905052E1,1.1057459E1,4.935564E0,2.2611618E-1,6.2377186E0,3.7066338E0,3.548006E0,0E0,0E0,0E0,3.838728E0,3.2610412E0,2.839976E0,2.4751487E0,1.4131756E0,3.2945366E0,8.271473E0,1.9423943E0,1.3162239E0,2.985913E0,0E0,3.2166224E0,0E0,1.6694543E0,1.1168804E0,0E0,0E0,0E0,0E0,0E0,0E0,0E0,0E0,0E0,0E0,0E0,0E0,0E0,0E0,0E0,0E0],"parents":[2147483647,0,0,1,1,2,2,3,3,4,4,5,5,6,6,10,10,11,11,12,12,13,13,14,14,15,15,16,16,17,17,18,18,19,19,21,21,23,23,24,24],"right_children":[2,4,6,8,10,12,14,-1,-1,-1,16,18,20,22,24,26,28,30,32,34,-1,36,-1,38,40,-1,-1,-1,-1,-1,-1,-1,-1,-1,-1,-1,-1,-1,-1,-1,-1],"split_conditions":[3.0206773E-1,5.658339E2,-6.330766E1,-4.9669846E1,-2.9414177E0,2.0810027E3,3.9216852E2,-1.0063411E-2,-5.0896227E-2,-4.240277E-2,1.07186195E2,2.338011E0,-4.3057983E2,1.2036943E1,-6.164165E1,2.5778614E1,2.0308171E3,-8.838341E1,-1.6349442E2,2.785347E0,-5.441302E-2,2.800099E2,-3.129064E-2,-1.1452716E1,-3.354767E1,6.102022E-2,2.5543336E-2,-3.579887E-2,3.930455E-2,-4.2421594E-2,1.5943702E-2,6.390711E-2,8.600043E-3,-3.5788935E-2,4.9511038E-2,-1.959466E-2,6.8729766E-2,-4.428447E-2,5.7174056E-3,-2.246059E-2,-5.6385763E-2],"split_indices":[3,2,0,1,3,2,2,0,0,0,0,3,0,0,1,1,2,0,0,3,0,2,0,0,0,0,0,0,0,0,0,0,0,0,0,0,0,0,0,0,0],"split_type":[0,0,0,0,0,0,0,0,0,0,0,0,0,0,0,0,0,0,0,0,0,0,0,0,0,0,0,0,0,0,0,0,0,0,0,0,0,0,0,0,0],"sum_hessian":[9.87282E1,5.1432606E1,4.7295593E1,4.1742654E0,4.7258343E1,1.3936591E1,3.3359E1,1.0034314E0,3.1708338E0,1.8190738E0,4.5439266E1,8.264086E0,5.6725054E0,4.548963E0,2.881004E1,3.1151716E1,1.4287552E1,3.9136004E0,4.350486E0,2.1601913E0,3.512314E0,2.4923296E0,2.0566332E0,5.3100843E0,2.3499954E1,1.7222176E1,1.3929542E1,4.6780806E0,9.609471E0,1.8142596E0,2.0993407E0,2.182941E0,2.1675446E0,1.0051056E0,1.1550858E0,1.2961674E0,1.1961622E0,2.0250444E0,3.2850397E0,4.9330764E0,1.856688E1],"tree_param":{"num_deleted":"0","num_feature":"5","num_nodes":"41","size_leaf_vector":"1"}},{"base_weights":[-7.261641E-3,4.9140638E-1,-5.5649E-1,-8.8017E-1,6.2585527E-1,-6.38187E-2,-7.571128E-1,-1.1793612E-2,-4.9312245E-2,-4.1646466E-2,6.995933E-1,-3.2999533E-1,7.6422477E-1,3.845013E-2,-8.82033E-1,8.831379E-1,2.6621225E-1,-5.04219E-1,2.1182619E-2,6.424733E-4,5.9212364E-2,5.892105E-1,-3.0513352E-2,-3.3788127E-1,-9.880522E-1,1.5903084E-2,5.426061E-2,-3.468634E-2,3.74104E-2,-3.2381513E-3,-4.6543375E-2,-1.9121509E-2,6.6367656E-2,-4.3481875E-2,5.486845E-3,-2.1728767E-2,-5.5367082E-2],"categories":[],"categories_nodes":[],"categories_segments":[],"categories_sizes":[],"default_left":[0,0,0,0,0,0,0,0,0,0,0,0,0,0,0,0,0,0,0,0,0,0,0,0,0,0,0,0,0,0,0,0,0,0,0,0,0],"id":11,"left_children":[1,3,5,7,9,11,13,-1,-1,-1,15,17,19,21,23,25,27,29,-1,-1,-1,31,-1,33,35,-1,-1,-1,-1,-1,-1,-1,-1,-1,-1,-1,-1],"loss_changes":[2.7352713E1,1.0204964E1,4.648568E0,1.1519122E-1,5.77425E0,3.5236924E0,3.380745E0,0E0,0E0,0E0,3.4624748E0,1.780169E0,1.2194717E0,2.334846E0,1.3477173E0,3.3342896E0,7.580233E0,1.8422434E0,0E0,0E0,0E0,3.016979E0,0E0,1.5884719E0,1.0951195E0,0E0,0E0,0E0,0E0,0E0,0E0,0E0,0E0,0E0,0E0,0E0,0E0],"parents":[2147483647,0,0,1,1,2,2,3,3,4,4,5,5,6,6,10,10,11,11,12,12,13,13,14,14,15,15,16,16,17,17,21,21,23,23,24,24],"right_children":[2,4,6,8,10,12,14,-1,-1,-1,16,18,20,22,24,26,28,30,-1,-1,-1,32,-1,34,36,-1,-1,-1,-1,-1,-1,-1,-1,-1,-1,-1,-1],"split_conditions":[3.0206773E-1,5.658339E2,-6.330766E1,1.7988506E4,-2.9414177E0,1.8686158E4,3.9216852E2,-1.1793612E-2,-4.9312245E-2,-4.1646466E-2,1.07186195E2,3.0205803E0,2.3153002E0,1.2036943E1,-6.164165E1,1.1368881E3,2.0308171E3,2.0810027E3,2.1182619E-2,6.424733E-4,5.9212364E-2,2.800099E2,-3.0513352E-2,-1.1452716E1,-3.354767E1,1.5903084E-2,5.426061E-2,-3.468634E-2,3.74104E-2,-3.2381513E-3,-4.6543375E-2,-1.9121509E-2,6.6367656E-2,-4.3481875E-2,5.486845E-3,-2.1728767E-2,-5.5367082E-2],"split_indices":[3,2,0,4,3,4,2,0,0,0,0,3,3,0,1,2,2,2,0,0,0,2,0,0,0,0,0,0,0,0,0,0,0,0,0,0,0],"split_type":[0,0,0,0,0,0,0,0,0,0,0,0,0,0,0,0,0,0,0,0,0,0,0,0,0,0,0,0,0,0,0,0,0,0,0,0,0],"sum_hessian":[9.7871735E1,5.135217E1,4.651956E1,4.089255E0,4.7262913E1,1.3843081E1,3.267648E1,1.0337721E0,3.0554829E0,1.7786899E0,4.5484222E1,1.0930819E1,2.912263E0,4.5285153E0,2.8147964E1,3.122296E1,1.4261265E1,9.147189E0,1.7836292E0,1.4137707E0,1.4984922E0,2.4987814E0,2.029734E0,5.272653E0,2.2875313E1,8.902418E0,2.2320541E1,4.6202774E0,9.640988E0,5.0733447E0,4.073845E0,1.2868118E0,1.2119695E0,1.9789326E0,3.2937205E0,4.8793287E0,1.7995983E1],"tree_param":{"num_deleted":"0","num_feature":"5","num_nodes":"37","size_leaf_vector":"1"}},{"base_weights":[-8.201315E-3,4.674082E-1,-5.3908134E-1,-8.629371E-1,5.9580964E-1,-5.8982793E-2,-7.3748493E-1,-1.1522445E-2,-4.84327E-2,-4.0915594E-2,6.6633064E-1,-3.1819493E-1,7.4173176E-1,3.9551076E-2,-8.617244E-1,8.4059334E-1,2.5355467E-1,-7.2846276E-1,3.505279E-2,6.2355504E-4,5.7496E-2,5.725252E-1,-2.975977E-2,-3.291616E-1,-9.674372E-1,5.6061476E-2,2.223693E-2,-3.3613887E-2,3.5635468E-2,-4.811878E-2,-2.4963715E-3,1.9221148E-2,-2.9786456E-2,-1.866107E-2,6.416828E-2,-4.270771E-2,5.265936E-3,-2.1018934E-2,-5.4394063E-2],"categories":[],"categories_nodes":[],"categories_segments":[],"categories_sizes":[],"default_left":[0,0,0,0,0,0,0,0,0,0,0,0,0,0,0,0,0,0,0,0,0,0,0,0,0,0,0,0,0,0,0,0,0,0,0,0,0,0,0],"id":12,"left_children":[1,3,5,7,9,11,13,-1,-1,-1,15,17,19,21,23,25,27,29,31,-1,-1,33,-1,35,37,-1,-1,-1,-1,-1,-1,-1,-1,-1,-1,-1,-1,-1,-1],"loss_changes":[2.4990545E1,9.43337E0,4.410841E0,1.1139679E-1,5.3530426E0,3.2997596E0,3.220047E0,0E0,0E0,0E0,3.1296196E0,1.7430532E0,1.1496117E0,2.203257E0,1.2858772E0,3.0834198E0,6.9521327E0,8.294854E-1,1.8426313E0,0E0,0E0,2.8334966E0,0E0,1.512243E0,1.0753574E0,0E0,0E0,0E0,0E0,0E0,0E0,0E0,0E0,0E0,0E0,0E0,0E0,0E0,0E0],"parents":[2147483647,0,0,1,1,2,2,3,3,4,4,5,5,6,6,10,10,11,11,12,12,13,13,14,14,15,15,16,16,17,17,18,18,21,21,23,23,24,24],"right_children":[2,4,6,8,10,12,14,-1,-1,-1,16,18,20,22,24,26,28,30,32,-1,-1,34,-1,36,38,-1,-1,-1,-1,-1,-1,-1,-1,-1,-1,-1,-1,-1,-1],"split_conditions":[3.0206773E-1,5.658339E2,-6.330766E1,1.7988506E4,-2.9414177E0,1.8686158E4,3.9216852E2,-1.1522445E-2,-4.84327E-2,-4.0915594E-2,1.07186195E2,2.5081737E0,2.3153002E0,1.2036943E1,-6.164165E1,2.5778614E1,2.0308171E3,-9.53692E1,-8.122279E-1,6.2355504E-4,5.7496E-2,2.800099E2,-2.975977E-2,-1.1452716E1,-3.354767E1,5.6061476E-2,2.223693E-2,-3.3613887E-2,3.5635468E-2,-4.811878E-2,-2.4963715E-3,1.9221148E-2,-2.9786456E-2,-1.866107E-2,6.416828E-2,-4.270771E-2,5.265936E-3,-2.1018934E-2,-5.4394063E-2],"split_indices":[3,2,0,4,3,4,2,0,0,0,0,3,3,0,1,1,2,0,1,0,0,2,0,0,0,0,0,0,0,0,0,0,0,0,0,0,0,0,0],"split_type":[0,0,0,0,0,0,0,0,0,0,0,0,0,0,0,0,0,0,0,0,0,0,0,0,0,0,0,0,0,0,0,0,0,0,0,0,0,0,0],"sum_hessian":[9.6977806E1,5.121469E1,4.5763115E1,4.004468E0,4.7210224E1,1.37611265E1,3.200199E1,1.0288546E0,2.9756134E0,1.738816E0,4.547141E1,1.0850989E1,2.9101365E0,4.50539E0,2.74966E1,3.1244427E1,1.4226981E1,4.5288825E0,6.3221073E0,1.414167E0,1.4959693E0,2.5023127E0,2.0030777E0,5.2353845E0,2.2261215E1,1.7210695E1,1.40337305E1,4.5626864E0,9.664295E0,3.0567942E0,1.4720882E0,4.3199725E0,2.002135E0,1.2775447E0,1.2247679E0,1.9333508E0,3.3020337E0,4.827026E0,1.7434189E1],"tree_param":{"num_deleted":"0","num_feature":"5","num_nodes":"39","size_leaf_vector":"1"}},{"base_weights":[-9.3504E-3,4.449248E-1,-5.2318996E-1,-8.4630346E-1,5.676822E-1,-5.6772303E-2,-7.1855366E-1,-1.1257818E-2,-4.7587562E-2,-4.020844E-2,6.352087E-1,3.2250357E-1,-5.89181E-1,4.0474836E-2,-8.420682E-1,8.0086416E-1,2.4157937E-1,-2.64411E-1,7.9230857E-1,2.4067175E-1,-5.2526303E-2,5.566462E-1,-2.9028667E-2,-3.2076934E-1,-9.4750726E-1,1.3320823E-2,4.9796708E-2,-2.7152205E-2,3.7172854E-2,-4.0992122E-2,1.544959E-2,5.9757E-2,6.846372E-3,-1.21409735E-2,2.9267702E-2,-1.8212896E-2,6.2116235E-2,-4.1959923E-2,5.0542424E-3,-2.0330345E-2,-5.346174E-2],"categories":[],"categories_nodes":[],"categories_segments":[],"categories_sizes":[],"default_left":[0,0,0,0,0,0,0,0,0,0,0,0,0,0,0,0,0,0,0,0,0,0,0,0,0,0,0,0,0,0,0,0,0,0,0,0,0,0,0,0,0],"id":13,"left_children":[1,3,5,7,9,11,13,-1,-1,-1,15,17,19,21,23,25,27,29,31,33,-1,35,-1,37,39,-1,-1,-1,-1,-1,-1,-1,-1,-1,-1,-1,-1,-1,-1,-1,-1],"loss_changes":[2.2888922E1,8.731746E0,4.151106E0,1.0801363E-1,4.9698925E0,3.151608E0,3.0657272E0,0E0,0E0,0E0,2.8344631E0,2.749356E0,2.7242088E0,2.0798252E0,1.227253E0,3.096878E0,6.3836913E0,1.7963836E0,1.2530844E0,6.620962E-1,0E0,2.6645455E0,0E0,1.4404244E0,1.0571632E0,0E0,0E0,0E0,0E0,0E0,0E0,0E0,0E0,0E0,0E0,0E0,0E0,0E0,0E0,0E0,0E0],"parents":[2147483647,0,0,1,1,2,2,3,3,4,4,5,5,6,6,10,10,11,11,12,12,13,13,14,14,15,15,16,16,17,17,18,18,19,19,21,21,23,23,24,24],"right_children":[2,4,6,8,10,12,14,-1,-1,-1,16,18,20,22,24,26,28,30,32,34,-1,36,-1,38,40,-1,-1,-1,-1,-1,-1,-1,-1,-1,-1,-1,-1,-1,-1,-1,-1],"split_conditions":[3.0206773E-1,5.658339E2,-6.330766E1,1.7988506E4,-2.9414177E0,2.0810027E3,3.9216852E2,-1.1257818E-2,-4.7587562E-2,-4.020844E-2,1.07186195E2,2.338011E0,-4.3057983E2,1.2036943E1,-6.164165E1,1.1368881E3,2.1245122E3,-8.838341E1,-1.6349442E2,-5.3448065E2,-5.2526303E-2,2.800099E2,-2.9028667E-2,-1.1452716E1,-3.354767E1,1.3320823E-2,4.9796708E-2,-2.7152205E-2,3.7172854E-2,-4.0992122E-2,1.544959E-2,5.9757E-2,6.846372E-3,-1.21409735E-2,2.9267702E-2,-1.8212896E-2,6.2116235E-2,-4.1959923E-2,5.0542424E-3,-2.0330345E-2,-5.346174E-2],"split_indices":[3,2,0,4,3,2,2,0,0,0,0,3,0,0,1,2,2,0,0,0,0,2,0,0,0,0,0,0,0,0,0,0,0,0,0,0,0,0,0,0,0],"split_type":[0,0,0,0,0,0,0,0,0,0,0,0,0,0,0,0,0,0,0,0,0,0,0,0,0,0,0,0,0,0,0,0,0,0,0,0,0,0,0,0,0],"sum_hessian":[9.605979E1,5.1056175E1,4.5003616E1,3.920817E0,4.7135357E1,1.366646E1,3.1337156E1,1.0240166E0,2.8968E0,1.699514E0,4.5435844E1,8.2112255E0,5.4552345E0,4.4798207E0,2.6857336E1,3.1249992E1,1.4185852E1,3.8449829E0,4.3662424E0,2.1200614E0,3.3351731E0,2.5031104E0,1.9767101E0,5.198377E0,2.1658958E1,8.988708E0,2.2261286E1,5.502052E0,8.6838E0,1.7347847E0,2.1101983E0,2.1940713E0,2.172171E0,1.0053575E0,1.114704E0,1.2683752E0,1.2347354E0,1.8883809E0,3.3099964E0,4.7761736E0,1.6882784E1],"tree_param":{"num_deleted":"0","num_feature":"5","num_nodes":"41","size_leaf_vector":"1"}},{"base_weights":[-1.0411061E-2,4.2372617E-1,-5.0769466E-1,-8.302226E-1,5.412433E-1,-5.413842E-2,-7.002607E-1,-1.1457684E-2,-4.7301095E-2,-1.5979062E-1,6.7631745E-1,-3.0536935E-1,7.133712E-1,4.1247122E-2,-8.230041E-1,8.639024E-1,-6.8977183E-1,-8.966641E-2,8.9273113E-1,-4.7462133E-1,2.0294994E-2,8.787177E-4,5.5013206E-2,5.4152477E-1,-2.8318916E-2,-3.1268743E-1,-9.281906E-1,2.1560711E-3,6.388281E-2,1.9283157E-2,-5.1830214E-2,2.3209007E-2,-5.4674584E-2,6.4931996E-2,1.5768062E-2,-3.0760027E-3,-4.4369765E-2,-1.777655E-2,6.0197722E-2,-4.1236665E-2,4.8513548E-3,-1.966232E-2,-5.2565712E-2],"categories":[],"categories_nodes":[],"categories_segments":[],"categories_sizes":[],"default_left":[0,0,0,0,0,0,0,0,0,0,0,0,0,0,0,0,0,0,0,0,0,0,0,0,0,0,0,0,0,0,0,0,0,0,0,0,0,0,0,0,0,0,0],"id":14,"left_children":[1,3,5,7,9,11,13,-1,-1,15,17,19,21,23,25,27,29,31,33,35,-1,-1,-1,37,-1,39,41,-1,-1,-1,-1,-1,-1,-1,-1,-1,-1,-1,-1,-1,-1,-1,-1],"loss_changes":[2.0965397E1,8.091591E0,3.9145927E0,1.1998844E-1,4.655382E0,3.0274796E0,2.917614E0,0E0,0E0,5.2437935E0,6.7863216E0,1.5984905E0,1.0286897E0,1.9640245E0,1.1714973E0,1.0880971E0,2.7126062E0,5.96755E0,7.0043507E0,1.6325514E0,0E0,0E0,0E0,2.5086815E0,0E0,1.372704E0,1.0401726E0,0E0,0E0,0E0,0E0,0E0,0E0,0E0,0E0,0E0,0E0,0E0,0E0,0E0,0E0,0E0,0E0],"parents":[2147483647,0,0,1,1,2,2,3,3,4,4,5,5,6,6,9,9,10,10,11,11,12,12,13,13,14,14,15,15,16,16,17,17,18,18,19,19,23,23,25,25,26,26],"right_children":[2,4,6,8,10,12,14,-1,-1,16,18,20,22,24,26,28,30,32,34,36,-1,-1,-1,38,-1,40,42,-1,-1,-1,-1,-1,-1,-1,-1,-1,-1,-1,-1,-1,-1,-1,-1],"split_conditions":[3.0206773E-1,5.658339E2,-6.330766E1,-1.5087568E1,-2.5641506E0,1.8686158E4,3.9216852E2,-1.1457684E-2,-4.7301095E-2,2.1489517E3,1.1368881E3,3.0205803E0,2.3153002E0,1.2036943E1,-6.164165E1,-2.8252413E0,-3.1140872E2,1.8162428E4,1.07186195E2,2.0810027E3,2.0294994E-2,8.787177E-4,5.5013206E-2,2.800099E2,-2.8318916E-2,-1.1452716E1,-3.354767E1,2.1560711E-3,6.388281E-2,1.9283157E-2,-5.1830214E-2,2.3209007E-2,-5.4674584E-2,6.4931996E-2,1.5768062E-2,-3.0760027E-3,-4.4369765E-2,-1.777655E-2,6.0197722E-2,-4.1236665E-2,4.8513548E-3,-1.966232E-2,-5.2565712E-2],"split_indices":[3,2,0,0,3,4,2,0,0,2,2,3,3,0,1,3,0,4,0,2,0,0,0,2,0,0,0,0,0,0,0,0,0,0,0,0,0,0,0,0,0,0,0],"split_type":[0,0,0,0,0,0,0,0,0,0,0,0,0,0,0,0,0,0,0,0,0,0,0,0,0,0,0,0,0,0,0,0,0,0,0,0,0,0,0,0,0,0,0],"sum_hessian":[9.511532E1,5.086084E1,4.425448E1,3.8384585E0,4.702238E1,1.35711355E1,3.0683344E1,1.1012397E0,2.737219E0,7.5669527E0,3.945543E1,1.0678006E1,2.8931298E0,4.452033E0,2.623131E1,2.3662758E0,5.200677E0,8.820709E0,3.063472E1,8.89426E0,1.7837454E0,1.4074192E0,1.4857106E0,2.5013642E0,1.9506688E0,5.1617155E0,2.1069595E1,1.163135E0,1.2031406E0,1.240929E0,3.9597478E0,6.030857E0,2.7898524E0,1.725482E1,1.33799E1,5.01966E0,3.8746004E0,1.2593107E0,1.2420536E0,1.8440921E0,3.3176236E0,4.7267723E0,1.6342823E1],"tree_param":{"num_deleted":"0","num_feature":"5","num_nodes":"43","size_leaf_vector":"1"}},{"base_weights":[-1.0623603E-2,4.0475038E-1,-4.9206057E-1,-8.143073E-1,5.17521E-1,-8.808276E-1,-2.626282E-1,-4.64629E-2,-1.0987835E-2,-3.9381668E-2,5.812169E-1,8.177038E-3,-9.750041E-1,1.3389497E-1,-3.8764974E-1,9.069884E-1,3.7645045E-1,-1.0191211E-2,-1.0697979E0,4.5781337E-2,-4.1393316E-1,-5.1203985E-2,-2.2822301E-1,9.774881E-3,5.210684E-2,-6.34738E-3,2.5773523E-2,-5.7045985E-2,-5.619607E-3,-4.7123443E-2,1.585568E-2,-1.2363101E-3,-4.1142464E-2],"categories":[],"categories_nodes":[],"categories_segments":[],"categories_sizes":[],"default_left":[0,0,0,0,0,0,0,0,0,0,0,0,0,0,0,0,0,0,0,0,0,0,0,0,0,0,0,0,0,0,0,0,0],"id":15,"left_children":[1,3,5,7,9,11,13,-1,-1,-1,15,-1,17,19,21,23,25,-1,27,-1,29,-1,31,-1,-1,-1,-1,-1,-1,-1,-1,-1,-1],"loss_changes":[1.922922E1,7.5198126E0,3.7402954E0,1.2115145E-1,4.4376717E0,1.7430172E0,1.510695E0,0E0,0E0,0E0,2.7418642E0,0E0,8.7208843E-1,3.718208E0,2.0623436E0,1.4434414E0,2.1713076E0,0E0,7.600107E-1,0E0,2.336332E0,0E0,2.3250816E0,0E0,0E0,0E0,0E0,0E0,0E0,0E0,0E0,0E0,0E0],"parents":[2147483647,0,0,1,1,2,2,3,3,4,4,5,5,6,6,10,10,12,12,13,13,14,14,15,15,16,16,18,18,20,20,22,22],"right_children":[2,4,6,8,10,12,14,-1,-1,-1,16,-1,18,20,22,24,26,-1,28,-1,30,-1,32,-1,-1,-1,-1,-1,-1,-1,-1,-1,-1],"split_conditions":[3.0206773E-1,5.658339E2,1.3406148E0,-4.5741236E-1,-2.9414177E0,2.793686E2,-1.6349442E2,-4.64629E-2,-1.0987835E-2,-3.9381668E-2,-1.1010579E1,8.177038E-3,4.7291723E-1,2.0810027E3,1.82357E4,1.7179791E4,1.0883439E3,-1.0191211E-2,7.203277E1,4.5781337E-2,2.785347E0,-5.1203985E-2,1.5303828E3,9.774881E-3,5.210684E-2,-6.34738E-3,2.5773523E-2,-5.7045985E-2,-5.619607E-3,-4.7123443E-2,1.585568E-2,-1.2363101E-3,-4.1142464E-2],"split_indices":[3,2,3,3,3,2,0,0,0,0,1,0,3,2,4,4,2,0,1,0,3,0,2,0,0,0,0,0,0,0,0,0,0],"split_type":[0,0,0,0,0,0,0,0,0,0,0,0,0,0,0,0,0,0,0,0,0,0,0,0,0,0,0,0,0,0,0,0,0],"sum_hessian":[9.416152E1,5.0634445E1,4.3527077E1,3.760653E0,4.6873795E1,1.5100508E1,2.8426569E1,2.6796162E0,1.0810368E0,1.6522818E0,4.522151E1,1.1881377E0,1.3912371E1,6.7972307E0,2.162934E1,1.6130089E1,2.9091423E1,1.8677518E0,1.2044619E1,2.5240803E0,4.2731504E0,3.2463658E0,1.8382973E1,2.9653742E0,1.3164714E1,6.314208E0,2.2777214E1,1.10333185E1,1.0113E0,2.312235E0,1.9609156E0,1.4471892E1,3.9110806E0],"tree_param":{"num_deleted":"0","num_feature":"5","num_nodes":"33","size_leaf_vector":"1"}},{"base_weights":[-1.2052936E-2,4.2501533E-1,-4.3562365E-1,-2.6012424E-1,6.18872E-1,-4.1930083E-2,-5.8461994E-1,3.3520162E-1,-9.225297E-1,-3.742017E-1,8.483397E-1,-2.8472674E-1,6.8929183E-1,-7.0013094E-1,1.7310873E-1,-4.2104548E-1,6.549034E-2,-9.126412E-3,-5.2555718E-2,2.6740897E-2,-6.765574E-1,1.1002644E0,3.1146047E-1,-6.747478E-1,3.6920745E-2,1.0457321E-3,5.301553E-2,-1.1584445E-2,-8.223314E-1,7.0294785E-1,-3.7702017E-2,2.3421092E-2,-5.424712E-2,1.8760283E-2,-5.080951E-2,3.345377E-3,6.1042186E-2,-2.7324885E-2,2.6543265E-2,-4.568649E-2,-1.4229357E-3,1.8501801E-2,-2.8692305E-2,1.6441712E-2,-3.599183E-2,-5.1217645E-2,-2.445066E-2,5.6730032E-2,-4.3495875E-3],"categories":[],"categories_nodes":[],"categories_segments":[],"categories_sizes":[],"default_left":[0,0,0,0,0,0,0,0,0,0,0,0,0,0,0,0,0,0,0,0,0,0,0,0,0,0,0,0,0,0,0,0,0,0,0,0,0,0,0,0,0,0,0,0,0,0,0,0,0],"id":16,"left_children":[1,3,5,7,9,11,13,15,17,19,21,23,25,27,29,31,-1,-1,-1,-1,33,35,37,39,41,-1,-1,43,45,47,-1,-1,-1,-1,-1,-1,-1,-1,-1,-1,-1,-1,-1,-1,-1,-1,-1,-1,-1],"loss_changes":[1.766E1,6.398464E0,2.8163586E0,4.671219E0,8.726393E0,2.7481754E0,3.1895504E0,5.3858232E0,3.316908E-1,2.4562092E0,3.7528973E0,1.4673965E0,9.388343E-1,2.5666513E0,3.2018983E0,3.1360166E0,0E0,0E0,0E0,0E0,2.5815961E0,2.4371414E0,2.37315E0,7.846799E-1,1.6873485E0,0E0,0E0,1.5939034E0,1.2490673E0,1.4553272E0,0E0,0E0,0E0,0E0,0E0,0E0,0E0,0E0,0E0,0E0,0E0,0E0,0E0,0E0,0E0,0E0,0E0,0E0,0E0],"parents":[2147483647,0,0,1,1,2,2,3,3,4,4,5,5,6,6,7,7,8,8,9,9,10,10,11,11,12,12,13,13,14,14,15,15,20,20,21,21,22,22,23,23,24,24,27,27,28,28,29,29],"right_children":[2,4,6,8,10,12,14,16,18,20,22,24,26,28,30,32,-1,-1,-1,-1,34,36,38,40,42,-1,-1,44,46,48,-1,-1,-1,-1,-1,-1,-1,-1,-1,-1,-1,-1,-1,-1,-1,-1,-1,-1,-1],"split_conditions":[-1.1395061E-1,1.0191832E3,-6.330766E1,1.8162428E4,-2.5641506E0,1.8686158E4,2.2749043E3,-1.0928409E0,5.70898E0,2.1489517E3,1.07186195E2,2.5081737E0,2.3153002E0,3.9216852E2,4.7291723E-1,-1.89914E0,6.549034E-2,-9.126412E-3,-5.2555718E-2,2.6740897E-2,-3.1140872E2,1.1368881E3,-1.2998916E0,-9.53692E1,-8.122279E-1,1.0457321E-3,5.301553E-2,1.8989615E4,1.4393147E0,2.60006E2,-3.7702017E-2,2.3421092E-2,-5.424712E-2,1.8760283E-2,-5.080951E-2,3.345377E-3,6.1042186E-2,-2.7324885E-2,2.6543265E-2,-4.568649E-2,-1.4229357E-3,1.8501801E-2,-2.8692305E-2,1.6441712E-2,-3.599183E-2,-5.1217645E-2,-2.445066E-2,5.6730032E-2,-4.3495875E-3],"split_indices":[3,2,0,4,3,4,2,3,1,2,0,3,3,2,3,3,0,0,0,0,0,2,3,0,1,0,0,4,3,0,0,0,0,0,0,0,0,0,0,0,0,0,0,0,0,0,0,0,0],"split_type":[0,0,0,0,0,0,0,0,0,0,0,0,0,0,0,0,0,0,0,0,0,0,0,0,0,0,0,0,0,0,0,0,0,0,0,0,0,0,0,0,0,0,0,0,0,0,0,0,0],"sum_hessian":[9.339268E1,4.5962315E1,4.7430367E1,1.0061285E1,3.5901028E1,1.3373893E1,3.4056473E1,5.5590997E0,4.5021853E0,6.620137E0,2.9280891E1,1.0498546E1,2.875347E0,2.9617487E1,4.4389877E0,3.4500272E0,2.1090727E0,1.0246823E0,3.477503E0,1.4604673E0,5.15967E0,1.9215061E1,1.0065829E1,4.2487903E0,6.2497554E0,1.4034507E0,1.471896E0,4.6291323E0,2.4988354E1,2.9786131E0,1.4603745E0,1.600357E0,1.84967E0,1.2338835E0,3.9257865E0,2.1703324E0,1.704473E1,1.7462995E0,8.3195305E0,2.7997143E0,1.449076E0,4.2991323E0,1.950623E0,3.4882355E0,1.1408969E0,1.4267647E1,1.0720707E1,1.6439718E0,1.3346415E0],"tree_param":{"num_deleted":"0","num_feature":"5","num_nodes":"49","size_leaf_vector":"1"}},{"base_weights":[-1.2311831E-2,3.701799E-1,-4.6420866E-1,-7.925854E-1,4.758595E-1,-8.8194454E-1,-2.5886956E-1,-1.0582495E-2,-4.5421544E-2,-3.8629174E-2,5.364272E-1,1.4918128E-2,-9.9750805E-1,1.3228124E-1,-3.7502563E-1,6.935482E-1,1.5713805E-1,-5.5796903E-2,-7.0508323E-3,4.3651193E-2,-3.9567345E-1,-1.8876904E-1,-8.8559073E-1,4.312998E-2,1.0457708E-2,-4.037866E-2,1.5345058E-2,-3.9074834E-2,2.5716072E-2,-4.839055E-2,3.983184E-5,-7.517041E-3,-5.0089527E-2],"categories":[],"categories_nodes":[],"categories_segments":[],"categories_sizes":[],"default_left":[0,0,0,0,0,0,0,0,0,0,0,0,0,0,0,0,0,0,0,0,0,0,0,0,0,0,0,0,0,0,0,0,0],"id":17,"left_children":[1,3,5,7,9,11,13,-1,-1,-1,15,-1,17,19,21,23,25,-1,-1,-1,27,29,31,-1,-1,-1,-1,-1,-1,-1,-1,-1,-1],"loss_changes":[1.631658E1,6.6617064E0,3.482543E0,1.1973715E-1,4.0067234E0,2.185625E0,1.4317148E0,0E0,0E0,0E0,2.626361E0,0E0,1.1447983E0,3.3584309E0,2.0880692E0,2.45325E0,2.3770847E0,0E0,0E0,0E0,2.222865E0,2.7545965E0,3.6782265E-1,0E0,0E0,0E0,0E0,0E0,0E0,0E0,0E0,0E0,0E0],"parents":[2147483647,0,0,1,1,2,2,3,3,4,4,5,5,6,6,10,10,12,12,13,13,14,14,15,15,16,16,20,20,21,21,22,22],"right_children":[2,4,6,8,10,12,14,-1,-1,-1,16,-1,18,20,22,24,26,-1,-1,-1,28,30,32,-1,-1,-1,-1,-1,-1,-1,-1,-1,-1],"split_conditions":[3.0206773E-1,5.658339E2,1.2846719E0,-1.5087568E1,-2.9414177E0,2.678167E2,-1.6349442E2,-1.0582495E-2,-4.5421544E-2,-3.8629174E-2,6.2328163E1,1.4918128E-2,2.2749043E3,2.0810027E3,1.5303828E3,1.1265913E2,1.077596E3,-5.5796903E-2,-7.0508323E-3,4.3651193E-2,3.0065355E0,1.8205244E4,-9.165285E1,4.312998E-2,1.0457708E-2,-4.037866E-2,1.5345058E-2,-3.9074834E-2,2.5716072E-2,-4.839055E-2,3.983184E-5,-7.517041E-3,-5.0089527E-2],"split_indices":[3,2,3,0,3,2,0,0,0,0,1,0,2,2,2,0,2,0,0,0,3,4,1,0,0,0,0,0,0,0,0,0,0],"split_type":[0,0,0,0,0,0,0,0,0,0,0,0,0,0,0,0,0,0,0,0,0,0,0,0,0,0,0,0,0,0,0,0,0],"sum_hessian":[9.240491E1,5.0143547E1,4.226136E1,3.6361403E0,4.6507404E1,1.28416395E1,2.941972E1,1.0745499E0,2.5615904E0,1.6079557E0,4.489945E1,1.0041326E0,1.1837507E1,6.704331E0,2.2715387E1,3.1162E1,1.3737449E1,1.0133408E1,1.704099E0,2.517948E0,4.1863832E0,1.7647297E1,5.068092E0,2.2521364E1,8.640637E0,1.2557964E0,1.2481652E1,3.0390725E0,1.1473106E0,2.6502748E0,1.4997022E1,1.0047003E0,4.0633917E0],"tree_param":{"num_deleted":"0","num_feature":"5","num_nodes":"33","size_leaf_vector":"1"}},{"base_weights":[-1.4030841E-2,3.5160458E-1,-4.503921E-1,-7.7779716E-1,4.528903E-1,-8.642757E-1,-2.5055578E-1,-4.47704E-2,-9.739828E-3,-3.7990876E-2,5.1104105E-1,1.4496215E-2,-9.8102194E-1,1.3016166E-1,-3.6388847E-1,8.201604E-1,3.2024032E-1,-5.506971E-2,-6.8426463E-3,4.2002957E-2,-3.8244423E-1,-1.8264922E-1,-8.6948174E-1,7.25028E-3,4.762344E-2,-9.234748E-3,2.2879958E-2,-4.525913E-2,1.5405598E-2,-4.7510482E-2,3.7964506E-5,-7.344309E-3,-4.9304154E-2],"categories":[],"categories_nodes":[],"categories_segments":[],"categories_sizes":[],"default_left":[0,0,0,0,0,0,0,0,0,0,0,0,0,0,0,0,0,0,0,0,0,0,0,0,0,0,0,0,0,0,0,0,0],"id":18,"left_children":[1,3,5,7,9,11,13,-1,-1,-1,15,-1,17,19,21,23,25,-1,-1,-1,27,29,31,-1,-1,-1,-1,-1,-1,-1,-1,-1,-1],"loss_changes":[1.4937461E1,6.181824E0,3.3125782E0,1.383884E-1,3.730875E0,2.1015682E0,1.3497245E0,0E0,0E0,0E0,2.440302E0,0E0,1.1168957E0,3.10893E0,1.9966981E0,1.3671017E0,2.1636987E0,0E0,0E0,0E0,2.1327393E0,2.616627E0,3.5574675E-1,0E0,0E0,0E0,0E0,0E0,0E0,0E0,0E0,0E0,0E0],"parents":[2147483647,0,0,1,1,2,2,3,3,4,4,5,5,6,6,10,10,12,12,13,13,14,14,15,15,16,16,20,20,21,21,22,22],"right_children":[2,4,6,8,10,12,14,-1,-1,-1,16,-1,18,20,22,24,26,-1,-1,-1,28,30,32,-1,-1,-1,-1,-1,-1,-1,-1,-1,-1],"split_conditions":[3.0206773E-1,5.658339E2,1.2846719E0,-4.5741236E-1,-2.9414177E0,2.678167E2,-1.6349442E2,-4.47704E-2,-9.739828E-3,-3.7990876E-2,-1.1010579E1,1.4496215E-2,2.2749043E3,2.0810027E3,1.5303828E3,1.7179791E4,1.7600541E4,-5.506971E-2,-6.8426463E-3,4.2002957E-2,2.785347E0,1.8205244E4,-9.165285E1,7.25028E-3,4.762344E-2,-9.234748E-3,2.2879958E-2,-4.525913E-2,1.5405598E-2,-4.7510482E-2,3.7964506E-5,-7.344309E-3,-4.9304154E-2],"split_indices":[3,2,3,3,3,2,0,0,0,0,1,0,2,2,2,4,4,0,0,0,3,4,1,0,0,0,0,0,0,0,0,0,0],"split_type":[0,0,0,0,0,0,0,0,0,0,0,0,0,0,0,0,0,0,0,0,0,0,0,0,0,0,0,0,0,0,0,0,0],"sum_hessian":[9.16304E1,4.9961197E1,4.166921E1,3.5621102E0,4.6399086E1,1.248547E1,2.9183737E1,2.518236E0,1.0438745E0,1.570965E0,4.482812E1,1.0106277E0,1.1474842E1,6.660545E0,2.2523191E1,1.5850292E1,2.897783E1,9.776131E0,1.6987115E0,2.5249674E0,4.135577E0,1.7581894E1,4.9412985E0,2.9406188E0,1.2909673E1,6.123403E0,2.2854427E1,2.1769009E0,1.9586763E0,2.5845933E0,1.4997301E1,1.0005393E0,3.940759E0],"tree_param":{"num_deleted":"0","num_feature":"5","num_nodes":"33","size_leaf_vector":"1"}},{"base_weights":[-1.539113E-2,3.71426E-1,-3.9975983E-1,-2.67987E-1,5.516695E-1,-2.8392727E-2,-5.438154E-1,2.8709263E-1,-8.994114E-1,-3.7551388E-1,7.664202E-1,-2.6251778E-1,6.633917E-1,-6.568893E-1,1.7220032E-1,-4.376357E-1,6.1412033E-2,-1.1294899E-2,-5.128053E-2,2.5558693E-2,-6.6858006E-1,1.0126449E0,2.5588587E-1,-6.3792163E-1,3.942307E-2,1.3911555E-3,5.071044E-2,-3.9381385E-1,-1.0277215E0,6.6323274E-1,-3.6170956E-2,2.1389017E-2,-5.3906836E-2,1.844234E-2,-5.00982E-2,1.4105596E-3,5.6632727E-2,-2.9169083E-2,2.3617627E-2,-4.4313133E-2,-4.5052453E-5,1.7686896E-2,-2.74182E-2,2.0819176E-2,-2.6012331E-2,-9.8886425E-3,-5.4966986E-2,5.4256137E-2,-4.97114E-3],"categories":[],"categories_nodes":[],"categories_segments":[],"categories_sizes":[],"default_left":[0,0,0,0,0,0,0,0,0,0,0,0,0,0,0,0,0,0,0,0,0,0,0,0,0,0,0,0,0,0,0,0,0,0,0,0,0,0,0,0,0,0,0,0,0,0,0,0,0],"id":19,"left_children":[1,3,5,7,9,11,13,15,17,19,21,23,25,27,29,31,-1,-1,-1,-1,33,35,37,39,41,-1,-1,43,45,47,-1,-1,-1,-1,-1,-1,-1,-1,-1,-1,-1,-1,-1,-1,-1,-1,-1,-1,-1],"loss_changes":[1.381246E1,5.486606E0,2.476386E0,4.064408E0,7.548209E0,2.4535182E0,2.82578E0,4.9964037E0,2.2070312E-1,2.2980978E0,3.5039234E0,1.298202E0,8.284457E-1,2.4383917E0,2.8378134E0,2.9170523E0,0E0,0E0,0E0,0E0,2.47642E0,2.314001E0,2.2881558E0,8.004358E-1,1.5179796E0,0E0,0E0,2.1290803E0,4.6455097E-1,1.3900343E0,0E0,0E0,0E0,0E0,0E0,0E0,0E0,0E0,0E0,0E0,0E0,0E0,0E0,0E0,0E0,0E0,0E0,0E0,0E0],"parents":[2147483647,0,0,1,1,2,2,3,3,4,4,5,5,6,6,7,7,8,8,9,9,10,10,11,11,12,12,13,13,14,14,15,15,20,20,21,21,22,22,23,23,24,24,27,27,28,28,29,29],"right_children":[2,4,6,8,10,12,14,16,18,20,22,24,26,28,30,32,-1,-1,-1,-1,34,36,38,40,42,-1,-1,44,46,48,-1,-1,-1,-1,-1,-1,-1,-1,-1,-1,-1,-1,-1,-1,-1,-1,-1,-1,-1],"split_conditions":[-1.1395061E-1,1.0191832E3,-6.330766E1,1.8162428E4,-2.5641506E0,1.8686158E4,2.2749043E3,-1.0928409E0,-2.5729213E0,2.1489517E3,1.07186195E2,2.5081737E0,2.3153002E0,1.0654987E3,4.7291723E-1,-1.89914E0,6.1412033E-2,-1.1294899E-2,-5.128053E-2,2.5558693E-2,-3.1140872E2,1.1368881E3,1.832835E4,-9.53692E1,-8.122279E-1,1.3911555E-3,5.071044E-2,-6.164165E1,-4.179566E1,2.60006E2,-3.6170956E-2,2.1389017E-2,-5.3906836E-2,1.844234E-2,-5.00982E-2,1.4105596E-3,5.6632727E-2,-2.9169083E-2,2.3617627E-2,-4.4313133E-2,-4.5052453E-5,1.7686896E-2,-2.74182E-2,2.0819176E-2,-2.6012331E-2,-9.8886425E-3,-5.4966986E-2,5.4256137E-2,-4.97114E-3],"split_indices":[3,2,0,4,3,4,2,3,3,2,0,3,3,2,3,3,0,0,0,0,0,2,4,0,1,0,0,1,0,0,0,0,0,0,0,0,0,0,0,0,0,0,0,0,0,0,0,0,0],"split_type":[0,0,0,0,0,0,0,0,0,0,0,0,0,0,0,0,0,0,0,0,0,0,0,0,0,0,0,0,0,0,0,0,0,0,0,0,0,0,0,0,0,0,0,0,0,0,0,0,0],"sum_hessian":[9.0901695E1,4.532333E1,4.5578365E1,9.85961E0,3.546372E1,1.3073282E1,3.250508E1,5.537216E0,4.322393E0,6.52848E0,2.893524E1,1.0231194E1,2.8420882E0,2.8143248E1,4.3618345E0,3.430538E0,2.1066782E0,1.122378E0,3.200015E0,1.4368837E0,5.0915966E0,1.8857155E1,1.0078084E1,4.0647464E0,6.166447E0,1.394681E0,1.4474071E0,1.7669874E1,1.0473374E1,2.9848375E0,1.376997E0,1.6003429E0,1.8301952E0,1.2124164E0,3.8791802E0,2.1832373E0,1.6673918E1,1.7188554E0,8.359229E0,2.6430843E0,1.4216623E0,4.2773514E0,1.8890958E0,2.0756333E0,1.559424E1,1.1307805E0,9.342593E0,1.6495236E0,1.335314E0],"tree_param":{"num_deleted":"0","num_feature":"5","num_nodes":"49","size_leaf_vector":"1"}},{"base_weights":[-1.54298E-2,3.555861E-1,-3.8675588E-1,-2.6039934E-1,5.285838E-1,-2.7426662E-2,-5.2746695E-1,2.7757603E-1,-8.813244E-1,-3.5872123E-1,7.347407E-1,-2.56267E-1,6.4596945E-1,-6.3851523E-1,1.6666014E-1,-4.2491335E-1,5.9238065E-2,-1.1033023E-2,-5.033502E-2,2.4751127E-2,-6.433694E-1,9.7483796E-1,2.4249265E-1,2.8373268E-1,-4.458542E-1,1.3501447E-3,4.948774E-2,-3.7852347E-1,-1.0124747E0,6.4149404E-1,-3.5585787E-2,2.0689804E-2,-5.259196E-2,2.0215863E-3,-6.066447E-2,1.3620133E-3,5.4583635E-2,-2.8237173E-2,2.2554433E-2,-1.4864737E-2,3.3674724E-2,-4.7027376E-3,-4.6154093E-2,1.9963397E-2,-2.512907E-2,-9.703209E-3,-5.4397363E-2,5.2423753E-2,-4.8322156E-3],"categories":[],"categories_nodes":[],"categories_segments":[],"categories_sizes":[],"default_left":[0,0,0,0,0,0,0,0,0,0,0,0,0,0,0,0,0,0,0,0,0,0,0,0,0,0,0,0,0,0,0,0,0,0,0,0,0,0,0,0,0,0,0,0,0,0,0,0,0],"id":20,"left_children":[1,3,5,7,9,11,13,15,17,19,21,23,25,27,29,31,-1,-1,-1,-1,33,35,37,39,41,-1,-1,43,45,47,-1,-1,-1,-1,-1,-1,-1,-1,-1,-1,-1,-1,-1,-1,-1,-1,-1,-1,-1],"loss_changes":[1.2665513E1,5.0404124E0,2.3077126E0,3.8382344E0,6.8945274E0,2.31969E0,2.6461668E0,4.6613727E0,2.1135664E-1,2.1426454E0,3.2789116E0,1.2679346E0,7.881795E-1,2.3985558E0,2.6826391E0,2.755689E0,0E0,0E0,0E0,0E0,2.4123702E0,2.1469822E0,2.1208782E0,9.947263E-1,1.3639009E0,0E0,0E0,1.983309E0,4.7676754E-1,1.3000753E0,0E0,0E0,0E0,0E0,0E0,0E0,0E0,0E0,0E0,0E0,0E0,0E0,0E0,0E0,0E0,0E0,0E0,0E0,0E0],"parents":[2147483647,0,0,1,1,2,2,3,3,4,4,5,5,6,6,7,7,8,8,9,9,10,10,11,11,12,12,13,13,14,14,15,15,20,20,21,21,22,22,23,23,24,24,27,27,28,28,29,29],"right_children":[2,4,6,8,10,12,14,16,18,20,22,24,26,28,30,32,-1,-1,-1,-1,34,36,38,40,42,-1,-1,44,46,48,-1,-1,-1,-1,-1,-1,-1,-1,-1,-1,-1,-1,-1,-1,-1,-1,-1,-1,-1],"split_conditions":[-1.1395061E-1,1.0191832E3,-6.330766E1,1.8162428E4,-2.5641506E0,1.8686158E4,2.2749043E3,-1.0928409E0,-2.5729213E0,2.1489517E3,1.07186195E2,1.7048352E4,2.3153002E0,1.0654987E3,4.7291723E-1,-1.89914E0,5.9238065E-2,-1.1033023E-2,-5.033502E-2,2.4751127E-2,-2.4369736E2,1.1368881E3,1.832835E4,2.8170693E0,2.0810027E3,1.3501447E-3,4.948774E-2,-6.164165E1,1.8448646E4,2.60006E2,-3.5585787E-2,2.0689804E-2,-5.259196E-2,2.0215863E-3,-6.066447E-2,1.3620133E-3,5.4583635E-2,-2.8237173E-2,2.2554433E-2,-1.4864737E-2,3.3674724E-2,-4.7027376E-3,-4.6154093E-2,1.9963397E-2,-2.512907E-2,-9.703209E-3,-5.4397363E-2,5.2423753E-2,-4.8322156E-3],"split_indices":[3,2,0,4,3,4,2,3,3,2,0,4,3,2,3,3,0,0,0,0,0,2,4,3,2,0,0,1,4,0,0,0,0,0,0,0,0,0,0,0,0,0,0,0,0,0,0,0,0],"split_type":[0,0,0,0,0,0,0,0,0,0,0,0,0,0,0,0,0,0,0,0,0,0,0,0,0,0,0,0,0,0,0,0,0,0,0,0,0,0,0,0,0,0,0,0,0,0,0,0,0],"sum_hessian":[8.993546E1,4.5007725E1,4.492774E1,9.757916E0,3.524981E1,1.2978888E1,3.194885E1,5.524447E0,4.233469E0,6.506331E0,2.8743477E1,1.0149293E1,2.8295953E0,2.7611593E1,4.3372583E0,3.4130926E0,2.111354E0,1.1154796E0,3.1179895E0,1.44207E0,5.064261E0,1.8661047E1,1.008243E1,2.5083103E0,7.640982E0,1.3955431E0,1.4340522E0,1.7474688E1,1.0136906E1,2.99039E0,1.3468683E0,1.6053692E0,1.8077234E0,2.724459E0,2.339802E0,2.1836348E0,1.6477411E1,1.7197796E0,8.362651E0,1.1023098E0,1.4060004E0,5.087615E0,2.5533674E0,2.098647E0,1.537604E1,1.1574159E0,8.979489E0,1.6565827E0,1.3338073E0],"tree_param":{"num_deleted":"0","num_feature":"5","num_nodes":"49","size_leaf_vector":"1"}},{"base_weights":[-1.5568414E-2,3.0271104E-1,-4.1720587E-1,-7.510197E-1,3.9411798E-1,-8.7109923E-1,-2.186341E-1,-9.249948E-3,-4.3934684E-2,-3.741033E-2,4.4865465E-1,1.5032443E-2,-1.0065738E0,-1.0260351E-1,-5.8587456E-1,7.430728E-1,2.6599473E-1,-1.093997E-2,-5.342492E-2,7.988015E-1,-2.481001E-1,1.4371394E-2,-5.063517E-2,2.0993989E-2,5.3688206E-2,-9.915868E-3,1.9605353E-2,4.7615238E-2,1.1856595E-2,8.752714E-3,-2.5957406E-2],"categories":[],"categories_nodes":[],"categories_segments":[],"categories_sizes":[],"default_left":[0,0,0,0,0,0,0,0,0,0,0,0,0,0,0,0,0,0,0,0,0,0,0,0,0,0,0,0,0,0,0],"id":21,"left_children":[1,3,5,7,9,11,13,-1,-1,-1,15,-1,17,19,21,23,25,-1,-1,27,29,-1,-1,-1,-1,-1,-1,-1,-1,-1,-1],"loss_changes":[1.1627849E1,5.1865644E0,3.43263E0,1.5520597E-1,3.2872667E0,2.1914759E0,1.1883656E0,0E0,0E0,0E0,2.2677803E0,0E0,2.977352E-1,3.2772305E0,2.8340936E0,1.3655176E0,1.825604E0,0E0,0E0,7.5922966E-2,2.4968698E0,0E0,0E0,0E0,0E0,0E0,0E0,0E0,0E0,0E0,0E0],"parents":[2147483647,0,0,1,1,2,2,3,3,4,4,5,5,6,6,10,10,12,12,13,13,14,14,15,15,16,16,19,19,20,20],"right_children":[2,4,6,8,10,12,14,-1,-1,-1,16,-1,18,20,22,24,26,-1,-1,28,30,-1,-1,-1,-1,-1,-1,-1,-1,-1,-1],"split_conditions":[3.629165E-1,5.658339E2,1.2846719E0,1.9922188E2,-2.9414177E0,2.678167E2,2.0810027E3,-9.249948E-3,-4.3934684E-2,-3.741033E-2,-1.1010579E1,1.5032443E-2,4.7291723E-1,-1.6349442E2,-4.3057983E2,-5.089111E1,1.7600541E4,-1.093997E-2,-5.342492E-2,-2.359089E1,1.7222468E0,1.4371394E-2,-5.063517E-2,2.0993989E-2,5.3688206E-2,-9.915868E-3,1.9605353E-2,4.7615238E-2,1.1856595E-2,8.752714E-3,-2.5957406E-2],"split_indices":[3,2,3,2,3,2,2,0,0,0,1,0,3,0,0,1,4,0,0,1,3,0,0,0,0,0,0,0,0,0,0],"split_type":[0,0,0,0,0,0,0,0,0,0,0,0,0,0,0,0,0,0,0,0,0,0,0,0,0,0,0,0,0,0,0],"sum_hessian":[8.8973335E1,4.977512E1,3.919822E1,3.3971274E0,4.637799E1,1.0898869E1,2.8299349E1,1.0759742E0,2.3211532E0,1.5337036E0,4.4844288E1,1.0031531E0,9.895715E0,2.2477055E1,5.8222947E0,1.5994951E1,2.8849337E1,1.0515631E0,8.8441515E0,2.4997861E0,1.9977268E1,2.018661E0,3.8036337E0,9.237049E0,6.7579026E0,6.039812E0,2.2809525E1,1.4170264E0,1.0827599E0,7.938308E0,1.203896E1],"tree_param":{"num_deleted":"0","num_feature":"5","num_nodes":"31","size_leaf_vector":"1"}},{"base_weights":[-1.5614291E-2,3.2614186E-1,-3.6221024E-1,-2.581212E-1,4.899117E-1,-1.3916749E-2,-5.008098E-1,2.5967652E-1,-8.638208E-1,-3.484962E-1,6.8551415E-1,-2.4021712E-1,6.4339423E-1,-6.096839E-1,1.6754155E-1,-4.203127E-1,5.6872856E-2,-1.0167356E-2,-4.9571436E-2,2.4095783E-2,-6.260892E-1,9.2416775E-1,2.0680344E-1,-6.0488653E-1,4.5204908E-2,2.0124717E-3,4.8546217E-2,-3.4975296E-1,-9.927929E-1,6.104819E-1,-3.4191903E-2,1.9913798E-2,-5.1719498E-2,1.9844284E-3,-5.9089728E-2,8.6297153E-4,5.194048E-2,-2.8587846E-2,2.0687183E-2,-4.2947493E-2,7.785826E-4,1.7292913E-2,-2.6326103E-2,1.9445607E-2,-2.3586262E-2,-8.528656E-3,-5.343328E-2,5.0374903E-2,-5.14438E-3],"categories":[],"categories_nodes":[],"categories_segments":[],"categories_sizes":[],"default_left":[0,0,0,0,0,0,0,0,0,0,0,0,0,0,0,0,0,0,0,0,0,0,0,0,0,0,0,0,0,0,0,0,0,0,0,0,0,0,0,0,0,0,0,0,0,0,0,0,0],"id":22,"left_children":[1,3,5,7,9,11,13,15,17,19,21,23,25,27,29,31,-1,-1,-1,-1,33,35,37,39,41,-1,-1,43,45,47,-1,-1,-1,-1,-1,-1,-1,-1,-1,-1,-1,-1,-1,-1,-1,-1,-1,-1,-1],"loss_changes":[1.0690838E1,4.4771338E0,2.1551409E0,3.5518086E0,6.119629E0,2.204065E0,2.4314413E0,4.3510866E0,2.2999382E-1,2.0182457E0,3.1691809E0,1.1699506E0,7.1171904E-1,2.4153843E0,2.404279E0,2.616956E0,0E0,0E0,0E0,0E0,2.2725995E0,1.9927864E0,2.0206542E0,7.840985E-1,1.4005378E0,0E0,0E0,1.8116934E0,4.8335838E-1,1.2347975E0,0E0,0E0,0E0,0E0,0E0,0E0,0E0,0E0,0E0,0E0,0E0,0E0,0E0,0E0,0E0,0E0,0E0,0E0,0E0],"parents":[2147483647,0,0,1,1,2,2,3,3,4,4,5,5,6,6,7,7,8,8,9,9,10,10,11,11,12,12,13,13,14,14,15,15,20,20,21,21,22,22,23,23,24,24,27,27,28,28,29,29],"right_children":[2,4,6,8,10,12,14,16,18,20,22,24,26,28,30,32,-1,-1,-1,-1,34,36,38,40,42,-1,-1,44,46,48,-1,-1,-1,-1,-1,-1,-1,-1,-1,-1,-1,-1,-1,-1,-1,-1,-1,-1,-1],"split_conditions":[-1.1395061E-1,1.0191832E3,-6.330766E1,1.8162428E4,-2.5641506E0,1.8686158E4,2.2749043E3,-1.0928409E0,-7.2104607E0,2.1489517E3,1.07186195E2,2.5081737E0,2.3153002E0,1.0654987E3,4.7291723E-1,-1.89914E0,5.6872856E-2,-1.0167356E-2,-4.9571436E-2,2.4095783E-2,-2.4369736E2,1.1368881E3,-1.2998916E0,-9.53692E1,-8.122279E-1,2.0124717E-3,4.8546217E-2,-6.164165E1,-4.179566E1,2.60006E2,-3.4191903E-2,1.9913798E-2,-5.1719498E-2,1.9844284E-3,-5.9089728E-2,8.6297153E-4,5.194048E-2,-2.8587846E-2,2.0687183E-2,-4.2947493E-2,7.785826E-4,1.7292913E-2,-2.6326103E-2,1.9445607E-2,-2.3586262E-2,-8.528656E-3,-5.343328E-2,5.0374903E-2,-5.14438E-3],"split_indices":[3,2,0,4,3,4,2,3,0,2,0,3,3,2,3,3,0,0,0,0,0,2,3,0,1,0,0,1,0,0,0,0,0,0,0,0,0,0,0,0,0,0,0,0,0,0,0,0,0],"split_type":[0,0,0,0,0,0,0,0,0,0,0,0,0,0,0,0,0,0,0,0,0,0,0,0,0,0,0,0,0,0,0,0,0,0,0,0,0,0,0,0,0,0,0,0,0,0,0,0,0],"sum_hessian":[8.8257835E1,4.4468903E1,4.378893E1,9.609623E0,3.485928E1,1.2778251E1,3.101068E1,5.4887247E0,4.1208982E0,6.446422E0,2.8412857E1,9.977666E0,2.8005855E0,2.6742172E1,4.268506E0,3.386485E0,2.1022398E0,1.0872154E0,3.0336828E0,1.4306427E0,5.015779E0,1.8339472E1,1.0073385E1,3.8892696E0,6.088396E0,1.3807782E0,1.4198073E0,1.707208E1,9.670092E0,2.993863E0,1.2746431E0,1.6021633E0,1.7843218E0,2.7043452E0,2.3114338E0,2.1872356E0,1.6152237E1,1.7450744E0,8.328311E0,2.48666E0,1.4026096E0,4.2490287E0,1.8393673E0,2.109344E0,1.4962737E1,1.0913601E0,8.578732E0,1.6585249E0,1.3353382E0],"tree_param":{"num_deleted":"0","num_feature":"5","num_nodes":"49","size_leaf_vector":"1"}},{"base_weights":[-1.600556E-2,2.8157577E-1,-3.8478476E-1,-7.318003E-1,3.6959845E-1,-7.9674596E-1,-1.9870034E-1,-8.698243E-3,-4.298718E-2,-3.6859896E-2,4.2328542E-1,1.5035464E-2,-9.234421E-1,-6.5102094E-1,-1.02161735E-1,5.6946826E-1,7.964975E-2,-5.2425772E-2,-6.707006E-3,-2.7503833E-1,-4.1697815E-2,5.545535E-1,-2.243539E-1,3.6379397E-2,6.746977E-3,-1.2458552E-2,2.2455487E-2,-3.1456556E-2,1.0140806E-2,5.557389E-2,-1.2451232E-3,-4.6604473E-2,-3.5074565E-3],"categories":[],"categories_nodes":[],"categories_segments":[],"categories_sizes":[],"default_left":[0,0,0,0,0,0,0,0,0,0,0,0,0,0,0,0,0,0,0,0,0,0,0,0,0,0,0,0,0,0,0,0,0],"id":23,"left_children":[1,3,5,7,9,11,13,-1,-1,-1,15,-1,17,19,21,23,25,-1,-1,27,-1,29,31,-1,-1,-1,-1,-1,-1,-1,-1,-1,-1],"loss_changes":[9.7976E0,4.6805162E0,2.8966808E0,1.5638638E-1,3.0544915E0,1.9556222E0,1.1903735E0,0E0,0E0,0E0,2.1977358E0,0E0,9.5163345E-1,1.06046915E-1,2.1230998E0,2.0430346E0,1.8721235E0,0E0,0E0,6.501403E-1,0E0,1.3815815E0,2.304153E0,0E0,0E0,0E0,0E0,0E0,0E0,0E0,0E0,0E0,0E0],"parents":[2147483647,0,0,1,1,2,2,3,3,4,4,5,5,6,6,10,10,12,12,13,13,14,14,15,15,16,16,19,19,21,21,22,22],"right_children":[2,4,6,8,10,12,14,-1,-1,-1,16,-1,18,20,22,24,26,-1,-1,28,-1,30,32,-1,-1,-1,-1,-1,-1,-1,-1,-1,-1],"split_conditions":[3.0206773E-1,5.658339E2,1.2846719E0,1.9922188E2,-2.9414177E0,2.678167E2,-9.165285E1,-8.698243E-3,-4.298718E-2,-3.6859896E-2,6.2328163E1,1.5035464E-2,2.2749043E3,-1.315188E2,-6.164165E1,1.1265913E2,1.8368936E4,-5.2425772E-2,-6.707006E-3,-2.2026604E2,-4.1697815E-2,8.644923E2,-3.421019E1,3.6379397E-2,6.746977E-3,-1.2458552E-2,2.2455487E-2,-3.1456556E-2,1.0140806E-2,5.557389E-2,-1.2451232E-3,-4.6604473E-2,-3.5074565E-3],"split_indices":[3,2,3,2,3,2,1,0,0,0,1,0,2,1,1,0,4,0,0,1,0,2,1,0,0,0,0,0,0,0,0,0,0],"split_type":[0,0,0,0,0,0,0,0,0,0,0,0,0,0,0,0,0,0,0,0,0,0,0,0,0,0,0,0,0,0,0,0,0],"sum_hessian":[8.729137E1,4.8439907E1,3.8851456E1,3.2867596E0,4.515315E1,1.1067699E1,2.7783758E1,1.0534399E0,2.2333198E0,1.4999144E0,4.3653233E1,1.0033253E0,1.0064374E1,3.8766282E0,2.390713E1,3.0164186E1,1.3489049E1,8.404226E0,1.6601474E0,2.0882244E0,1.7884036E0,3.1953764E0,2.0711754E1,2.1621836E1,8.542351E0,7.309313E0,6.1797357E0,1.0176015E0,1.0706229E0,1.1611941E0,2.0341823E0,2.8029392E0,1.7908813E1],"tree_param":{"num_deleted":"0","num_feature":"5","num_nodes":"33","size_leaf_vector":"1"}},{"base_weights":[-1.703246E-2,2.6362947E-1,-3.7886027E-1,-7.182842E-1,3.4672618E-1,-8.2971156E-1,-1.9182304E-1,-8.497556E-3,-4.228953E-2,-3.6269553E-2,3.974615E-1,1.4609717E-2,-9.717228E-1,-6.3899267E-1,-9.728825E-2,6.813239E-1,2.252694E-1,-5.190699E-2,-9.94621E-3,-1.3480949E-2,-4.0978506E-2,5.359682E-1,-2.1657038E-1,1.856378E-2,5.0358742E-2,1.5961902E-2,-1.5889963E-2,6.3180916E-2,-4.5221415E-3,-4.583479E-2,-3.3463934E-3],"categories":[],"categories_nodes":[],"categories_segments":[],"categories_sizes":[],"default_left":[0,0,0,0,0,0,0,0,0,0,0,0,0,0,0,0,0,0,0,0,0,0,0,0,0,0,0,0,0,0,0],"id":24,"left_children":[1,3,5,7,9,11,13,-1,-1,-1,15,-1,17,19,21,23,25,-1,-1,-1,-1,27,29,-1,-1,-1,-1,-1,-1,-1,-1],"loss_changes":[9.000477E0,4.324579E0,3.1040297E0,1.5149808E-1,2.8299532E0,2.0437908E0,1.1490194E0,0E0,0E0,0E0,2.058823E0,0E0,3.0860424E-1,1.0055649E-1,1.991713E0,1.3026657E0,1.6153401E0,0E0,0E0,0E0,0E0,2.0394611E0,2.2024162E0,0E0,0E0,0E0,0E0,0E0,0E0,0E0,0E0],"parents":[2147483647,0,0,1,1,2,2,3,3,4,4,5,5,6,6,10,10,12,12,13,13,14,14,15,15,16,16,21,21,22,22],"right_children":[2,4,6,8,10,12,14,-1,-1,-1,16,-1,18,20,22,24,26,-1,-1,-1,-1,28,30,-1,-1,-1,-1,-1,-1,-1,-1],"split_conditions":[3.629165E-1,5.658339E2,1.2846719E0,1.9922188E2,-2.9414177E0,2.678167E2,-9.165285E1,-8.497556E-3,-4.228953E-2,-3.6269553E-2,-1.1010579E1,1.4609717E-2,2.3828552E3,-1.315188E2,-6.164165E1,-5.089111E1,2.60006E2,-5.190699E-2,-9.94621E-3,-1.3480949E-2,-4.0978506E-2,8.3602295E2,-3.421019E1,1.856378E-2,5.0358742E-2,1.5961902E-2,-1.5889963E-2,6.3180916E-2,-4.5221415E-3,-4.583479E-2,-3.3463934E-3],"split_indices":[3,2,3,2,3,2,1,0,0,0,1,0,2,1,1,1,0,0,0,0,0,2,1,0,0,0,0,0,0,0,0],"split_type":[0,0,0,0,0,0,0,0,0,0,0,0,0,0,0,0,0,0,0,0,0,0,0,0,0,0,0,0,0,0,0],"sum_hessian":[8.664634E1,4.8949036E1,3.7697304E1,3.2228E0,4.5726234E1,1.0045838E1,2.7651464E1,1.048156E0,2.174644E0,1.465269E0,4.4260967E1,1.0099074E0,9.035932E0,3.8204734E0,2.3830992E1,1.5595192E1,2.8665773E1,8.004634E0,1.0312973E0,2.0730708E0,1.7474025E0,3.2236557E0,2.0607336E1,9.087657E0,6.507535E0,2.4788681E1,3.8770933E0,1.0207267E0,2.202929E0,2.7262502E0,1.7881084E1],"tree_param":{"num_deleted":"0","num_feature":"5","num_nodes":"31","size_leaf_vector":"1"}},{"base_weights":[-1.7688192E-2,2.8448725E-1,-3.29047E-1,-2.6740855E-1,4.3943986E-1,5.400993E-3,-4.6562806E-1,2.2372057E-1,-8.474967E-1,-3.51034E-1,6.252236E-1,-2.179155E-1,6.426002E-1,-5.719818E-1,1.6568352E-1,-4.3393004E-1,5.4162186E-2,-9.0951715E-3,-4.8915673E-2,2.3154393E-2,-6.210641E-1,8.564623E-1,1.7384043E-1,1.0065576E-1,-5.37372E-1,2.7879542E-3,4.758779E-2,8.2807675E-2,-7.063095E-1,5.90547E-1,-3.3354644E-2,1.8727347E-2,-5.1659346E-2,1.8459154E-2,-4.7177434E-2,-9.237717E-4,4.864929E-2,-2.575115E-2,2.0198641E-2,3.5472166E-2,-1.3579494E-2,4.8201317E-3,-4.648461E-2,2.1404989E-2,-3.400361E-2,-2.416794E-2,-5.1863473E-2,4.867863E-2,-4.93013E-3],"categories":[],"categories_nodes":[],"categories_segments":[],"categories_sizes":[],"default_left":[0,0,0,0,0,0,0,0,0,0,0,0,0,0,0,0,0,0,0,0,0,0,0,0,0,0,0,0,0,0,0,0,0,0,0,0,0,0,0,0,0,0,0,0,0,0,0,0,0],"id":25,"left_children":[1,3,5,7,9,11,13,15,17,19,21,23,25,27,29,31,-1,-1,-1,-1,33,35,37,39,41,-1,-1,43,45,47,-1,-1,-1,-1,-1,-1,-1,-1,-1,-1,-1,-1,-1,-1,-1,-1,-1,-1,-1],"loss_changes":[8.28016E0,3.9396086E0,1.9812784E0,3.158031E0,5.3997746E0,2.0680647E0,2.1606903E0,4.106643E0,2.5616312E-1,1.9041198E0,2.8698254E0,1.1511511E0,6.308119E-1,2.3944073E0,2.2378964E0,2.498706E0,0E0,0E0,0E0,0E0,2.2480576E0,1.9417315E0,1.960085E0,1.606696E0,1.4671562E0,0E0,0E0,1.717764E0,1.1324234E0,1.1469386E0,0E0,0E0,0E0,0E0,0E0,0E0,0E0,0E0,0E0,0E0,0E0,0E0,0E0,0E0,0E0,0E0,0E0,0E0,0E0],"parents":[2147483647,0,0,1,1,2,2,3,3,4,4,5,5,6,6,7,7,8,8,9,9,10,10,11,11,12,12,13,13,14,14,15,15,20,20,21,21,22,22,23,23,24,24,27,27,28,28,29,29],"right_children":[2,4,6,8,10,12,14,16,18,20,22,24,26,28,30,32,-1,-1,-1,-1,34,36,38,40,42,-1,-1,44,46,48,-1,-1,-1,-1,-1,-1,-1,-1,-1,-1,-1,-1,-1,-1,-1,-1,-1,-1,-1],"split_conditions":[-1.1395061E-1,1.0191832E3,-6.330766E1,1.8162428E4,-2.5641506E0,1.8686158E4,2.2749043E3,-1.0928409E0,-2.5729213E0,2.1489517E3,1.07186195E2,-1.839427E2,2.3153002E0,3.9216852E2,4.7291723E-1,-1.89914E0,5.4162186E-2,-9.0951715E-3,-4.8915673E-2,2.3154393E-2,-3.1140872E2,1.1368881E3,1.8368936E4,2.0810027E3,-6.305144E1,2.7879542E-3,4.758779E-2,1.8989615E4,1.3150442E3,2.60006E2,-3.3354644E-2,1.8727347E-2,-5.1659346E-2,1.8459154E-2,-4.7177434E-2,-9.237717E-4,4.864929E-2,-2.575115E-2,2.0198641E-2,3.5472166E-2,-1.3579494E-2,4.8201317E-3,-4.648461E-2,2.1404989E-2,-3.400361E-2,-2.416794E-2,-5.1863473E-2,4.867863E-2,-4.93013E-3],"split_indices":[3,2,0,4,3,4,2,3,3,2,0,0,3,2,3,3,0,0,0,0,0,2,4,2,1,0,0,4,2,0,0,0,0,0,0,0,0,0,0,0,0,0,0,0,0,0,0,0,0],"split_type":[0,0,0,0,0,0,0,0,0,0,0,0,0,0,0,0,0,0,0,0,0,0,0,0,0,0,0,0,0,0,0,0,0,0,0,0,0,0,0,0,0,0,0,0,0,0,0,0,0],"sum_hessian":[8.60123E1,4.369366E1,4.2318638E1,9.419262E0,3.42744E1,1.2549342E1,2.9769295E1,5.4334164E0,3.9858453E0,6.3532166E0,2.792118E1,9.77985E0,2.7694924E0,2.5557701E1,4.2115936E0,3.358706E0,2.0747106E0,1.0473696E0,2.9384758E0,1.4043256E0,4.9488907E0,1.7869442E1,1.0051739E1,5.2396426E0,4.540208E0,1.3628606E0,1.4066317E0,4.415855E0,2.1141846E1,2.9814138E0,1.2301797E0,1.5893896E0,1.7693163E0,1.1801667E0,3.7687242E0,2.1990345E0,1.5670408E1,2.2071264E0,7.8446126E0,1.644426E0,3.5952165E0,2.0243087E0,2.5158992E0,3.342033E0,1.0738223E0,1.4102315E1,7.0395303E0,1.6510524E0,1.3303616E0],"tree_param":{"num_deleted":"0","num_feature":"5","num_nodes":"49","size_leaf_vector":"1"}},{"base_weights":[-1.7651835E-2,2.4148953E-1,-3.555583E-1,-7.017807E-1,3.2046786E-1,-8.0753165E-1,-1.7346616E-1,-7.9791015E-3,-4.1501015E-2,-3.5719227E-2,3.69505E-1,1.38991345E-2,-9.5266104E-1,-6.251421E-1,-7.851802E-2,6.4683163E-1,2.0352064E-1,-5.104754E-2,-9.541363E-3,-1.2387675E-2,-3.9855246E-2,5.321E-1,-1.9615968E-1,1.7359747E-2,4.834153E-2,-1.1587294E-2,1.6167257E-2,6.1245244E-2,-4.0461877E-3,-4.461889E-2,-2.5537908E-3],"categories":[],"categories_nodes":[],"categories_segments":[],"categories_sizes":[],"default_left":[0,0,0,0,0,0,0,0,0,0,0,0,0,0,0,0,0,0,0,0,0,0,0,0,0,0,0,0,0,0,0],"id":26,"left_children":[1,3,5,7,9,11,13,-1,-1,-1,15,-1,17,19,21,23,25,-1,-1,-1,-1,27,29,-1,-1,-1,-1,-1,-1,-1,-1],"loss_changes":[7.621075E0,3.897484E0,2.9671388E0,1.5416694E-1,2.6072054E0,1.9298329E0,1.1596768E0,0E0,0E0,0E0,1.9280834E0,0E0,3.0193138E-1,1.1091566E-1,1.8595307E0,1.2266998E0,1.6109732E0,0E0,0E0,0E0,0E0,1.8898038E0,2.0975652E0,0E0,0E0,0E0,0E0,0E0,0E0,0E0,0E0],"parents":[2147483647,0,0,1,1,2,2,3,3,4,4,5,5,6,6,10,10,12,12,13,13,14,14,15,15,16,16,21,21,22,22],"right_children":[2,4,6,8,10,12,14,-1,-1,-1,16,-1,18,20,22,24,26,-1,-1,-1,-1,28,30,-1,-1,-1,-1,-1,-1,-1,-1],"split_conditions":[3.629165E-1,5.658339E2,1.2846719E0,1.9922188E2,-2.9414177E0,2.678167E2,-9.165285E1,-7.9791015E-3,-4.1501015E-2,-3.5719227E-2,-1.1010579E1,1.38991345E-2,2.3828552E3,1.9502426E3,-6.164165E1,-5.089111E1,1.7600541E4,-5.104754E-2,-9.541363E-3,-1.2387675E-2,-3.9855246E-2,8.3602295E2,-3.421019E1,1.7359747E-2,4.834153E-2,-1.1587294E-2,1.6167257E-2,6.1245244E-2,-4.0461877E-3,-4.461889E-2,-2.5537908E-3],"split_indices":[3,2,3,2,3,2,1,0,0,0,1,0,2,2,1,1,4,0,0,0,0,2,1,0,0,0,0,0,0,0,0],"split_type":[0,0,0,0,0,0,0,0,0,0,0,0,0,0,0,0,0,0,0,0,0,0,0,0,0,0,0,0,0,0,0],"sum_hessian":[8.505225E1,4.8297844E1,3.675441E1,3.1222157E0,4.517563E1,9.568806E0,2.7185604E1,1.026513E0,2.0957026E0,1.4299762E0,4.3745655E1,1.0204916E0,8.548314E0,3.7521741E0,2.343343E1,1.5294559E1,2.8451094E1,7.5329475E0,1.015366E0,1.9385601E0,1.8136141E0,3.2162826E0,2.0217148E1,8.975334E0,6.319225E0,5.9399567E0,2.2511137E1,1.0413132E0,2.1749694E0,2.5982203E0,1.7618927E1],"tree_param":{"num_deleted":"0","num_feature":"5","num_nodes":"31","size_leaf_vector":"1"}},{"base_weights":[-1.8219035E-2,2.6157182E-1,-3.0915445E-1,-2.6457575E-1,4.0909895E-1,1.7148603E-2,-4.4458175E-1,2.0989312E-1,-8.3098483E-1,-3.363963E-1,5.849961E-1,-2.013081E-1,6.3233685E-1,-5.4813224E-1,1.5800442E-1,-4.28155E-1,5.2257128E-2,-8.337137E-3,-4.818744E-2,2.2618871E-2,-5.9940046E-1,8.153161E-1,1.4528443E-1,1.10359535E-1,-5.187405E-1,-3.3592098E-4,4.3804873E-2,-2.938288E-1,-9.475464E-1,5.6661093E-1,-3.2691233E-2,1.808202E-2,-5.0781168E-2,1.8268658E-2,-4.5816783E-2,-1.2382579E-3,4.650597E-2,-2.9468277E-2,1.7322918E-2,3.461982E-2,-1.262962E-2,4.716097E-3,-4.5378454E-2,-6.3663046E-3,-4.503673E-2,-6.196518E-3,-5.1685136E-2,4.7147978E-2,-5.1610963E-3],"categories":[],"categories_nodes":[],"categories_segments":[],"categories_sizes":[],"default_left":[0,0,0,0,0,0,0,0,0,0,0,0,0,0,0,0,0,0,0,0,0,0,0,0,0,0,0,0,0,0,0,0,0,0,0,0,0,0,0,0,0,0,0,0,0,0,0,0,0],"id":27,"left_children":[1,3,5,7,9,11,13,15,17,19,21,23,25,27,29,31,-1,-1,-1,-1,33,35,37,39,41,-1,-1,43,45,47,-1,-1,-1,-1,-1,-1,-1,-1,-1,-1,-1,-1,-1,-1,-1,-1,-1,-1,-1],"loss_changes":[7.0360107E0,3.531121E0,1.8788886E0,2.9328249E0,4.7644963E0,1.9258595E0,1.9562149E0,3.8495462E0,2.6969004E-1,1.7823727E0,2.7727852E0,1.109354E0,5.898125E-1,2.3413916E0,2.0854712E0,2.3756144E0,0E0,0E0,0E0,0E0,2.136779E0,1.8090172E0,1.8343788E0,1.482655E0,1.3833102E0,0E0,0E0,1.6242481E0,5.5197716E-1,1.0993533E0,0E0,0E0,0E0,0E0,0E0,0E0,0E0,0E0,0E0,0E0,0E0,0E0,0E0,0E0,0E0,0E0,0E0,0E0,0E0],"parents":[2147483647,0,0,1,1,2,2,3,3,4,4,5,5,6,6,7,7,8,8,9,9,10,10,11,11,12,12,13,13,14,14,15,15,20,20,21,21,22,22,23,23,24,24,27,27,28,28,29,29],"right_children":[2,4,6,8,10,12,14,16,18,20,22,24,26,28,30,32,-1,-1,-1,-1,34,36,38,40,42,-1,-1,44,46,48,-1,-1,-1,-1,-1,-1,-1,-1,-1,-1,-1,-1,-1,-1,-1,-1,-1,-1,-1],"split_conditions":[-1.1395061E-1,1.0191832E3,-6.330766E1,1.8162428E4,-2.5641506E0,1.8686158E4,2.2749043E3,-1.0928409E0,-7.2104607E0,2.1489517E3,1.07186195E2,-1.839427E2,-2.2351574E1,1.0654987E3,4.7291723E-1,-1.89914E0,5.2257128E-2,-8.337137E-3,-4.818744E-2,2.2618871E-2,-3.1140872E2,1.1368881E3,-1.2998916E0,2.0810027E3,-6.305144E1,-3.3592098E-4,4.3804873E-2,2.4910915E0,1.8448646E4,2.60006E2,-3.2691233E-2,1.808202E-2,-5.0781168E-2,1.8268658E-2,-4.5816783E-2,-1.2382579E-3,4.650597E-2,-2.9468277E-2,1.7322918E-2,3.461982E-2,-1.262962E-2,4.716097E-3,-4.5378454E-2,-6.3663046E-3,-4.503673E-2,-6.196518E-3,-5.1685136E-2,4.7147978E-2,-5.1610963E-3],"split_indices":[3,2,0,4,3,4,2,3,0,2,0,0,1,2,3,3,0,0,0,0,0,2,3,2,1,0,0,3,4,0,0,0,0,0,0,0,0,0,0,0,0,0,0,0,0,0,0,0,0],"split_type":[0,0,0,0,0,0,0,0,0,0,0,0,0,0,0,0,0,0,0,0,0,0,0,0,0,0,0,0,0,0,0,0,0,0,0,0,0,0,0,0,0,0,0,0,0,0,0,0,0],"sum_hessian":[8.444292E1,4.3097366E1,4.1345554E1,9.264089E0,3.383328E1,1.2382976E1,2.8962578E1,5.383705E0,3.8803837E0,6.2847047E0,2.7548573E1,9.634487E0,2.748489E0,2.4792513E1,4.170064E0,3.328473E0,2.0552323E0,1.0221776E0,2.8582063E0,1.391482E0,4.8932223E0,1.7518316E1,1.0030258E1,5.1905437E0,4.4439435E0,1.0274118E0,1.7210771E0,1.6208412E1,8.584102E0,2.9748373E0,1.1952267E0,1.5837202E0,1.7447528E0,1.1721823E0,3.7210402E0,2.2004747E0,1.5317841E1,1.7413903E0,8.288868E0,1.6449648E0,3.5455787E0,2.0186217E0,2.4253218E0,1.3668341E1,2.540071E0,1.0438448E0,7.540257E0,1.6436126E0,1.3312247E0],"tree_param":{"num_deleted":"0","num_feature":"5","num_nodes":"49","size_leaf_vector":"1"}},{"base_weights":[-1.8581776E-2,2.5055978E-1,-2.9921806E-1,-2.5800115E-1,3.9270172E-1,1.8108573E-2,-4.321286E-1,2.0342197E-1,-8.148636E-1,-3.2172266E-1,5.6193894E-1,3.0435365E-1,-4.293956E-1,-5.3349084E-1,1.5269308E-1,-4.1659376E-1,5.066629E-2,-8.065521E-3,-4.737364E-2,2.1934217E-2,-5.775155E-1,7.874986E-1,1.3699716E-1,-1.5941021E-1,6.518578E-1,1.5868548E-2,-4.6147518E-2,-3.1785977E-1,-5.0499845E-2,5.493124E-1,-3.219256E-2,1.7510267E-2,-4.9626768E-2,3.1477907E-3,-5.5857092E-2,-1.1957873E-3,4.500123E-2,-2.5873456E-2,1.7952653E-2,-3.6718197E-2,1.7953282E-2,5.0823476E-2,7.303407E-3,-8.941602E-3,-4.4293303E-2,4.5714363E-2,-5.017089E-3],"categories":[],"categories_nodes":[],"categories_segments":[],"categories_sizes":[],"default_left":[0,0,0,0,0,0,0,0,0,0,0,0,0,0,0,0,0,0,0,0,0,0,0,0,0,0,0,0,0,0,0,0,0,0,0,0,0,0,0,0,0,0,0,0,0,0,0],"id":28,"left_children":[1,3,5,7,9,11,13,15,17,19,21,23,25,27,29,31,-1,-1,-1,-1,33,35,37,39,41,-1,-1,43,-1,45,-1,-1,-1,-1,-1,-1,-1,-1,-1,-1,-1,-1,-1,-1,-1,-1,-1],"loss_changes":[6.4619E0,3.2609098E0,1.7729774E0,2.7741423E0,4.3589954E0,1.8362255E0,1.8324051E0,3.611634E0,2.6314116E-1,1.6643445E0,2.6049395E0,1.5069015E0,2.3602154E0,2.288466E0,1.9777536E0,2.2493482E0,0E0,0E0,0E0,0E0,2.0956109E0,1.6904306E0,1.787977E0,1.6148243E0,8.055258E-1,0E0,0E0,1.3375438E0,0E0,1.0334146E0,0E0,0E0,0E0,0E0,0E0,0E0,0E0,0E0,0E0,0E0,0E0,0E0,0E0,0E0,0E0,0E0,0E0],"parents":[2147483647,0,0,1,1,2,2,3,3,4,4,5,5,6,6,7,7,8,8,9,9,10,10,11,11,12,12,13,13,14,14,15,15,20,20,21,21,22,22,23,23,24,24,27,27,29,29],"right_children":[2,4,6,8,10,12,14,16,18,20,22,24,26,28,30,32,-1,-1,-1,-1,34,36,38,40,42,-1,-1,44,-1,46,-1,-1,-1,-1,-1,-1,-1,-1,-1,-1,-1,-1,-1,-1,-1,-1,-1],"split_conditions":[-1.1395061E-1,1.0191832E3,-6.330766E1,1.8162428E4,-2.5641506E0,2.0810027E3,2.2749043E3,-1.0928409E0,-2.5729213E0,2.1489517E3,1.07186195E2,2.338011E0,-4.3057983E2,1.3150442E3,4.7291723E-1,-1.89914E0,5.066629E-2,-8.065521E-3,-4.737364E-2,2.1934217E-2,-2.4369736E2,1.1368881E3,1.8368936E4,-8.838341E1,2.6804357E0,1.5868548E-2,-4.6147518E-2,2.4910915E0,-5.0499845E-2,2.60006E2,-3.219256E-2,1.7510267E-2,-4.9626768E-2,3.1477907E-3,-5.5857092E-2,-1.1957873E-3,4.500123E-2,-2.5873456E-2,1.7952653E-2,-3.6718197E-2,1.7953282E-2,5.0823476E-2,7.303407E-3,-8.941602E-3,-4.4293303E-2,4.5714363E-2,-5.017089E-3],"split_indices":[3,2,0,4,3,2,2,3,3,2,0,3,0,2,3,3,0,0,0,0,0,2,4,0,3,0,0,3,0,0,0,0,0,0,0,0,0,0,0,0,0,0,0,0,0,0,0],"split_type":[0,0,0,0,0,0,0,0,0,0,0,0,0,0,0,0,0,0,0,0,0,0,0,0,0,0,0,0,0,0,0,0,0,0,0,0,0,0,0,0,0,0,0,0,0,0,0],"sum_hessian":[8.3560486E1,4.270849E1,4.0851994E1,9.151349E0,3.355714E1,1.2314538E1,2.8537457E1,5.3516254E0,3.7997234E0,6.254239E0,2.73029E1,7.705572E0,4.6089664E0,2.4396746E1,4.1407104E0,3.3062086E0,2.045417E0,1.0148004E0,2.784923E0,1.3943105E0,4.8599286E0,1.7278341E1,1.002456E1,3.5325096E0,4.1730623E0,1.9760696E0,2.632897E0,1.7943792E1,6.452955E0,2.9715044E0,1.1692059E0,1.5862476E0,1.7199609E0,2.626237E0,2.2336917E0,2.2002208E0,1.507812E1,2.2025676E0,7.821992E0,1.4775829E0,2.0549264E0,1.8382461E0,2.3348165E0,1.5471709E1,2.4720824E0,1.6417993E0,1.3297051E0],"tree_param":{"num_deleted":"0","num_feature":"5","num_nodes":"47","size_leaf_vector":"1"}},{"base_weights":[-1.9343589E-2,2.1156943E-1,-3.239108E-1,-6.827631E-1,2.8583696E-1,-7.794861E-1,-1.4646733E-1,-3.990415E-2,-8.836034E-3,-3.5273034E-2,3.3358636E-1,1.3938883E-2,-9.3081284E-1,-6.0335106E-1,-5.1549356E-2,6.004814E-1,1.6545887E-1,-4.9860325E-2,-1.0115968E-2,-1.20363E-2,-3.9314557E-2,5.3325415E-1,-1.6739644E-1,5.61134E-2,7.2939508E-3,-3.6253016E-2,1.5373412E-2,-4.9859653E-3,6.361829E-2,-4.3098923E-2,-1.3766036E-3],"categories":[],"categories_nodes":[],"categories_segments":[],"categories_sizes":[],"default_left":[0,0,0,0,0,0,0,0,0,0,0,0,0,0,0,0,0,0,0,0,0,0,0,0,0,0,0,0,0,0,0],"id":29,"left_children":[1,3,5,7,9,11,13,-1,-1,-1,15,-1,17,19,21,23,25,-1,-1,-1,-1,27,29,-1,-1,-1,-1,-1,-1,-1,-1],"loss_changes":[5.9535885E0,3.3965716E0,2.8348246E0,9.185326E-2,2.3752413E0,1.8600311E0,1.160846E0,0E0,0E0,0E0,1.8665128E0,0E0,2.3232031E-1,1.1816466E-1,1.7051169E0,3.762372E0,3.7965953E0,0E0,0E0,0E0,0E0,2.0836077E0,1.9841568E0,0E0,0E0,0E0,0E0,0E0,0E0,0E0,0E0],"parents":[2147483647,0,0,1,1,2,2,3,3,4,4,5,5,6,6,10,10,12,12,13,13,14,14,15,15,16,16,21,21,22,22],"right_children":[2,4,6,8,10,12,14,-1,-1,-1,16,-1,18,20,22,24,26,-1,-1,-1,-1,28,30,-1,-1,-1,-1,-1,-1,-1,-1],"split_conditions":[3.629165E-1,5.658339E2,1.2846719E0,-4.8209104E-1,-2.9414177E0,2.678167E2,-9.165285E1,-3.990415E-2,-8.836034E-3,-3.5273034E-2,-1.661845E0,1.3938883E-2,1.5931339E2,-1.315188E2,-6.164165E1,2.0257609E3,-1.5228637E0,-4.9860325E-2,-1.0115968E-2,-1.20363E-2,-3.9314557E-2,-6.55893E1,-3.421019E1,5.61134E-2,7.2939508E-3,-3.6253016E-2,1.5373412E-2,-4.9859653E-3,6.361829E-2,-4.3098923E-2,-1.3766036E-3],"split_indices":[3,2,3,3,3,2,1,0,0,0,3,0,0,1,1,2,3,0,0,0,0,1,1,0,0,0,0,0,0,0,0],"split_type":[0,0,0,0,0,0,0,0,0,0,0,0,0,0,0,0,0,0,0,0,0,0,0,0,0,0,0,0,0,0,0],"sum_hessian":[8.267953E1,4.7199635E1,3.5479897E1,2.9908159E0,4.420882E1,8.994414E0,2.6485481E1,1.9657437E0,1.0250722E0,1.3986223E0,4.2810196E1,1.0198857E0,7.974529E0,3.6344848E0,2.2850996E1,1.555142E1,2.7258778E1,6.970397E0,1.0041316E0,1.9952868E0,1.639198E0,3.182491E0,1.9668505E1,6.556861E0,8.994559E0,3.1843674E0,2.407441E1,2.1803372E0,1.0021539E0,2.4313233E0,1.723718E1],"tree_param":{"num_deleted":"0","num_feature":"5","num_nodes":"31","size_leaf_vector":"1"}},{"base_weights":[-2.0105362E-2,2.2930473E-1,-2.8188282E-1,-2.551748E-1,3.6401948E-1,2.5459774E-2,-4.124716E-1,1.875765E-1,-7.961066E-1,-3.1617194E-1,5.259761E-1,-1.8633601E-1,6.120808E-1,-5.1082796E-1,1.4632227E-1,-4.1867155E-1,4.906557E-2,-8.596896E-3,-4.6132546E-2,2.0942628E-2,-5.624847E-1,7.469006E-1,1.18113145E-1,-3.4211317E-1,1.8797351E-2,2.7929214E-3,4.535788E-2,-2.9774934E-1,-4.977635E-2,5.2551335E-1,-3.1422254E-2,1.5987499E-2,-4.8492495E-2,3.1822657E-3,-5.465157E-2,-2.263123E-3,4.3033373E-2,-3.381599E-2,1.4295327E-2,-7.9661276E-4,-4.497633E-2,-8.001517E-3,-4.343816E-2,4.416167E-2,-5.2188556E-3],"categories":[],"categories_nodes":[],"categories_segments":[],"categories_sizes":[],"default_left":[0,0,0,0,0,0,0,0,0,0,0,0,0,0,0,0,0,0,0,0,0,0,0,0,0,0,0,0,0,0,0,0,0,0,0,0,0,0,0,0,0,0,0,0,0],"id":30,"left_children":[1,3,5,7,9,11,13,15,17,19,21,23,25,27,29,31,-1,-1,-1,-1,33,35,37,39,-1,-1,-1,41,-1,43,-1,-1,-1,-1,-1,-1,-1,-1,-1,-1,-1,-1,-1,-1,-1],"loss_changes":[5.492433E0,2.9074392E0,1.6564493E0,2.5371606E0,3.9287324E0,1.7504393E0,1.6597657E0,3.4385273E0,2.1086931E-1,1.5378268E0,2.4312592E0,1.0433782E0,5.6106424E-1,2.2592554E0,1.8267096E0,2.0472844E0,0E0,0E0,0E0,0E0,2.0010104E0,1.656559E0,1.661262E0,1.5677527E0,0E0,0E0,0E0,1.3248935E0,0E0,9.8549056E-1,0E0,0E0,0E0,0E0,0E0,0E0,0E0,0E0,0E0,0E0,0E0,0E0,0E0,0E0,0E0],"parents":[2147483647,0,0,1,1,2,2,3,3,4,4,5,5,6,6,7,7,8,8,9,9,10,10,11,11,12,12,13,13,14,14,15,15,20,20,21,21,22,22,23,23,27,27,29,29],"right_children":[2,4,6,8,10,12,14,16,18,20,22,24,26,28,30,32,-1,-1,-1,-1,34,36,38,40,-1,-1,-1,42,-1,44,-1,-1,-1,-1,-1,-1,-1,-1,-1,-1,-1,-1,-1,-1,-1],"split_conditions":[-1.1395061E-1,1.0191832E3,-6.330766E1,1.8162428E4,-2.5641506E0,1.8686158E4,2.2749043E3,-1.0928409E0,6.931569E0,2.1489517E3,1.07186195E2,3.0205803E0,2.3153002E0,1.3150442E3,4.7291723E-1,-1.89914E0,4.906557E-2,-8.596896E-3,-4.6132546E-2,2.0942628E-2,-2.4369736E2,1.1368881E3,1.8172648E4,-2.359089E1,1.8797351E-2,2.7929214E-3,4.535788E-2,2.4910915E0,-4.977635E-2,2.60006E2,-3.1422254E-2,1.5987499E-2,-4.8492495E-2,3.1822657E-3,-5.465157E-2,-2.263123E-3,4.3033373E-2,-3.381599E-2,1.4295327E-2,-7.9661276E-4,-4.497633E-2,-8.001517E-3,-4.343816E-2,4.416167E-2,-5.2188556E-3],"split_indices":[3,2,0,4,3,4,2,3,1,2,0,3,3,2,3,3,0,0,0,0,0,2,4,1,0,0,0,3,0,0,0,0,0,0,0,0,0,0,0,0,0,0,0,0,0],"split_type":[0,0,0,0,0,0,0,0,0,0,0,0,0,0,0,0,0,0,0,0,0,0,0,0,0,0,0,0,0,0,0,0,0,0,0,0,0,0,0,0,0,0,0,0,0],"sum_hessian":[8.213373E1,4.2123936E1,4.0009792E1,8.970135E0,3.31538E1,1.2170764E1,2.783903E1,5.291934E0,3.6782005E0,6.1928096E0,2.696099E1,9.443578E0,2.7271864E0,2.3745323E1,4.0937057E0,3.2682228E0,2.0237112E0,1.0176166E0,2.6605837E0,1.3785555E0,4.814254E0,1.6949055E1,1.0011937E1,7.7014904E0,1.7420876E0,1.3575304E0,1.369656E0,1.7615616E1,6.129707E0,2.9645119E0,1.1291939E0,1.5763046E0,1.6919183E0,2.611869E0,2.2023847E0,2.204083E0,1.4744971E1,1.2173958E0,8.794541E0,5.507346E0,2.1941442E0,1.5224079E1,2.3915372E0,1.6342219E0,1.3302898E0],"tree_param":{"num_deleted":"0","num_feature":"5","num_nodes":"45","size_leaf_vector":"1"}},{"base_weights":[-2.0828353E-2,1.9602081E-1,-2.9933035E-1,-6.679939E-1,2.6819542E-1,-7.124625E-1,-1.3138144E-1,-3.911008E-2,-8.597516E-3,-3.4744266E-2,3.1537524E-1,1.37714045E-2,-8.510243E-1,-5.8897376E-1,-3.690961E-2,4.5322526E-1,2.8100556E-3,-4.8582475E-3,-4.981658E-2,-1.0893848E-2,-3.826209E-2,5.300952E-1,-1.5142192E-1,5.9679568E-2,1.7631454E-2,-1.4841007E-2,1.7152553E-2,-4.414018E-3,6.170416E-2,-4.2225722E-2,-7.3498493E-4],"categories":[],"categories_nodes":[],"categories_segments":[],"categories_sizes":[],"default_left":[0,0,0,0,0,0,0,0,0,0,0,0,0,0,0,0,0,0,0,0,0,0,0,0,0,0,0,0,0,0,0],"id":31,"left_children":[1,3,5,7,9,11,13,-1,-1,-1,15,-1,17,19,21,23,25,-1,-1,-1,-1,27,29,-1,-1,-1,-1,-1,-1,-1,-1],"loss_changes":[5.028189E0,3.1018538E0,2.4332695E0,8.6428046E-2,2.2169914E0,1.644268E0,1.1505758E0,0E0,0E0,0E0,1.8343668E0,0E0,9.194422E-1,1.324526E-1,1.6089948E0,1.78053E0,1.5336554E0,0E0,0E0,0E0,0E0,1.9278697E0,1.9175202E0,0E0,0E0,0E0,0E0,0E0,0E0,0E0,0E0],"parents":[2147483647,0,0,1,1,2,2,3,3,4,4,5,5,6,6,10,10,12,12,13,13,14,14,15,15,16,16,21,21,22,22],"right_children":[2,4,6,8,10,12,14,-1,-1,-1,16,-1,18,20,22,24,26,-1,-1,-1,-1,28,30,-1,-1,-1,-1,-1,-1,-1,-1],"split_conditions":[3.0206773E-1,5.658339E2,1.2846719E0,-4.8209104E-1,-2.9414177E0,2.678167E2,-9.165285E1,-3.911008E-2,-8.597516E-3,-3.4744266E-2,6.2328163E1,1.37714045E-2,-7.7979675E1,1.9502426E3,-6.164165E1,-2.68722E0,1.8368936E4,-4.8582475E-3,-4.981658E-2,-1.0893848E-2,-3.826209E-2,-6.55893E1,-3.421019E1,5.9679568E-2,1.7631454E-2,-1.4841007E-2,1.7152553E-2,-4.414018E-3,6.170416E-2,-4.2225722E-2,-7.3498493E-4],"split_indices":[3,2,3,3,3,2,1,0,0,0,1,0,1,2,1,3,4,0,0,0,0,1,1,0,0,0,0,0,0,0,0],"split_type":[0,0,0,0,0,0,0,0,0,0,0,0,0,0,0,0,0,0,0,0,0,0,0,0,0,0,0,0,0,0,0],"sum_hessian":[8.128637E1,4.5868263E1,3.5418106E1,2.8997386E0,4.2968525E1,9.299767E0,2.611834E1,1.888138E0,1.0116005E0,1.3655313E0,4.1602993E1,1.0224369E0,8.27733E0,3.5737605E0,2.2544579E1,2.8558065E1,1.3044926E1,1.6072977E0,6.6700325E0,1.8709363E0,1.7028242E0,3.1782749E0,1.9366304E1,2.1164289E0,2.6441637E1,7.004284E0,6.040642E0,2.1576328E0,1.020642E0,2.3378856E0,1.7028418E1],"tree_param":{"num_deleted":"0","num_feature":"5","num_nodes":"31","size_leaf_vector":"1"}},{"base_weights":[-2.099052E-2,2.1018058E-1,-2.6499608E-1,-2.5374252E-1,3.387545E-1,3.3788834E-2,-3.938019E-1,1.739655E-1,-7.814012E-1,-3.1454676E-1,4.9459141E-1,3.047544E-1,-3.991017E-1,1.9418025E-1,-4.8207405E-1,-4.169186E-1,4.751156E-2,-8.397315E-3,-4.5331325E-2,2.4890914E-3,-4.7059182E-2,6.735162E-1,1.5435243E-2,-1.3524804E-1,6.263028E-1,1.6039876E-2,-4.479294E-2,3.49998E-2,-1.9364463E-2,1.0794672E-1,-6.417061E-1,1.5218178E-2,-4.7721073E-2,2.1049155E-2,-3.086828E-2,2.2850355E-2,5.782351E-2,-3.2076642E-2,1.3868356E-2,-3.5256773E-2,1.7780924E-2,4.8790097E-2,6.9988496E-3,2.3814175E-2,-2.3496335E-2,-3.4385268E-2,4.5593935E-3],"categories":[],"categories_nodes":[],"categories_segments":[],"categories_sizes":[],"default_left":[0,0,0,0,0,0,0,0,0,0,0,0,0,0,0,0,0,0,0,0,0,0,0,0,0,0,0,0,0,0,0,0,0,0,0,0,0,0,0,0,0,0,0,0,0,0,0],"id":32,"left_children":[1,3,5,7,9,11,13,15,17,19,21,23,25,27,29,31,-1,-1,-1,33,-1,35,37,39,41,-1,-1,-1,-1,43,45,-1,-1,-1,-1,-1,-1,-1,-1,-1,-1,-1,-1,-1,-1,-1,-1],"loss_changes":[4.6677103E0,2.623606E0,1.5611696E0,2.3484998E0,3.5905502E0,1.650801E0,1.5563793E0,3.2549815E0,1.988926E-1,1.4147371E0,2.3584251E0,1.2993135E0,2.2370052E0,1.562749E0,2.4042826E0,1.9319515E0,0E0,0E0,0E0,1.7432529E0,0E0,1.5726376E0,1.6467891E0,1.4948093E0,7.366669E-1,0E0,0E0,0E0,0E0,1.5296929E0,7.253752E-1,0E0,0E0,0E0,0E0,0E0,0E0,0E0,0E0,0E0,0E0,0E0,0E0,0E0,0E0,0E0,0E0],"parents":[2147483647,0,0,1,1,2,2,3,3,4,4,5,5,6,6,7,7,8,8,9,9,10,10,11,11,12,12,13,13,14,14,15,15,19,19,21,21,22,22,23,23,24,24,29,29,30,30],"right_children":[2,4,6,8,10,12,14,16,18,20,22,24,26,28,30,32,-1,-1,-1,34,-1,36,38,40,42,-1,-1,-1,-1,44,46,-1,-1,-1,-1,-1,-1,-1,-1,-1,-1,-1,-1,-1,-1,-1,-1],"split_conditions":[-1.1395061E-1,1.0191832E3,-6.330766E1,1.8162428E4,-2.5641506E0,2.0810027E3,-7.7979675E1,-1.0928409E0,6.931569E0,-2.6668377E0,1.4268831E2,2.338011E0,-4.3057983E2,4.7291723E-1,4.7311285E2,-1.89914E0,4.751156E-2,-8.397315E-3,-4.5331325E-2,8.0243324E1,-4.7059182E-2,1.8183646E4,-9.582862E-1,-8.838341E1,2.6804357E0,1.6039876E-2,-4.479294E-2,3.49998E-2,-1.9364463E-2,1.2036943E1,2.8312395E3,1.5218178E-2,-4.7721073E-2,2.1049155E-2,-3.086828E-2,2.2850355E-2,5.782351E-2,-3.2076642E-2,1.3868356E-2,-3.5256773E-2,1.7780924E-2,4.8790097E-2,6.9988496E-3,2.3814175E-2,-2.3496335E-2,-3.4385268E-2,4.5593935E-3],"split_indices":[3,2,0,4,3,2,1,3,1,3,0,3,0,3,2,3,0,0,0,1,0,4,3,0,3,0,0,0,0,0,2,0,0,0,0,0,0,0,0,0,0,0,0,0,0,0,0],"split_type":[0,0,0,0,0,0,0,0,0,0,0,0,0,0,0,0,0,0,0,0,0,0,0,0,0,0,0,0,0,0,0,0,0,0,0,0,0,0,0,0,0,0,0,0,0,0,0],"sum_hessian":[8.076311E1,4.1543438E1,3.921967E1,8.803816E0,3.273962E1,1.2036602E1,2.7183067E1,5.2326536E0,3.571162E0,6.1093783E0,2.6630243E1,7.5848846E0,4.4517174E0,3.3916223E0,2.3791445E1,3.233937E0,1.9987165E0,1.0022894E0,2.5688727E0,4.718277E0,1.3911011E0,1.9094437E1,7.5358067E0,3.4471867E0,4.1376977E0,1.9622481E0,2.4894693E0,1.7047951E0,1.6868272E0,5.1351285E0,1.8656317E1,1.5661051E0,1.6678319E0,3.0081587E0,1.7101183E0,1.4527849E1,4.5665874E0,1.7349734E0,5.800833E0,1.3931973E0,2.0539894E0,1.8219043E0,2.3157935E0,3.243512E0,1.8916165E0,1.7612545E1,1.0437719E0],"tree_param":{"num_deleted":"0","num_feature":"5","num_nodes":"47","size_leaf_vector":"1"}},{"base_weights":[-2.0715425E-2,2.0041934E-1,-2.5518623E-1,-2.4810413E-1,3.2403302E-1,1.7502207E-1,-3.3768335E-1,1.6872673E-1,-7.6690245E-1,-3.080734E-1,4.7531733E-1,7.1713585E-1,-2.6027608E-1,1.4118009E-2,-4.4248983E-1,-4.0635392E-1,4.616455E-2,-8.815284E-3,-4.4761192E-2,1.9497637E-2,-5.404492E-1,6.929844E-1,8.573348E-2,4.3522608E-2,8.848875E-3,-4.0129635E-2,1.7894883E-2,-2.9459184E-1,5.585272E-2,1.11505345E-1,-5.5798155E-1,1.4747891E-2,-4.6706345E-2,1.751984E-2,-4.2065617E-2,-3.698157E-3,4.045021E-2,-2.9228589E-2,1.3758338E-2,2.3863612E-2,-3.3094373E-2,-1.8328248E-2,3.1668033E-2,-6.758117E-3,-3.809227E-2],"categories":[],"categories_nodes":[],"categories_segments":[],"categories_sizes":[],"default_left":[0,0,0,0,0,0,0,0,0,0,0,0,0,0,0,0,0,0,0,0,0,0,0,0,0,0,0,0,0,0,0,0,0,0,0,0,0,0,0,0,0,0,0,0,0],"id":33,"left_children":[1,3,5,7,9,11,13,15,17,19,21,23,25,27,29,31,-1,-1,-1,-1,33,35,37,-1,-1,-1,-1,39,-1,41,43,-1,-1,-1,-1,-1,-1,-1,-1,-1,-1,-1,-1,-1,-1],"loss_changes":[4.2487226E0,2.4214087E0,1.469279E0,2.2246456E0,3.3532493E0,1.850782E0,1.2481191E0,3.0621576E0,1.8296647E-1,1.3595983E0,2.268476E0,1.2809539E-1,1.8444701E0,3.2913437E0,1.7245555E0,1.8331857E0,0E0,0E0,0E0,0E0,1.831334E0,1.6143827E0,1.5552182E0,0E0,0E0,0E0,0E0,2.4673417E0,0E0,1.5582821E0,1.7645793E0,0E0,0E0,0E0,0E0,0E0,0E0,0E0,0E0,0E0,0E0,0E0,0E0,0E0,0E0],"parents":[2147483647,0,0,1,1,2,2,3,3,4,4,5,5,6,6,7,7,8,8,9,9,10,10,11,11,12,12,13,13,14,14,15,15,20,20,21,21,22,22,27,27,29,29,30,30],"right_children":[2,4,6,8,10,12,14,16,18,20,22,24,26,28,30,32,-1,-1,-1,-1,34,36,38,-1,-1,-1,-1,40,-1,42,44,-1,-1,-1,-1,-1,-1,-1,-1,-1,-1,-1,-1,-1,-1],"split_conditions":[-1.1395061E-1,1.0191832E3,-1.6349442E2,1.8162428E4,-2.5641506E0,2.0810027E3,-6.164165E1,-1.0928409E0,-7.0646596E0,2.1489517E3,1.07186195E2,-2.359089E1,2.785347E0,-6.4870476E1,3.9216852E2,-1.89914E0,4.616455E-2,-8.815284E-3,-4.4761192E-2,1.9497637E-2,-3.1140872E2,1.1368881E3,-1.2998916E0,4.3522608E-2,8.848875E-3,-4.0129635E-2,1.7894883E-2,4.7291723E-1,5.585272E-2,2.800099E2,-3.354767E1,1.4747891E-2,-4.6706345E-2,1.751984E-2,-4.2065617E-2,-3.698157E-3,4.045021E-2,-2.9228589E-2,1.3758338E-2,2.3863612E-2,-3.3094373E-2,-1.8328248E-2,3.1668033E-2,-6.758117E-3,-3.809227E-2],"split_indices":[3,2,0,4,3,2,1,3,0,2,0,1,3,1,2,3,0,0,0,0,0,2,3,0,0,0,0,3,0,2,0,0,0,0,0,0,0,0,0,0,0,0,0,0,0],"split_type":[0,0,0,0,0,0,0,0,0,0,0,0,0,0,0,0,0,0,0,0,0,0,0,0,0,0,0,0,0,0,0,0,0,0,0,0,0,0,0,0,0,0,0,0,0],"sum_hessian":[7.995676E1,4.1223324E1,3.873343E1,8.68896E0,3.2534363E1,6.0519576E0,3.2681473E1,5.19211E0,3.49685E0,6.0827236E0,2.6451641E1,2.4069364E0,3.6450214E0,7.7000847E0,2.4981388E1,3.2083685E0,1.9837414E0,1.0478908E0,2.448959E0,1.3498477E0,4.7328763E0,1.6470509E1,9.9811325E0,1.3985124E0,1.0084239E0,1.782727E0,1.8622943E0,6.588795E0,1.1112894E0,4.315438E0,2.0665949E1,1.5671054E0,1.641263E0,1.1533134E0,3.5795627E0,2.2118173E0,1.4258691E1,1.739622E0,8.24151E0,2.0278625E0,4.5609326E0,2.4075036E0,1.9079341E0,7.2637467E0,1.3402203E1],"tree_param":{"num_deleted":"0","num_feature":"5","num_nodes":"45","size_leaf_vector":"1"}},{"base_weights":[-1.9711459E-2,1.7248774E-1,-2.7010983E-1,-6.533021E-1,2.4086244E-1,-6.818441E-1,-1.08371414E-1,-7.9356E-3,-3.8853113E-2,-3.4299556E-2,2.8690848E-1,1.3442914E-2,-8.248649E-1,-3.8495284E-2,-4.0016558E-2,5.411184E-1,1.24625415E-1,-4.547406E-3,-4.8712566E-2,4.8820436E-2,-1.6228268E-1,5.149923E-2,5.877133E-3,-3.65774E-2,1.3274557E-2,-1.3871863E-2,2.4873814E-2],"categories":[],"categories_nodes":[],"categories_segments":[],"categories_sizes":[],"default_left":[0,0,0,0,0,0,0,0,0,0,0,0,0,0,0,0,0,0,0,0,0,0,0,0,0,0,0],"id":34,"left_children":[1,3,5,7,9,11,13,-1,-1,-1,15,-1,17,-1,19,21,23,-1,-1,-1,25,-1,-1,-1,-1,-1,-1],"loss_changes":[3.9016626E0,2.750618E0,2.2685065E0,1.081332E-1,2.0382411E0,1.5449615E0,1.1649303E0,0E0,0E0,0E0,1.6573908E0,0E0,8.6575794E-1,0E0,3.2680025E0,3.1903634E0,3.4286542E0,0E0,0E0,0E0,1.9000471E0,0E0,0E0,0E0,0E0,0E0,0E0],"parents":[2147483647,0,0,1,1,2,2,3,3,4,4,5,5,6,6,10,10,12,12,14,14,15,15,16,16,20,20],"right_children":[2,4,6,8,10,12,14,-1,-1,-1,16,-1,18,-1,20,22,24,-1,-1,-1,26,-1,-1,-1,-1,-1,-1],"split_conditions":[3.0206773E-1,5.658339E2,1.2846719E0,2.3103766E2,-2.9414177E0,2.678167E2,2.800099E2,-7.9356E-3,-3.8853113E-2,-3.4299556E-2,-1.661845E0,1.3442914E-2,-7.7979675E1,-3.8495284E-2,4.0406573E2,2.0257609E3,-1.5228637E0,-4.547406E-3,-4.8712566E-2,4.8820436E-2,1.9181992E4,5.149923E-2,5.877133E-3,-3.65774E-2,1.3274557E-2,-1.3871863E-2,2.4873814E-2],"split_indices":[3,2,3,2,3,2,2,0,0,0,3,0,1,0,2,2,3,0,0,0,4,0,0,0,0,0,0],"split_type":[0,0,0,0,0,0,0,0,0,0,0,0,0,0,0,0,0,0,0,0,0,0,0,0,0,0,0],"sum_hessian":[7.910313E1,4.492841E1,3.4174717E1,2.7814114E0,4.2146996E1,8.731468E0,2.5443249E1,1.0135036E0,1.7679079E0,1.33699E0,4.0810005E1,1.0267165E0,7.7047515E0,1.4216115E0,2.4021637E1,1.49917E1,2.5818306E1,1.5751327E0,6.1296186E0,1.829196E0,2.2192442E1,6.294879E0,8.696821E0,3.055278E0,2.276303E1,1.9387949E1,2.804493E0],"tree_param":{"num_deleted":"0","num_feature":"5","num_nodes":"27","size_leaf_vector":"1"}},{"base_weights":[-1.9759608E-2,1.6071068E-1,-2.6438636E-1,-6.4164525E-1,2.2557974E-1,-7.16374E-1,-1.0268302E-1,-7.7547394E-3,-3.8246058E-2,-3.377146E-2,2.6929653E-1,1.3064771E-2,-8.792503E-1,-3.7829127E-2,-3.581708E-2,5.364192E-1,1.1659302E-1,-1.1379942E-2,-4.7525734E-2,4.702441E-2,-1.5442044E-1,4.171153E-3,3.6434602E-2,1.0630603E-2,-1.9525426E-2,-1.3302192E-2,2.3739439E-2],"categories":[],"categories_nodes":[],"categories_segments":[],"categories_sizes":[],"default_left":[0,0,0,0,0,0,0,0,0,0,0,0,0,0,0,0,0,0,0,0,0,0,0,0,0,0,0],"id":35,"left_children":[1,3,5,7,9,11,13,-1,-1,-1,15,-1,17,-1,19,21,23,-1,-1,-1,25,-1,-1,-1,-1,-1,-1],"loss_changes":[3.5555272E0,2.5604951E0,2.423158E0,1.05204344E-1,1.9024892E0,1.6364202E0,1.1240019E0,0E0,0E0,0E0,1.6659796E0,0E0,1.4595413E-1,0E0,3.0324256E0,1.2575006E0,1.4580722E0,0E0,0E0,0E0,1.7481782E0,0E0,0E0,0E0,0E0,0E0,0E0],"parents":[2147483647,0,0,1,1,2,2,3,3,4,4,5,5,6,6,10,10,12,12,14,14,15,15,16,16,20,20],"right_children":[2,4,6,8,10,12,14,-1,-1,-1,16,-1,18,-1,20,22,24,-1,-1,-1,26,-1,-1,-1,-1,-1,-1],"split_conditions":[3.629165E-1,5.658339E2,1.2846719E0,2.3103766E2,-2.9414177E0,2.678167E2,2.800099E2,-7.7547394E-3,-3.8246058E-2,-3.377146E-2,-1.1010579E1,1.3064771E-2,4.9212858E-1,-3.7829127E-2,4.0406573E2,1.7410521E4,2.60006E2,-1.1379942E-2,-4.7525734E-2,4.702441E-2,1.9181992E4,4.171153E-3,3.6434602E-2,1.0630603E-2,-1.9525426E-2,-1.3302192E-2,2.3739439E-2],"split_indices":[3,2,3,2,3,2,2,0,0,0,1,0,3,0,2,4,0,0,0,0,4,0,0,0,0,0,0],"split_type":[0,0,0,0,0,0,0,0,0,0,0,0,0,0,0,0,0,0,0,0,0,0,0,0,0,0,0],"sum_hessian":[7.8574356E1,4.541388E1,3.3160477E1,2.7319086E0,4.268197E1,7.8337297E0,2.5326748E1,1.0087283E0,1.7231803E0,1.306417E0,4.1375553E1,1.0324093E0,6.8013206E0,1.3926587E0,2.393409E1,1.4135555E1,2.7239998E1,1.0838817E0,5.717439E0,1.8419607E0,2.2092129E1,4.639274E0,9.496281E0,2.3391565E1,3.848433E0,1.9253656E1,2.8384733E0],"tree_param":{"num_deleted":"0","num_feature":"5","num_nodes":"27","size_leaf_vector":"1"}},{"base_weights":[-1.991937E-2,1.7480865E-1,-2.2842553E-1,-2.511969E-1,2.9187235E-1,1.9563968E-1,-3.120347E-1,1.4878857E-1,-7.50714E-1,-3.0326486E-1,4.350457E-1,7.1553683E-1,-2.3521449E-1,-7.858051E-1,-2.2156632E-1,-4.13202E-1,4.4647727E-2,-8.227008E-3,-4.3968406E-2,5.400037E-3,-4.543326E-2,6.4856035E-1,6.2538266E-2,4.3050572E-2,9.301158E-3,-3.9042424E-2,1.8228643E-2,-8.876559E-3,-4.5319226E-2,5.094721E-1,-3.0863735E-1,1.3446944E-2,-4.5922022E-2,2.0487528E-2,-2.9616281E-2,-5.0294953E-3,3.8347553E-2,-2.6688779E-2,1.3639565E-2,4.751449E-2,-1.1589125E-2,1.1125638E-2,-2.0483991E-2],"categories":[],"categories_nodes":[],"categories_segments":[],"categories_sizes":[],"default_left":[0,0,0,0,0,0,0,0,0,0,0,0,0,0,0,0,0,0,0,0,0,0,0,0,0,0,0,0,0,0,0,0,0,0,0,0,0,0,0,0,0,0,0],"id":36,