{"learner":{"attributes":{"best_iteration":"27","best_score":"0.48068265020847323","scikit_learn":"{\"_estimator_type\": \"classifier\"}"},"feature_names":["log_returns","volatility_short","volatility_long","skew","kurtosis","momentum_short","momentum_long","efficiency_ratio"],"feature_types":["float","float","float","float","float","float","float","float"],"gradient_booster":{"model":{"cats":{"enc":[],"feature_segments":[],"sorted_idx":[]},"gbtree_model_param":{"num_parallel_tree":"1","num_trees":"78"},"iteration_indptr":[0,1,2,3,4,5,6,7,8,9,10,11,12,13,14,15,16,17,18,19,20,21,22,23,24,25,26,27,28,29,30,31,32,33,34,35,36,37,38,39,40,41,42,43,44,45,46,47,48,49,50,51,52,53,54,55,56,57,58,59,60,61,62,63,64,65,66,67,68,69,70,71,72,73,74,75,76,77,78],"tree_info":[0,0,0,0,0,0,0,0,0,0,0,0,0,0,0,0,0,0,0,0,0,0,0,0,0,0,0,0,0,0,0,0,0,0,0,0,0,0,0,0,0,0,0,0,0,0,0,0,0,0,0,0,0,0,0,0,0,0,0,0,0,0,0,0,0,0,0,0,0,0,0,0,0,0,0,0,0,0],"trees":[{"base_weights":[8.075365E-2,1.114551E0,-6.382979E-1,-4.048586E-4,1.4629258E0,-9.4499296E-1,2.1148032E-1,1.8181818E-2,3.6437241E-3,-2.4390246E-3,-1.02649005E-2,7.3170727E-3,-3.5398232E-3],"categories":[],"categories_nodes":[],"categories_segments":[],"categories_sizes":[],"default_left":[0,0,0,0,0,0,0,0,0,0,0,0,0],"id":0,"left_children":[1,3,5,-1,7,9,11,-1,-1,-1,-1,-1,-1],"loss_changes":[1.175765E1,2.658639E0,2.649701E0,0E0,1.2849407E0,1.54737E-1,1.2327106E0,0E0,0E0,0E0,0E0,0E0,0E0],"parents":[2147483647,0,0,1,1,2,2,4,4,5,5,6,6],"right_children":[2,4,6,-1,8,10,12,-1,-1,-1,-1,-1,-1],"split_conditions":[6.068108E-1,-6.513408E-1,7.8832614E-1,-4.048586E-4,1.9504223E0,-1.2723337E0,1.4281485E0,1.8181818E-2,3.6437241E-3,-2.4390246E-3,-1.02649005E-2,7.3170727E-3,-3.5398232E-3],"split_indices":[6,7,7,0,5,2,2,0,0,0,0,0,0],"split_type":[0,0,0,0,0,0,0,0,0,0,0,0,0],"sum_hessian":[1.3860001E1,5.46E0,8.400001E0,1.47E0,3.9900002E0,6.09E0,2.3100002E0,2.52E0,1.47E0,1.0500001E0,5.04E0,1.0500001E0,1.26E0],"tree_param":{"num_deleted":"0","num_feature":"8","num_nodes":"13","size_leaf_vector":"1"}},{"base_weights":[-1.1349005E-1,9.5395464E-1,-6.6927886E-1,1.4103542E-2,1.0083469E-3,-7.915505E-1,8.949279E-4,-2.3983412E-3,-9.118754E-3],"categories":[],"categories_nodes":[],"categories_segments":[],"categories_sizes":[],"default_left":[0,0,0,0,0,0,0,0,0],"id":1,"left_children":[1,3,5,-1,-1,7,-1,-1,-1],"loss_changes":[8.953813E0,1.886898E0,9.804807E-1,0E0,0E0,3.486004E-1,0E0,0E0,0E0],"parents":[2147483647,0,0,1,1,2,2,5,5],"right_children":[2,4,6,-1,-1,8,-1,-1,-1],"split_conditions":[4.769792E-1,-2.2006744E-1,7.997672E-1,1.4103542E-2,1.0083469E-3,-6.872194E-1,8.949279E-4,-2.3983412E-3,-9.118754E-3],"split_indices":[6,0,1,0,0,0,0,0,0],"split_type":[0,0,0,0,0,0,0,0,0],"sum_hessian":[1.3016043E1,4.2113504E0,8.804692E0,2.318066E0,1.8932844E0,7.545568E0,1.2591248E0,1.8869067E0,5.6586614E0],"tree_param":{"num_deleted":"0","num_feature":"8","num_nodes":"9","size_leaf_vector":"1"}},{"base_weights":[8.036894E-2,-4.445394E-1,1.2803135E0,4.7082108E-2,-1.1109573E-2,1.5227853E0,2.3981403E-3,5.0101434E-3,-8.896489E-3,5.293602E-3,1.8417144E-2],"categories":[],"categories_nodes":[],"categories_segments":[],"categories_sizes":[],"default_left":[0,0,0,0,0,0,0,0,0,0,0],"id":2,"left_children":[1,3,5,7,-1,9,-1,-1,-1,-1,-1],"loss_changes":[9.520961E0,3.5348063E0,7.9102755E-1,3.4546669E0,0E0,1.4342403E-1,0E0,0E0,0E0,0E0,0E0],"parents":[2147483647,0,0,1,1,2,2,3,3,5,5],"right_children":[2,4,6,8,-1,10,-1,-1,-1,-1,-1],"split_conditions":[9.996282E-1,-1.9629627E-1,2.1277955E0,3.0694178E-1,-1.1109573E-2,1.6137661E0,2.3981403E-3,5.0101434E-3,-8.896489E-3,5.293602E-3,1.8417144E-2],"split_indices":[7,7,5,0,0,2,0,0,0,0,0],"split_type":[0,0,0,0,0,0,0,0,0,0,0],"sum_hessian":[1.321236E1,9.629519E0,3.5828404E0,6.0763216E0,3.5531979E0,2.5297978E0,1.0530429E0,4.4062395E0,1.6700821E0,1.2611804E0,1.2686173E0],"tree_param":{"num_deleted":"0","num_feature":"8","num_nodes":"11","size_leaf_vector":"1"}},{"base_weights":[6.671671E-2,-4.305167E-1,1.538574E-2,5.511326E-2,-1.0025597E0,5.291837E-3,-9.261901E-3,-1.1192873E-2,-2.4318844E-3],"categories":[],"categories_nodes":[],"categories_segments":[],"categories_sizes":[],"default_left":[0,0,0,0,0,0,0,0,0],"id":3,"left_children":[1,3,-1,5,7,-1,-1,-1,-1],"loss_changes":[1.2137855E1,3.5282745E0,0E0,4.076641E0,2.4123049E-1,0E0,0E0,0E0,0E0],"parents":[2147483647,0,0,1,1,3,3,4,4],"right_children":[2,4,-1,6,8,-1,-1,-1,-1],"split_conditions":[1.2507635E0,-2.1863239E-1,1.538574E-2,3.0694178E-1,6.52078E-1,5.291837E-3,-9.261901E-3,-1.1192873E-2,-2.4318844E-3],"split_indices":[7,7,0,0,1,0,0,0,0],"split_type":[0,0,0,0,0,0,0,0,0],"sum_hessian":[1.4679946E1,1.1501821E1,3.178126E0,6.709508E0,4.7923126E0,4.834622E0,1.8748858E0,3.7429879E0,1.0493245E0],"tree_param":{"num_deleted":"0","num_feature":"8","num_nodes":"9","size_leaf_vector":"1"}},{"base_weights":[7.669167E-2,9.320997E-1,-7.3209333E-1,-2.4500655E-3,1.3849409E0,-9.1640633E-1,2.3488947E-3,1.7799143E-2,4.2755515E-3,-3.1226068E-3,-1.1165829E-2],"categories":[],"categories_nodes":[],"categories_segments":[],"categories_sizes":[],"default_left":[0,0,0,0,0,0,0,0,0,0,0],"id":4,"left_children":[1,3,5,-1,7,9,-1,-1,-1,-1,-1],"loss_changes":[1.0527866E1,4.260372E0,1.6187696E0,0E0,1.304636E0,4.758973E-1,0E0,0E0,0E0,0E0,0E0],"parents":[2147483647,0,0,1,1,2,2,4,4,5,5],"right_children":[2,4,6,-1,8,10,-1,-1,-1,-1,-1],"split_conditions":[6.352265E-1,-6.513408E-1,9.8953813E-1,-2.4500655E-3,-6.7533635E-2,-3.2133338E-1,2.3488947E-3,1.7799143E-2,4.2755515E-3,-3.1226068E-3,-1.1165829E-2],"split_indices":[6,7,7,0,0,7,0,0,0,0,0],"split_type":[0,0,0,0,0,0,0,0,0,0,0],"sum_hessian":[1.3230843E1,6.3559895E0,6.8748536E0,1.8933668E0,4.462622E0,5.8181763E0,1.0566777E0,2.55104E0,1.9115825E0,2.08511E0,3.7330663E0],"tree_param":{"num_deleted":"0","num_feature":"8","num_nodes":"11","size_leaf_vector":"1"}},{"base_weights":[2.7802687E-2,-4.200138E-1,1.0278766E0,1.9104886E-1,-1.1311689E-2,1.437168E-2,2.035134E-3,8.230777E-3,-6.7404197E-3],"categories":[],"categories_nodes":[],"categories_segments":[],"categories_sizes":[],"default_left":[0,0,0,0,0,0,0,0,0],"id":5,"left_children":[1,3,5,7,-1,-1,-1,-1,-1],"loss_changes":[6.7105155E0,4.732752E0,1.2684445E0,4.079058E0,0E0,0E0,0E0,0E0,0E0],"parents":[2147483647,0,0,1,1,2,2,3,3],"right_children":[2,4,6,8,-1,-1,-1,-1,-1],"split_conditions":[9.996282E-1,-6.7533635E-2,-1.6244769E-1,-1.9629627E-1,-1.1311689E-2,1.437168E-2,2.035134E-3,8.230777E-3,-6.7404197E-3],"split_indices":[7,0,0,7,0,0,0,0,0],"split_type":[0,0,0,0,0,0,0,0,0],"sum_hessian":[1.3019869E1,9.393592E0,3.6262772E0,5.4457045E0,3.9478874E0,1.9264426E0,1.6998346E0,3.1747909E0,2.2709136E0],"tree_param":{"num_deleted":"0","num_feature":"8","num_nodes":"9","size_leaf_vector":"1"}},{"base_weights":[5.712672E-2,-5.0957793E-1,1.2043015E0,8.30216E-2,-1.1329052E-2,1.5648648E0,7.296361E-4,6.2096063E-3,-8.791795E-3,1.9127185E-2,4.977934E-3],"categories":[],"categories_nodes":[],"categories_segments":[],"categories_sizes":[],"default_left":[0,0,0,0,0,0,0,0,0,0,0],"id":6,"left_children":[1,3,5,7,-1,9,-1,-1,-1,-1,-1],"loss_changes":[9.99079E0,3.9198418E0,1.9526134E0,3.7764158E0,0E0,4.5585632E-1,0E0,0E0,0E0,0E0,0E0],"parents":[2147483647,0,0,1,1,2,2,3,3,5,5],"right_children":[2,4,6,8,-1,10,-1,-1,-1,-1,-1],"split_conditions":[9.996282E-1,7.669236E-1,6.352265E-1,3.0694178E-1,-1.1329052E-2,1.6209621E0,7.296361E-4,6.2096063E-3,-8.791795E-3,1.9127185E-2,4.977934E-3],"split_indices":[7,6,6,0,0,7,0,0,0,0,0],"split_type":[0,0,0,0,0,0,0,0,0,0,0],"sum_hessian":[1.3423891E1,9.35722E0,4.0666714E0,5.241201E0,4.116019E0,2.7932496E0,1.2734219E0,3.589218E0,1.6519829E0,1.5088784E0,1.2843713E0],"tree_param":{"num_deleted":"0","num_feature":"8","num_nodes":"11","size_leaf_vector":"1"}},{"base_weights":[9.928812E-2,8.6404437E-1,-6.6923434E-1,-1.6423883E-1,1.4571062E0,-1.0062578E0,5.045227E-3,3.7573688E-3,-7.320501E-3,2.2756422E-3,1.7591542E-2,-2.2293131E-3,-1.12495E-2],"categories":[],"categories_nodes":[],"categories_segments":[],"categories_sizes":[],"default_left":[0,0,0,0,0,0,0,0,0,0,0,0,0],"id":7,"left_children":[1,3,5,7,9,11,-1,-1,-1,-1,-1,-1,-1],"loss_changes":[8.4368925E0,4.5925994E0,3.3688052E0,1.3511887E0,1.3186598E0,3.0270624E-1,0E0,0E0,0E0,0E0,0E0,0E0,0E0],"parents":[2147483647,0,0,1,1,2,2,3,3,4,4,5,5],"right_children":[2,4,6,8,10,12,-1,-1,-1,-1,-1,-1,-1],"split_conditions":[-6.7533635E-2,-2.1593678E-1,1.992939E0,-3.7183002E-1,-1.0032133E0,-3.4123293E-1,5.045227E-3,3.7573688E-3,-7.320501E-3,2.2756422E-3,1.7591542E-2,-2.2293131E-3,-1.12495E-2],"split_indices":[0,1,5,1,0,1,0,0,0,0,0,0,0],"split_type":[0,0,0,0,0,0,0,0,0,0,0,0,0],"sum_hessian":[1.2371127E1,6.138458E0,6.232669E0,2.509835E0,3.628623E0,4.9531603E0,1.2795082E0,1.4598356E0,1.0499992E0,1.0614007E0,2.5672224E0,1.0304947E0,3.9226658E0],"tree_param":{"num_deleted":"0","num_feature":"8","num_nodes":"13","size_leaf_vector":"1"}},{"base_weights":[-1.00973815E-1,-4.7384396E-1,1.1800982E0,7.792674E-2,-1.0164392E-2,1.50959045E-2,2.1185775E-3,-5.936092E-3,7.924924E-3],"categories":[],"categories_nodes":[],"categories_segments":[],"categories_sizes":[],"default_left":[0,0,0,0,0,0,0,0,0],"id":8,"left_children":[1,3,5,7,-1,-1,-1,-1,-1],"loss_changes":[7.5480123E0,3.6856463E0,8.238797E-1,3.7820687E0,0E0,0E0,0E0,0E0,0E0],"parents":[2147483647,0,0,1,1,2,2,3,3],"right_children":[2,4,6,8,-1,-1,-1,-1,-1],"split_conditions":[1.621234E0,-6.7533635E-2,2.1277955E0,-1.9795015E-1,-1.0164392E-2,1.50959045E-2,2.1185775E-3,-5.936092E-3,7.924924E-3],"split_indices":[2,0,5,1,0,0,0,0,0],"split_type":[0,0,0,0,0,0,0,0,0],"sum_hessian":[1.3630977E1,1.1046028E1,2.584949E0,5.9013085E0,5.1447196E0,1.511484E0,1.0734651E0,3.129517E0,2.7717915E0],"tree_param":{"num_deleted":"0","num_feature":"8","num_nodes":"9","size_leaf_vector":"1"}},{"base_weights":[3.22935E-2,-6.552651E-1,9.15874E-1,-8.704754E-1,-4.1521406E-3,2.9425108E-1,1.2838518E-2,-9.552579E-3,-2.1819477E-3,7.171359E-3,-7.282611E-3,7.6808757E-3,-3.541984E-3],"categories":[],"categories_nodes":[],"categories_segments":[],"categories_sizes":[],"default_left":[0,0,0,0,0,0,0,0,0,0,0,0,0],"id":9,"left_children":[1,3,5,7,9,11,-1,-1,-1,-1,-1,-1,-1],"loss_changes":[9.097246E0,1.1802852E0,1.1177249E0,1.4246845E-1,2.14326E0,1.4176474E0,0E0,0E0,0E0,0E0,0E0,0E0,0E0],"parents":[2147483647,0,0,1,1,2,2,3,3,4,4,5,5],"right_children":[2,4,6,8,10,12,-1,-1,-1,-1,-1,-1,-1],"split_conditions":[-7.73384E-2,1.1152223E0,1.2507635E0,1.713422E-1,-3.1702915E-1,4.0025783E-1,1.2838518E-2,-9.552579E-3,-2.1819477E-3,7.171359E-3,-7.282611E-3,7.6808757E-3,-3.541984E-3],"split_indices":[5,2,7,1,5,5,0,0,0,0,0,0,0],"split_type":[0,0,0,0,0,0,0,0,0,0,0,0,0],"sum_hessian":[1.2986698E1,7.448805E0,5.537893E0,5.345176E0,2.1036286E0,2.728424E0,2.8094687E0,4.319274E0,1.0259022E0,1.0586915E0,1.0449373E0,1.4698633E0,1.2585608E0],"tree_param":{"num_deleted":"0","num_feature":"8","num_nodes":"13","size_leaf_vector":"1"}},{"base_weights":[-2.6329353E-1,-5.1319927E-1,1.3340574E-2,-1.0694624E-2,-2.3700628E-1,1.1514083E-2,-5.9600533E-3],"categories":[],"categories_nodes":[],"categories_segments":[],"categories_sizes":[],"default_left":[0,0,0,0,0,0,0],"id":10,"left_children":[1,3,-1,-1,5,-1,-1],"loss_changes":[6.670413E0,1.8495784E0,0E0,0E0,5.885783E0,0E0,0E0],"parents":[2147483647,0,0,1,1,4,4],"right_children":[2,4,-1,-1,6,-1,-1],"split_conditions":[1.6981579E0,-7.9568595E-1,1.3340574E-2,-1.0694624E-2,-4.3827724E-1,1.1514083E-2,-5.9600533E-3],"split_indices":[2,2,0,0,5,0,0],"split_type":[0,0,0,0,0,0,0],"sum_hessian":[1.3994911E1,1.2688511E1,1.3064003E0,3.2568786E0,9.431632E0,1.4842149E0,7.947417E0],"tree_param":{"num_deleted":"0","num_feature":"8","num_nodes":"7","size_leaf_vector":"1"}},{"base_weights":[1.953577E-2,6.7379266E-1,-6.939745E-1,9.6479994E-1,-4.1592508E-3,-3.9431285E-2,-1.0959927E-2,-1.406894E-3,1.3522225E-2,2.4833088E-3,-3.593918E-3],"categories":[],"categories_nodes":[],"categories_segments":[],"categories_sizes":[],"default_left":[0,0,0,0,0,0,0,0,0,0,0],"id":11,"left_children":[1,3,5,7,-1,9,-1,-1,-1,-1,-1],"loss_changes":[7.379727E0,3.011636E0,1.9501438E0,3.1017113E0,0E0,4.5014584E-1,0E0,0E0,0E0,0E0,0E0],"parents":[2147483647,0,0,1,1,2,2,3,3,5,5],"right_children":[2,4,6,8,-1,10,-1,-1,-1,-1,-1],"split_conditions":[-6.7533635E-2,1.8201193E0,7.98815E-2,-2.820255E-1,-4.1592508E-3,5.1922625E-1,-1.0959927E-2,-1.406894E-3,1.3522225E-2,2.4833088E-3,-3.593918E-3],"split_indices":[0,3,3,1,0,1,0,0,0,0,0],"split_type":[0,0,0,0,0,0,0,0,0,0,0],"sum_hessian":[1.3806877E1,7.231542E0,6.5753345E0,5.7978654E0,1.4336767E0,2.9197106E0,3.655624E0,1.6698623E0,4.128003E0,1.655067E0,1.2646437E0],"tree_param":{"num_deleted":"0","num_feature":"8","num_nodes":"11","size_leaf_vector":"1"}},{"base_weights":[-6.506605E-2,-4.4346952E-1,9.9643767E-1,-8.860283E-5,-9.5489115E-1,1.2089418E0,1.958493E-3,-2.4397487E-3,7.478642E-3,-1.07803345E-2,-2.1161877E-3,2.1001506E-3,1.6217638E-2],"categories":[],"categories_nodes":[],"categories_segments":[],"categories_sizes":[],"default_left":[0,0,0,0,0,0,0,0,0,0,0,0,0],"id":12,"left_children":[1,3,5,7,9,11,-1,-1,-1,-1,-1,-1,-1],"loss_changes":[6.467193E0,2.6643586E0,4.8628235E-1,1.5129865E0,2.7128315E-1,9.6468496E-1,0E0,0E0,0E0,0E0,0E0,0E0,0E0],"parents":[2147483647,0,0,1,1,2,2,3,3,4,4,5,5],"right_children":[2,4,6,8,10,12,-1,-1,-1,-1,-1,-1,-1],"split_conditions":[1.2507635E0,7.669236E-1,1.6209621E0,6.963591E-1,2.674516E0,1.621234E0,1.958493E-3,-2.4397487E-3,7.478642E-3,-1.07803345E-2,-2.1161877E-3,2.1001506E-3,1.6217638E-2],"split_indices":[7,6,7,6,3,2,0,0,0,0,0,0,0],"split_type":[0,0,0,0,0,0,0,0,0,0,0,0,0],"sum_hessian":[1.40003805E1,1.07503395E1,3.250042E0,6.293936E0,4.4564033E0,2.1652436E0,1.0847981E0,5.254426E0,1.03951E0,3.4366455E0,1.0197575E0,1.0743394E0,1.0909044E0],"tree_param":{"num_deleted":"0","num_feature":"8","num_nodes":"13","size_leaf_vector":"1"}},{"base_weights":[-1.0974872E-1,-4.99006E-1,1.1408075E0,1.7487474E-1,-1.1579124E-2,1.47113595E-2,1.930187E-3,-3.0303756E-3,9.643508E-3],"categories":[],"categories_nodes":[],"categories_segments":[],"categories_sizes":[],"default_left":[0,0,0,0,0,0,0,0,0],"id":13,"left_children":[1,3,5,7,-1,-1,-1,-1,-1],"loss_changes":[7.3704576E0,5.2424755E0,8.49668E-1,2.7372818E0,0E0,0E0,0E0,0E0,0E0],"parents":[2147483647,0,0,1,1,2,2,3,3],"right_children":[2,4,6,8,-1,-1,-1,-1,-1],"split_conditions":[1.621234E0,-6.7533635E-2,2.1277955E0,-3.6776945E-1,-1.1579124E-2,1.47113595E-2,1.930187E-3,-3.0303756E-3,9.643508E-3],"split_indices":[2,0,5,0,0,0,0,0,0],"split_type":[0,0,0,0,0,0,0,0,0],"sum_hessian":[1.2971557E1,1.0350696E1,2.6208606E0,5.480374E0,4.870322E0,1.5340338E0,1.0868268E0,3.7976227E0,1.6827514E0],"tree_param":{"num_deleted":"0","num_feature":"8","num_nodes":"9","size_leaf_vector":"1"}},{"base_weights":[-9.538161E-2,6.797559E-1,-7.5523865E-1,1.2627257E0,-3.9344433E-1,2.7602431E-3,-9.37274E-1,-8.539841E-4,1.885529E-2,-7.817529E-3,2.169679E-3,-1.1694554E-2,2.1758266E-3],"categories":[],"categories_nodes":[],"categories_segments":[],"categories_sizes":[],"default_left":[0,0,0,0,0,0,0,0,0,0,0,0,0],"id":14,"left_children":[1,3,5,7,9,-1,11,-1,-1,-1,-1,-1,-1],"loss_changes":[7.9699917E0,5.020196E0,1.8259501E0,4.2941103E0,9.535577E-1,0E0,2.2181425E0,0E0,0E0,0E0,0E0,0E0,0E0],"parents":[2147483647,0,0,1,1,2,2,3,3,4,4,6,6],"right_children":[2,4,6,8,10,-1,12,-1,-1,-1,-1,-1,-1],"split_conditions":[6.352265E-1,-6.7533635E-2,-9.4356406E-1,-7.601892E-1,9.4048506E-1,2.7602431E-3,1.0870503E0,-8.539841E-4,1.885529E-2,-7.817529E-3,2.169679E-3,-1.1694554E-2,2.1758266E-3],"split_indices":[6,0,7,0,0,0,7,0,0,0,0,0,0],"split_type":[0,0,0,0,0,0,0,0,0,0,0,0,0],"sum_hessian":[1.3578507E1,6.2299714E0,7.3485365E0,3.9225929E0,2.3073783E0,1.0250608E0,6.323476E0,1.512186E0,2.410407E0,1.2386957E0,1.0686826E0,5.254441E0,1.0690348E0],"tree_param":{"num_deleted":"0","num_feature":"8","num_nodes":"13","size_leaf_vector":"1"}},{"base_weights":[3.576165E-2,1.0494562E0,-4.3127993E-1,1.4028132E-2,1.8921915E-3,-8.214444E-3,-8.2609016E-1,-3.603558E-3,4.1067926E-3,-2.032563E-3,-9.111545E-3],"categories":[],"categories_nodes":[],"categories_segments":[],"categories_sizes":[],"default_left":[0,0,0,0,0,0,0,0,0,0,0],"id":15,"left_children":[1,3,5,-1,-1,7,9,-1,-1,-1,-1],"loss_changes":[8.035964E0,1.3588028E0,1.9431674E0,0E0,0E0,1.1282675E0,1.3421011E-1,0E0,0E0,0E0,0E0],"parents":[2147483647,0,0,1,1,2,2,5,5,6,6],"right_children":[2,4,6,-1,-1,8,10,-1,-1,-1,-1],"split_conditions":[4.769792E-1,-2.2006744E-1,7.669236E-1,1.4028132E-2,1.8921915E-3,6.551399E-1,-3.930255E-1,-3.603558E-3,4.1067926E-3,-2.032563E-3,-9.111545E-3],"split_indices":[6,0,6,0,0,6,1,0,0,0,0],"split_type":[0,0,0,0,0,0,0,0,0,0,0],"sum_hessian":[1.5017647E1,4.343415E0,1.06742325E1,2.6316793E0,1.7117354E0,5.645504E0,5.0287285E0,3.1430526E0,2.5024514E0,1.0115666E0,4.017162E0],"tree_param":{"num_deleted":"0","num_feature":"8","num_nodes":"11","size_leaf_vector":"1"}},{"base_weights":[-1.3736111E-1,8.4349287E-1,-5.33686E-1,1.163232E0,3.3938253E-4,-2.0836845E-1,-1.0359006E-2,2.0591384E-3,1.5519517E-2,2.9783817E-3,-6.494786E-3],"categories":[],"categories_nodes":[],"categories_segments":[],"categories_sizes":[],"default_left":[0,0,0,0,0,0,0,0,0,0,0],"id":16,"left_children":[1,3,5,7,-1,9,-1,-1,-1,-1,-1],"loss_changes":[6.01409E0,1.127006E0,1.5496869E0,8.7142706E-1,0E0,1.9373544E0,0E0,0E0,0E0,0E0,0E0],"parents":[2147483647,0,0,1,1,2,2,3,3,5,5],"right_children":[2,4,6,8,-1,10,-1,-1,-1,-1,-1],"split_conditions":[4.769792E-1,-2.2006744E-1,3.0694178E-1,-5.2556276E-1,3.3938253E-4,-2.1863239E-1,-1.0359006E-2,2.0591384E-3,1.5519517E-2,2.9783817E-3,-6.494786E-3],"split_indices":[6,0,0,7,0,7,0,0,0,0,0],"split_type":[0,0,0,0,0,0,0,0,0,0,0],"sum_hessian":[1.3312844E1,3.5064752E0,9.806369E0,2.2004955E0,1.3059798E0,6.809989E0,2.9963803E0,1.0772425E0,1.1232529E0,3.3222542E0,3.4877348E0],"tree_param":{"num_deleted":"0","num_feature":"8","num_nodes":"11","size_leaf_vector":"1"}},{"base_weights":[-1.7336506E-2,-4.5118755E-1,1.1875751E0,1.3196731E-2,-1.0998919E-2,1.4659304E-2,1.9096642E-3,-7.279448E-3,2.318165E-3],"categories":[],"categories_nodes":[],"categories_segments":[],"categories_sizes":[],"default_left":[0,0,0,0,0,0,0,0,0],"id":17,"left_children":[1,3,5,7,-1,-1,-1,-1,-1],"loss_changes":[8.47411E0,3.596348E0,9.117036E-1,1.4516212E0,0E0,0E0,0E0,0E0,0E0],"parents":[2147483647,0,0,1,1,2,2,3,3],"right_children":[2,4,6,8,-1,-1,-1,-1,-1],"split_conditions":[1.2507635E0,7.669236E-1,2.1277955E0,-1.0348257E0,-1.0998919E-2,1.4659304E-2,1.9096642E-3,-7.279448E-3,2.318165E-3],"split_indices":[7,6,5,7,0,0,0,0,0],"split_type":[0,0,0,0,0,0,0,0,0],"sum_hessian":[1.4185572E1,1.0889976E1,3.2955968E0,6.917582E0,3.972393E0,2.207983E0,1.0876138E0,1.0450463E0,5.8725357E0],"tree_param":{"num_deleted":"0","num_feature":"8","num_nodes":"9","size_leaf_vector":"1"}},{"base_weights":[4.2917643E-2,-3.084531E-1,1.2727658E0,4.9803513E-3,-7.2904414E-1,1.5621829E-2,4.5743557E-3,3.3466283E-3,-8.569474E-3,-2.6194686E-3,-9.41846E-3],"categories":[],"categories_nodes":[],"categories_segments":[],"categories_sizes":[],"default_left":[0,0,0,0,0,0,0,0,0,0,0],"id":18,"left_children":[1,3,5,7,9,-1,-1,-1,-1,-1,-1],"loss_changes":[6.6851993E0,1.602807E0,9.4997406E-2,2.5442052E0,2.688434E-1,0E0,0E0,0E0,0E0,0E0,0E0],"parents":[2147483647,0,0,1,1,2,2,3,3,4,4],"right_children":[2,4,6,8,10,-1,-1,-1,-1,-1,-1],"split_conditions":[1.621234E0,7.669236E-1,1.4659128E0,1.4281485E0,-1.8785205E0,1.5621829E-2,4.5743557E-3,3.3466283E-3,-8.569474E-3,-2.6194686E-3,-9.41846E-3],"split_indices":[2,6,7,2,4,0,0,0,0,0,0],"split_type":[0,0,0,0,0,0,0,0,0,0,0],"sum_hessian":[1.3561758E1,1.1130842E1,2.430916E0,6.9441047E0,4.186737E0,1.1180352E0,1.3128809E0,5.465362E0,1.4787425E0,2.0086718E0,2.1780655E0],"tree_param":{"num_deleted":"0","num_feature":"8","num_nodes":"11","size_leaf_vector":"1"}},{"base_weights":[8.015187E-2,8.5876566E-1,-5.101839E-1,1.5444932E-2,-3.2617557E-1,2.8524306E-3,-6.599599E-1,2.0448032E-3,-7.1015945E-3,-9.996593E-3,-2.8121662E-3],"categories":[],"categories_nodes":[],"categories_segments":[],"categories_sizes":[],"default_left":[0,0,0,0,0,0,0,0,0,0,0],"id":19,"left_children":[1,3,5,-1,7,-1,9,-1,-1,-1,-1],"loss_changes":[6.6555185E0,5.546257E0,1.1795521E0,0E0,7.769768E-1,0E0,6.5861034E-1,0E0,0E0,0E0,0E0],"parents":[2147483647,0,0,1,1,2,2,4,4,6,6],"right_children":[2,4,6,-1,8,-1,10,-1,-1,-1,-1],"split_conditions":[6.068108E-1,-6.7533635E-2,-7.9335564E-1,1.5444932E-2,3.4097865E-1,2.8524306E-3,-2.4003981E-1,2.0448032E-3,-7.1015945E-3,-9.996593E-3,-2.8121662E-3],"split_indices":[6,0,5,0,6,0,0,0,0,0,0],"split_type":[0,0,0,0,0,0,0,0,0,0,0],"sum_hessian":[1.2526547E1,5.205772E0,7.3207755E0,3.1052966E0,2.100475E0,1.016723E0,6.3040524E0,1.0780771E0,1.0223979E0,2.459071E0,3.8449817E0],"tree_param":{"num_deleted":"0","num_feature":"8","num_nodes":"11","size_leaf_vector":"1"}},{"base_weights":[9.031764E-2,8.5752404E-1,-4.7786063E-1,1.5402701E0,-1.8035965E-1,2.8947697E-3,-6.094314E-1,2.0365615E-3,1.9492187E-2,-8.282525E-3,6.58457E-3,-7.673052E-4,-9.188483E-3],"categories":[],"categories_nodes":[],"categories_segments":[],"categories_sizes":[],"default_left":[0,0,0,0,0,0,0,0,0,0,0,0,0],"id":20,"left_children":[1,3,5,7,9,-1,11,-1,-1,-1,-1,-1,-1],"loss_changes":[6.843678E0,4.981413E0,1.097357E0,1.8488894E0,2.4632797E0,0E0,1.2660418E0,0E0,0E0,0E0,0E0,0E0,0E0],"parents":[2147483647,0,0,1,1,2,2,3,3,4,4,6,6],"right_children":[2,4,6,8,10,-1,12,-1,-1,-1,-1,-1,-1],"split_conditions":[6.068108E-1,-6.7533635E-2,-9.3455726E-1,-7.897802E-1,1.6720865E0,2.8947697E-3,-3.2133338E-1,2.0365615E-3,1.9492187E-2,-8.282525E-3,6.58457E-3,-7.673052E-4,-9.188483E-3],"split_indices":[6,0,5,7,2,0,7,0,0,0,0,0,0],"split_type":[0,0,0,0,0,0,0,0,0,0,0,0,0],"sum_hessian":[1.3759701E1,5.6377892E0,8.121912E0,3.1087356E0,2.5290537E0,1.0131177E0,7.108794E0,1.0792611E0,2.0294747E0,1.4340235E0,1.0950301E0,3.070507E0,4.038287E0],"tree_param":{"num_deleted":"0","num_feature":"8","num_nodes":"13","size_leaf_vector":"1"}},{"base_weights":[9.215741E-3,9.356132E-1,-4.409694E-1,1.5331488E-2,5.1080895E-4,-7.964084E-1,4.796491E-1,-9.687893E-3,-1.1696328E-3,1.1670373E-2,-3.6192455E-3],"categories":[],"categories_nodes":[],"categories_segments":[],"categories_sizes":[],"default_left":[0,0,0,0,0,0,0,0,0,0,0],"id":21,"left_children":[1,3,5,-1,-1,7,9,-1,-1,-1,-1],"loss_changes":[6.044185E0,2.4250474E0,3.5780067E0,0E0,0E0,7.5602055E-1,2.3572342E0,0E0,0E0,0E0,0E0],"parents":[2147483647,0,0,1,1,2,2,5,5,6,6],"right_children":[2,4,6,-1,-1,8,10,-1,-1,-1,-1],"split_conditions":[4.769792E-1,-2.2006744E-1,7.8832614E-1,1.5331488E-2,5.1080895E-4,-5.9785306E-1,8.0438656E-1,-9.687893E-3,-1.1696328E-3,1.1670373E-2,-3.6192455E-3],"split_indices":[6,0,7,0,0,4,1,0,0,0,0],"split_type":[0,0,0,0,0,0,0,0,0,0,0],"sum_hessian":[1.2503425E1,3.7363744E0,8.76705E0,1.7923112E0,1.9440631E0,6.4223742E0,2.344676E0,4.7830267E0,1.6393477E0,1.0776944E0,1.2669816E0],"tree_param":{"num_deleted":"0","num_feature":"8","num_nodes":"11","size_leaf_vector":"1"}},{"base_weights":[1.3001397E-1,1.2926059E0,-6.1770034E-1,1.5144346E-2,2.2211433E-3,-8.929855E-1,4.8868596E-3,-9.860571E-4,-1.1153789E-2],"categories":[],"categories_nodes":[],"categories_segments":[],"categories_sizes":[],"default_left":[0,0,0,0,0,0,0,0,0],"id":22,"left_children":[1,3,5,-1,-1,7,-1,-1,-1],"loss_changes":[1.1619979E1,8.9747715E-1,2.9499674E0,0E0,0E0,1.119997E0,0E0,0E0,0E0],"parents":[2147483647,0,0,1,1,2,2,5,5],"right_children":[2,4,6,-1,-1,8,-1,-1,-1],"split_conditions":[5.7710254E-1,4.7677374E-1,9.996282E-1,1.5144346E-2,2.2211433E-3,-7.3247594E-1,4.8868596E-3,-9.860571E-4,-1.1153789E-2],"split_indices":[6,6,7,0,0,7,0,0,0],"split_type":[0,0,0,0,0,0,0,0,0],"sum_hessian":[1.1448753E1,4.1959267E0,7.2528267E0,3.1321654E0,1.0637612E0,5.9622197E0,1.2906072E0,1.6197885E0,4.342431E0],"tree_param":{"num_deleted":"0","num_feature":"8","num_nodes":"9","size_leaf_vector":"1"}},{"base_weights":[2.6615625E-2,8.926459E-1,-3.557661E-1,1.3667713E-2,-2.8269487E-3,-2.5724191E-3,-8.1551594E-1,-3.5805397E-3,4.192054E-3,-9.324106E-3,-2.6809834E-3],"categories":[],"categories_nodes":[],"categories_segments":[],"categories_sizes":[],"default_left":[0,0,0,0,0,0,0,0,0,0,0],"id":23,"left_children":[1,3,5,-1,-1,7,9,-1,-1,-1,-1],"loss_changes":[4.7235994E0,2.8161633E0,1.6127493E0,0E0,0E0,1.1437618E0,2.6299238E-2,0E0,0E0,0E0,0E0],"parents":[2147483647,0,0,1,1,2,2,5,5,6,6],"right_children":[2,4,6,-1,-1,8,10,-1,-1,-1,-1],"split_conditions":[4.769792E-1,-2.2006744E-1,7.669236E-1,1.3667713E-2,-2.8269487E-3,6.551399E-1,1.4010872E0,-3.5805397E-3,4.192054E-3,-9.324106E-3,-2.6809834E-3],"split_indices":[6,0,6,0,0,6,6,0,0,0,0],"split_type":[0,0,0,0,0,0,0,0,0,0,0],"sum_hessian":[1.2305061E1,3.360242E0,8.944819E0,2.278312E0,1.0819299E0,5.62733E0,3.3174891E0,3.135641E0,2.4916885E0,2.1541958E0,1.1632934E0],"tree_param":{"num_deleted":"0","num_feature":"8","num_nodes":"11","size_leaf_vector":"1"}},{"base_weights":[-7.9002246E-2,-4.6930775E-1,8.1080234E-1,2.0209124E-2,-9.449657E-1,1.29570365E-2,4.094186E-4,6.1950623E-3,-4.1389167E-3,-2.845277E-3,-1.0555E-2],"categories":[],"categories_nodes":[],"categories_segments":[],"categories_sizes":[],"default_left":[0,0,0,0,0,0,0,0,0,0,0],"id":24,"left_children":[1,3,5,7,9,-1,-1,-1,-1,-1,-1],"loss_changes":[5.632867E0,2.6143095E0,1.805193E0,1.9401162E0,1.1387873E-1,0E0,0E0,0E0,0E0,0E0,0E0],"parents":[2147483647,0,0,1,1,2,2,3,3,4,4],"right_children":[2,4,6,8,10,-1,-1,-1,-1,-1,-1],"split_conditions":[9.996282E-1,7.669236E-1,-1.6244769E-1,-3.1702915E-1,-3.2133338E-1,1.29570365E-2,4.094186E-4,6.1950623E-3,-4.1389167E-3,-2.845277E-3,-1.0555E-2],"split_indices":[7,6,0,5,7,0,0,0,0,0,0],"split_type":[0,0,0,0,0,0,0,0,0,0,0],"sum_hessian":[1.4123575E1,1.0145782E1,3.9777925E0,5.471932E0,4.6738505E0,2.0215008E0,1.9562917E0,2.1191883E0,3.3527436E0,1.1825106E0,3.49134E0],"tree_param":{"num_deleted":"0","num_feature":"8","num_nodes":"11","size_leaf_vector":"1"}},{"base_weights":[-5.063853E-2,-4.0641442E-1,1.0619191E-2,8.880546E-2,-9.4525206E-1,8.315786E-3,-4.459757E-3,-2.8945976E-3,-1.0577247E-2],"categories":[],"categories_nodes":[],"categories_segments":[],"categories_sizes":[],"default_left":[0,0,0,0,0,0,0,0,0],"id":25,"left_children":[1,3,-1,5,7,-1,-1,-1,-1],"loss_changes":[6.0048394E0,3.123775E0,0E0,3.091945E0,1.0256767E-1,0E0,0E0,0E0,0E0],"parents":[2147483647,0,0,1,1,3,3,4,4],"right_children":[2,4,-1,6,8,-1,-1,-1,-1],"split_conditions":[1.621234E0,-1.6244769E-1,1.0619191E-2,6.352265E-1,-3.1792486E-1,8.315786E-3,-4.459757E-3,-2.8945976E-3,-1.0577247E-2],"split_indices":[2,0,0,6,1,0,0,0,0],"split_type":[0,0,0,0,0,0,0,0,0],"sum_hessian":[1.3080247E1,1.03918295E1,2.688417E0,5.8502946E0,4.541535E0,2.2166023E0,3.6336923E0,1.1880422E0,3.353493E0],"tree_param":{"num_deleted":"0","num_feature":"8","num_nodes":"9","size_leaf_vector":"1"}},{"base_weights":[9.830837E-2,5.4842204E-1,-7.6670164E-1,-1.8195848E-1,9.0694547E-1,-3.1418565E-3,-9.5953E-3,6.7486167E-3,-8.917143E-3,1.10245235E-2,1.14722854E-4],"categories":[],"categories_nodes":[],"categories_segments":[],"categories_sizes":[],"default_left":[0,0,0,0,0,0,0,0,0,0,0],"id":26,"left_children":[1,3,5,7,9,-1,-1,-1,-1,-1,-1],"loss_changes":[6.3849196E0,2.9561307E0,1.9241285E-1,3.2425008E0,1.268259E0,0E0,0E0,0E0,0E0,0E0,0E0],"parents":[2147483647,0,0,1,1,2,2,3,3,4,4],"right_children":[2,4,6,8,10,-1,-1,-1,-1,-1,-1],"split_conditions":[7.669236E-1,-7.0428455E-1,-1.843211E-1,-5.296078E-1,2.1277955E0,-3.1418565E-3,-9.5953E-3,6.7486167E-3,-8.917143E-3,1.10245235E-2,1.14722854E-4],"split_indices":[6,4,0,0,5,0,0,0,0,0,0],"split_type":[0,0,0,0,0,0,0,0,0,0,0],"sum_hessian":[1.4318866E1,9.658826E0,4.66004E0,3.3423338E0,6.3164916E0,2.1780648E0,2.481975E0,1.536558E0,1.8057756E0,4.994839E0,1.3216528E0],"tree_param":{"num_deleted":"0","num_feature":"8","num_nodes":"11","size_leaf_vector":"1"}},{"base_weights":[7.6372184E-2,1.2198454E0,-6.880171E-1,-5.2211306E-4,1.6408592E-2,-1.6489998E-3,-7.9209083E-1,-9.542406E-3,-1.5098221E-3],"categories":[],"categories_nodes":[],"categories_segments":[],"categories_sizes":[],"default_left":[0,0,0,0,0,0,0,0,0],"id":27,"left_children":[1,3,5,-1,-1,-1,7,-1,-1],"loss_changes":[1.3285665E1,3.334241E0,3.6883974E-1,0E0,0E0,0E0,6.240268E-1,0E0,0E0],"parents":[2147483647,0,0,1,1,2,2,6,6],"right_children":[2,4,6,-1,-1,-1,8,-1,-1],"split_conditions":[6.068108E-1,-6.513408E-1,-3.7707967E-1,-5.2211306E-4,1.6408592E-2,-1.6489998E-3,7.8832614E-1,-9.542406E-3,-1.5098221E-3],"split_indices":[6,7,1,0,0,0,7,0,0],"split_type":[0,0,0,0,0,0,0,0,0],"sum_hessian":[1.3239765E1,5.065815E0,8.17395E0,1.4775413E0,3.5882738E0,1.7852104E0,6.38874E0,4.7092505E0,1.6794897E0],"tree_param":{"num_deleted":"0","num_feature":"8","num_nodes":"9","size_leaf_vector":"1"}},{"base_weights":[1.4763267E-1,1.0017482E0,-5.466345E-1,-1.6734364E-3,1.4085702E0,-7.36177E-1,9.2401635E-4,1.6676025E-2,2.0489763E-3,-3.134843E-4,-1.0653264E-2],"categories":[],"categories_nodes":[],"categories_segments":[],"categories_sizes":[],"default_left":[0,0,0,0,0,0,0,0,0,0,0],"id":28,"left_children":[1,3,5,-1,7,9,-1,-1,-1,-1,-1],"loss_changes":[9.304668E0,3.552947E0,1.1330898E0,0E0,1.3046713E0,1.5657794E0,0E0,0E0,0E0,0E0,0E0],"parents":[2147483647,0,0,1,1,2,2,4,4,5,5],"right_children":[2,4,6,-1,8,10,-1,-1,-1,-1,-1],"split_conditions":[6.068108E-1,-6.513408E-1,7.8832614E-1,-1.6734364E-3,4.769792E-1,-7.3247594E-1,9.2401635E-4,1.6676025E-2,2.0489763E-3,-3.134843E-4,-1.0653264E-2],"split_indices":[6,7,7,0,6,7,0,0,0,0,0],"split_type":[0,0,0,0,0,0,0,0,0,0,0],"sum_hessian":[1.3767807E1,5.974657E0,7.79315E0,1.6943185E0,4.280339E0,5.893181E0,1.8999693E0,3.2051547E0,1.0751839E0,2.2246459E0,3.668535E0],"tree_param":{"num_deleted":"0","num_feature":"8","num_nodes":"11","size_leaf_vector":"1"}},{"base_weights":[-3.491796E-2,6.5172803E-1,-5.980671E-1,-4.54426E-3,1.0483326E0,3.022617E-3,-7.6661915E-1,1.4576818E-2,1.4531234E-3,-6.917189E-4,-1.0786393E-2],"categories":[],"categories_nodes":[],"categories_segments":[],"categories_sizes":[],"default_left":[0,0,0,0,0,0,0,0,0,0,0],"id":29,"left_children":[1,3,5,-1,7,-1,9,-1,-1,-1,-1],"loss_changes":[5.7560835E0,3.4296477E0,1.4678934E0,0E0,1.731626E0,0E0,1.4801006E0,0E0,0E0,0E0,0E0],"parents":[2147483647,0,0,1,1,2,2,4,4,6,6],"right_children":[2,4,6,-1,8,-1,10,-1,-1,-1,-1],"split_conditions":[6.352265E-1,-6.513408E-1,-8.442746E-1,-4.54426E-3,-6.7533635E-2,3.022617E-3,7.360246E-1,1.4576818E-2,1.4531234E-3,-6.917189E-4,-1.0786393E-2],"split_indices":[6,7,5,0,0,0,6,0,0,0,0],"split_type":[0,0,0,0,0,0,0,0,0,0,0],"sum_hessian":[1.2877752E1,5.7317524E0,7.146E0,1.4742335E0,4.257519E0,1.0017611E0,6.144239E0,2.5068884E0,1.7506303E0,2.276763E0,3.8674757E0],"tree_param":{"num_deleted":"0","num_feature":"8","num_nodes":"11","size_leaf_vector":"1"}},{"base_weights":[1.7584978E-3,1.140512E0,-5.640407E-1,-2.5859638E-3,1.5765818E-2,1.6478425E-3,-7.4228007E-1,6.696216E-4,-8.969225E-3],"categories":[],"categories_nodes":[],"categories_segments":[],"categories_sizes":[],"default_left":[0,0,0,0,0,0,0,0,0],"id":30,"left_children":[1,3,5,-1,-1,-1,7,-1,-1],"loss_changes":[9.817486E0,3.493184E0,1.4449601E0,0E0,0E0,0E0,1.1065793E0,0E0,0E0],"parents":[2147483647,0,0,1,1,2,2,6,6],"right_children":[2,4,6,-1,-1,-1,8,-1,-1],"split_conditions":[4.7677374E-1,-7.897802E-1,-7.3247594E-1,-2.5859638E-3,1.5765818E-2,1.6478425E-3,6.068108E-1,6.696216E-4,-8.969225E-3],"split_indices":[6,7,7,0,0,0,6,0,0],"split_type":[0,0,0,0,0,0,0,0,0],"sum_hessian":[1.3238876E1,4.0572715E0,9.181604E0,1.060784E0,2.9964876E0,1.8190308E0,7.3625736E0,1.2721926E0,6.090381E0],"tree_param":{"num_deleted":"0","num_feature":"8","num_nodes":"9","size_leaf_vector":"1"}},{"base_weights":[4.558625E-2,8.417221E-1,-5.476391E-1,-4.7374333E-4,1.1078136E0,-7.5952303E-1,2.3130036E-3,1.3586311E-2,1.2194697E-3,3.8618382E-4,-9.555167E-3],"categories":[],"categories_nodes":[],"categories_segments":[],"categories_sizes":[],"default_left":[0,0,0,0,0,0,0,0,0,0,0],"id":31,"left_children":[1,3,5,-1,7,9,-1,-1,-1,-1,-1],"loss_changes":[7.2942185E0,1.6072564E0,1.6440101E0,0E0,1.0951791E0,1.1675048E0,0E0,0E0,0E0,0E0,0E0],"parents":[2147483647,0,0,1,1,2,2,4,4,5,5],"right_children":[2,4,6,-1,8,10,-1,-1,-1,-1,-1],"split_conditions":[6.068108E-1,-6.513408E-1,7.8832614E-1,-4.7374333E-4,2.0891998E0,-3.7707967E-1,2.3130036E-3,1.3586311E-2,1.2194697E-3,3.8618382E-4,-9.555167E-3],"split_indices":[6,7,7,0,5,1,0,0,0,0,0],"split_type":[0,0,0,0,0,0,0,0,0,0,0],"sum_hessian":[1.3468416E1,5.571848E0,7.896569E0,1.4727808E0,4.099067E0,6.2275124E0,1.6690562E0,2.966294E0,1.132773E0,1.3860569E0,4.8414555E0],"tree_param":{"num_deleted":"0","num_feature":"8","num_nodes":"11","size_leaf_vector":"1"}},{"base_weights":[1.873035E-1,6.5491605E-1,-7.231181E-1,1.0421027E0,-1.4386508E-1,-2.8247903E-3,-9.239175E-3,1.2944551E-2,1.7787344E-3,5.49852E-3,-8.481423E-3],"categories":[],"categories_nodes":[],"categories_segments":[],"categories_sizes":[],"default_left":[0,0,0,0,0,0,0,0,0,0,0],"id":32,"left_children":[1,3,5,7,9,-1,-1,-1,-1,-1,-1],"loss_changes":[6.6198134E0,3.2621398E0,2.1452618E-1,1.2743378E0,2.5007303E0,0E0,0E0,0E0,0E0,0E0,0E0],"parents":[2147483647,0,0,1,1,2,2,3,3,4,4],"right_children":[2,4,6,8,10,-1,-1,-1,-1,-1,-1],"split_conditions":[7.669236E-1,1.1283831E-1,-1.8785205E0,7.803494E-1,-1.017404E0,-2.8247903E-3,-9.239175E-3,1.2944551E-2,1.7787344E-3,5.49852E-3,-8.481423E-3],"split_indices":[6,3,4,1,4,0,0,0,0,0,0],"split_type":[0,0,0,0,0,0,0,0,0,0,0],"sum_hessian":[1.3437108E1,9.062866E0,4.374242E0,5.8989162E0,3.1639497E0,2.1227658E0,2.251476E0,4.180429E0,1.7184874E0,1.7043868E0,1.4595628E0],"tree_param":{"num_deleted":"0","num_feature":"8","num_nodes":"11","size_leaf_vector":"1"}},{"base_weights":[2.38741E-1,9.8516166E-1,-3.5537803E-1,1.4279182E0,2.541796E-4,-6.121066E-1,2.0410301E-1,1.5211608E-3,1.8372228E-2,8.9406146E-4,-9.965089E-3,7.394168E-3,-3.6700058E-3],"categories":[],"categories_nodes":[],"categories_segments":[],"categories_sizes":[],"default_left":[0,0,0,0,0,0,0,0,0,0,0,0,0],"id":33,"left_children":[1,3,5,7,-1,9,11,-1,-1,-1,-1,-1,-1],"loss_changes":[6.256034E0,2.584457E0,1.2956007E0,1.9149466E0,0E0,1.6630614E0,1.2843735E0,0E0,0E0,0E0,0E0,0E0,0E0],"parents":[2147483647,0,0,1,1,2,2,3,3,5,5,6,6],"right_children":[2,4,6,8,-1,10,12,-1,-1,-1,-1,-1,-1],"split_conditions":[6.068108E-1,-6.7533635E-2,7.8832614E-1,-9.102445E-1,2.541796E-4,-3.1792486E-1,1.4281485E0,1.5211608E-3,1.8372228E-2,8.9406146E-4,-9.965089E-3,7.394168E-3,-3.6700058E-3],"split_indices":[6,0,7,0,0,1,2,0,0,0,0,0,0],"split_type":[0,0,0,0,0,0,0,0,0,0,0,0,0],"sum_hessian":[1.2317759E1,5.1674504E0,7.150308E0,3.2023191E0,1.9651313E0,4.836792E0,2.3135164E0,1.1109947E0,2.0913243E0,1.983829E0,2.852963E0,1.0420518E0,1.2714646E0],"tree_param":{"num_deleted":"0","num_feature":"8","num_nodes":"13","size_leaf_vector":"1"}},{"base_weights":[5.593444E-2,-2.4901254E-1,9.783722E-1,1.2466753E-1,-1.0121236E-2,1.45528745E-2,2.0435138E-3,-3.3865434E-3,5.888915E-3],"categories":[],"categories_nodes":[],"categories_segments":[],"categories_sizes":[],"default_left":[0,0,0,0,0,0,0,0,0],"id":34,"left_children":[1,3,5,7,-1,-1,-1,-1,-1],"loss_changes":[4.2684174E0,3.4198642E0,1.0897598E0,2.058605E0,0E0,0E0,0E0,0E0,0E0],"parents":[2147483647,0,0,1,1,2,2,3,3],"right_children":[2,4,6,8,-1,-1,-1,-1,-1],"split_conditions":[1.621234E0,3.0694178E-1,1.4659128E0,-3.5449412E-1,-1.0121236E-2,1.45528745E-2,2.0435138E-3,-3.3865434E-3,5.888915E-3],"split_indices":[2,0,7,0,0,0,0,0,0],"split_type":[0,0,0,0,0,0,0,0,0],"sum_hessian":[1.3308095E1,1.055033E1,2.7577643E0,7.6438994E0,2.906431E0,1.1617705E0,1.595994E0,3.961045E0,3.6828544E0],"tree_param":{"num_deleted":"0","num_feature":"8","num_nodes":"9","size_leaf_vector":"1"}},{"base_weights":[-6.615477E-2,9.8885375E-1,-3.8630554E-1,1.4288794E-2,2.3302264E-3,-7.388467E-1,-8.780788E-2,-2.0865444E-3,-9.705018E-3,2.6421961E-3,-6.575481E-3],"categories":[],"categories_nodes":[],"categories_segments":[],"categories_sizes":[],"default_left":[0,0,0,0,0,0,0,0,0,0,0],"id":35,"left_children":[1,3,5,-1,-1,7,9,-1,-1,-1,-1],"loss_changes":[5.4080877E0,9.126575E-1,1.2121551E0,0E0,0E0,4.643116E-1,1.7193276E0,0E0,0E0,0E0,0E0],"parents":[2147483647,0,0,1,1,2,2,5,5,6,6],"right_children":[2,4,6,-1,-1,8,10,-1,-1,-1,-1],"split_conditions":[3.4990698E-1,-2.2006744E-1,1.1066645E0,1.4288794E-2,2.3302264E-3,-1.8785205E0,3.0694178E-1,-2.0865444E-3,-9.705018E-3,2.6421961E-3,-6.575481E-3],"split_indices":[6,0,2,0,0,4,0,0,0,0,0],"split_type":[0,0,0,0,0,0,0,0,0,0,0],"sum_hessian":[1.388057E1,2.7452617E0,1.1135309E1,1.1723024E0,1.5729594E0,4.429097E0,6.7062116E0,1.9247067E0,2.5043907E0,4.476528E0,2.2296834E0],"tree_param":{"num_deleted":"0","num_feature":"8","num_nodes":"11","size_leaf_vector":"1"}},{"base_weights":[3.0535713E-2,6.752641E-1,-5.080705E-1,1.1212487E0,-1.4406706E-1,-8.005004E-1,1.4713633E-1,1.4975971E-3,1.3826408E-2,-7.833926E-3,5.939473E-3,-1.0142399E-2,-2.395459E-3,5.9476146E-3,-3.547806E-3],"categories":[],"categories_nodes":[],"categories_segments":[],"categories_sizes":[],"default_left":[0,0,0,0,0,0,0,0,0,0,0,0,0,0,0],"id":36,"left_children":[1,3,5,7,9,11,13,-1,-1,-1,-1,-1,-1,-1,-1],"loss_changes":[5.386196E0,2.7338517E0,1.7431924E0,9.793892E-1,2.054123E0,4.7891164E-1,9.889475E-1,0E0,0E0,0E0,0E0,0E0,0E0,0E0,0E0],"parents":[2147483647,0,0,1,1,2,2,3,3,4,4,5,5,6,6],"right_children":[2,4,6,8,10,12,14,-1,-1,-1,-1,-1,-1,-1,-1],"split_conditions":[6.068108E-1,-6.7533635E-2,3.807406E-2,-9.102445E-1,9.451316E-1,-6.9721293E-1,1.4281485E0,1.4975971E-3,1.3826408E-2,-7.833926E-3,5.939473E-3,-1.0142399E-2,-2.395459E-3,5.9476146E-3,-3.547806E-3],"split_indices":[6,0,1,0,0,4,2,0,0,0,0,0,0,0,0],"split_type":[0,0,0,0,0,0,0,0,0,0,0,0,0,0,0],"sum_hessian":[1.352281E1,6.0395527E0,7.483257E0,3.6721869E0,2.3673656E0,5.0206876E0,2.4625695E0,1.1120555E0,2.5601313E0,1.2355494E0,1.1318161E0,3.0503554E0,1.9703321E0,1.2039075E0,1.2586621E0],"tree_param":{"num_deleted":"0","num_feature":"8","num_nodes":"15","size_leaf_vector":"1"}},{"base_weights":[-2.6084723E-2,3.1128737E-1,-7.1141785E-1,-4.722871E-3,4.975585E-1,-1.2298322E-3,-9.590757E-3,1.1715989E-2,1.255191E-3],"categories":[],"categories_nodes":[],"categories_segments":[],"categories_sizes":[],"default_left":[0,0,0,0,0,0,0,0,0],"id":37,"left_children":[1,3,5,-1,7,-1,-1,-1,-1],"loss_changes":[3.7394867E0,1.8247378E0,6.578791E-1,0E0,2.1818178E0,0E0,0E0,0E0,0E0],"parents":[2147483647,0,0,1,1,2,2,4,4],"right_children":[2,4,6,-1,8,-1,-1,-1,-1],"split_conditions":[7.669236E-1,1.1066645E0,-1.8785205E0,-4.722871E-3,-1.3567671E-1,-1.2298322E-3,-9.590757E-3,1.1715989E-2,1.255191E-3],"split_indices":[6,2,4,0,1,0,0,0,0],"split_type":[0,0,0,0,0,0,0,0,0],"sum_hessian":[1.4215591E1,9.891865E0,4.323727E0,1.6049491E0,8.286916E0,1.7240272E0,2.5996997E0,2.1829114E0,6.1040044E0],"tree_param":{"num_deleted":"0","num_feature":"8","num_nodes":"9","size_leaf_vector":"1"}},{"base_weights":[-1.1410417E-1,7.15335E-1,-5.301334E-1,1.1793866E-2,-3.03385E-5,-2.535273E-1,-9.636247E-3,-7.015403E-3,4.7166375E-3],"categories":[],"categories_nodes":[],"categories_segments":[],"categories_sizes":[],"default_left":[0,0,0,0,0,0,0,0,0],"id":38,"left_children":[1,3,5,-1,-1,7,-1,-1,-1],"loss_changes":[5.194516E0,1.6993594E0,9.3887854E-1,0E0,0E0,2.7288961E0,0E0,0E0,0E0],"parents":[2147483647,0,0,1,1,2,2,5,5],"right_children":[2,4,6,-1,-1,8,-1,-1,-1],"split_conditions":[4.769792E-1,-2.2006744E-1,3.0694178E-1,1.1793866E-2,-3.03385E-5,-2.247688E-1,-9.636247E-3,-7.015403E-3,4.7166375E-3],"split_indices":[6,0,0,0,0,0,0,0,0],"split_type":[0,0,0,0,0,0,0,0,0],"sum_hessian":[1.2954503E1,4.086933E0,8.86757E0,2.093086E0,1.9938471E0,6.380861E0,2.4867086E0,3.9643524E0,2.4165087E0],"tree_param":{"num_deleted":"0","num_feature":"8","num_nodes":"9","size_leaf_vector":"1"}},{"base_weights":[-9.366289E-2,1.0244962E0,-6.07545E-1,1.5781864E-3,1.2637504E-2,-9.3103075E-1,5.371056E-3,-1.0040326E-2,-2.2825582E-3],"categories":[],"categories_nodes":[],"categories_segments":[],"categories_sizes":[],"default_left":[0,0,0,0,0,0,0,0,0],"id":39,"left_children":[1,3,5,-1,-1,7,-1,-1,-1],"loss_changes":[8.060632E0,7.2292995E-1,4.0164876E0,0E0,0E0,1.6945839E-1,0E0,0E0,0E0],"parents":[2147483647,0,0,1,1,2,2,5,5],"right_children":[2,4,6,-1,-1,8,-1,-1,-1],"split_conditions":[4.769792E-1,-5.279157E-1,9.996282E-1,1.5781864E-3,1.2637504E-2,2.922589E-1,5.371056E-3,-1.0040326E-2,-2.2825582E-3],"split_indices":[6,7,7,0,0,5,0,0,0],"split_type":[0,0,0,0,0,0,0,0,0],"sum_hessian":[1.1944969E1,3.4482536E0,8.496716E0,1.1050249E0,2.3432288E0,6.770073E0,1.7266425E0,5.744668E0,1.0254048E0],"tree_param":{"num_deleted":"0","num_feature":"8","num_nodes":"9","size_leaf_vector":"1"}},{"base_weights":[1.7665295E-2,-3.8713408E-1,9.0505946E-1,3.7023604E-2,-8.9034665E-1,1.2542852E-2,2.6074902E-3,-4.1008494E-3,9.024942E-3,-2.7992385E-3,-9.999519E-3],"categories":[],"categories_nodes":[],"categories_segments":[],"categories_sizes":[],"default_left":[0,0,0,0,0,0,0,0,0,0,0],"id":40,"left_children":[1,3,5,7,9,-1,-1,-1,-1,-1,-1],"loss_changes":[5.848559E0,2.4259813E0,8.1924534E-1,3.0957413E0,6.584692E-2,0E0,0E0,0E0,0E0,0E0,0E0],"parents":[2147483647,0,0,1,1,2,2,3,3,4,4],"right_children":[2,4,6,8,10,-1,-1,-1,-1,-1,-1],"split_conditions":[1.2507635E0,-6.7533635E-2,1.4659128E0,-3.5449412E-1,-7.3247594E-1,1.2542852E-2,2.6074902E-3,-4.1008494E-3,9.024942E-3,-2.7992385E-3,-9.999519E-3],"split_indices":[7,0,7,0,7,0,0,0,0,0,0],"split_type":[0,0,0,0,0,0,0,0,0,0,0],"sum_hessian":[1.4306029E1,1.0211587E1,4.094442E0,6.0437436E0,4.1678433E0,2.0413115E0,2.0531304E0,4.331981E0,1.7117623E0,1.175436E0,2.9924073E0],"tree_param":{"num_deleted":"0","num_feature":"8","num_nodes":"11","size_leaf_vector":"1"}},{"base_weights":[5.113756E-2,-3.330116E-1,9.26546E-1,1.7718494E-1,-1.0531429E-2,1.4510394E-2,6.9485017E-4,1.1001452E-2,-6.114715E-3],"categories":[],"categories_nodes":[],"categories_segments":[],"categories_sizes":[],"default_left":[0,0,0,0,0,0,0,0,0],"id":41,"left_children":[1,3,5,7,-1,-1,-1,-1,-1],"loss_changes":[5.138734E0,4.1245804E0,1.9872084E0,5.862305E0,0E0,0E0,0E0,0E0,0E0],"parents":[2147483647,0,0,1,1,2,2,3,3],"right_children":[2,4,6,8,-1,-1,-1,-1,-1],"split_conditions":[1.2507635E0,-1.9629627E-1,1.4659128E0,-6.7533635E-2,-1.0531429E-2,1.4510394E-2,6.9485017E-4,1.1001452E-2,-6.114715E-3],"split_indices":[7,7,7,0,0,0,0,0,0],"split_type":[0,0,0,0,0,0,0,0,0],"sum_hessian":[1.336326E1,9.71826E0,3.6450007E0,6.129561E0,3.5886986E0,1.8312775E0,1.8137232E0,2.642314E0,3.487247E0],"tree_param":{"num_deleted":"0","num_feature":"8","num_nodes":"9","size_leaf_vector":"1"}},{"base_weights":[-6.51155E-2,-5.3145486E-1,7.972717E-1,-1.168264E-1,-1.0195589E-2,1.2397327E-2,1.4175928E-1,2.7139126E-3,-6.065049E-3,-3.2679664E-3,5.3465567E-3],"categories":[],"categories_nodes":[],"categories_segments":[],"categories_sizes":[],"default_left":[0,0,0,0,0,0,0,0,0,0,0],"id":42,"left_children":[1,3,5,7,-1,-1,9,-1,-1,-1,-1],"loss_changes":[6.0650973E0,1.8448734E0,1.3681834E0,1.3767887E0,0E0,0E0,7.7749157E-1,0E0,0E0,0E0,0E0],"parents":[2147483647,0,0,1,1,2,2,3,3,6,6],"right_children":[2,4,6,8,-1,-1,10,-1,-1,-1,-1],"split_conditions":[9.996282E-1,6.9771737E-1,1.9504223E0,-6.7533635E-2,-1.0195589E-2,1.2397327E-2,1.9028656E-1,2.7139126E-3,-6.065049E-3,-3.2679664E-3,5.3465567E-3],"split_indices":[7,3,5,0,0,0,4,0,0,0,0],"split_type":[0,0,0,0,0,0,0,0,0,0,0],"sum_hessian":[1.302753E1,8.704354E0,4.323175E0,5.3765216E0,3.327833E0,2.0489337E0,2.2742412E0,3.2475984E0,2.1289232E0,1.1139802E0,1.1602609E0],"tree_param":{"num_deleted":"0","num_feature":"8","num_nodes":"11","size_leaf_vector":"1"}},{"base_weights":[1.2663281E-1,9.080731E-1,-5.2332175E-1,1.49308955E-2,1.0082371E-1,-7.63543E-1,4.866183E-3,-4.4769435E-3,5.795809E-3,-2.5763474E-3,-1.0348492E-2],"categories":[],"categories_nodes":[],"categories_segments":[],"categories_sizes":[],"default_left":[0,0,0,0,0,0,0,0,0,0,0],"id":43,"left_children":[1,3,5,-1,7,9,-1,-1,-1,-1,-1],"loss_changes":[8.017329E0,3.2064166E0,2.4922533E0,0E0,1.3254709E0,7.5605726E-1,0E0,0E0,0E0,0E0,0E0],"parents":[2147483647,0,0,1,1,2,2,4,4,5,5],"right_children":[2,4,6,-1,8,10,-1,-1,-1,-1,-1],"split_conditions":[6.068108E-1,-2.2006744E-1,9.996282E-1,1.49308955E-2,5.1252836E-1,-3.4123293E-1,4.866183E-3,-4.4769435E-3,5.795809E-3,-2.5763474E-3,-1.0348492E-2],"split_indices":[6,0,7,0,1,1,0,0,0,0,0],"split_type":[0,0,0,0,0,0,0,0,0,0,0],"sum_hessian":[1.3849585E1,6.108365E0,7.7412195E0,3.0490828E0,3.059282E0,6.4508195E0,1.2904004E0,1.4560034E0,1.6032788E0,2.9323804E0,3.5184388E0],"tree_param":{"num_deleted":"0","num_feature":"8","num_nodes":"11","size_leaf_vector":"1"}},{"base_weights":[1.1019446E-1,9.106379E-1,-3.5914764E-1,-3.8690881E-3,1.363364E0,2.8481457E-2,-7.172237E-1,1.641129E-2,5.3587793E-3,-3.6449349E-3,6.5232026E-3,-9.827983E-3,1.3438356E-4],"categories":[],"categories_nodes":[],"categories_segments":[],"categories_sizes":[],"default_left":[0,0,0,0,0,0,0,0,0,0,0,0,0],"id":44,"left_children":[1,3,5,-1,7,9,11,-1,-1,-1,-1,-1,-1],"loss_changes":[5.968618E0,3.9542437E0,1.433897E0,0E0,1.653471E-1,1.672338E0,1.0477998E0,0E0,0E0,0E0,0E0,0E0,0E0],"parents":[2147483647,0,0,1,1,2,2,4,4,5,5,6,6],"right_children":[2,4,6,-1,8,10,12,-1,-1,-1,-1,-1,-1],"split_conditions":[4.769792E-1,-7.897802E-1,-6.7533635E-2,-3.8690881E-3,1.4659128E0,-3.5449412E-1,1.1948466E0,1.641129E-2,5.3587793E-3,-3.6449349E-3,6.5232026E-3,-9.827983E-3,1.3438356E-4],"split_indices":[6,7,0,0,7,0,2,0,0,0,0,0,0],"split_type":[0,0,0,0,0,0,0,0,0,0,0,0,0],"sum_hessian":[1.4016869E1,4.8334227E0,9.183446E0,1.2878184E0,3.5456045E0,4.851739E0,4.3317065E0,1.9183831E0,1.6272212E0,3.2317111E0,1.6200278E0,2.923881E0,1.4078255E0],"tree_param":{"num_deleted":"0","num_feature":"8","num_nodes":"13","size_leaf_vector":"1"}},{"base_weights":[1.4774773E-1,5.223796E-1,-6.673008E-1,-9.491668E-2,7.8926766E-1,-8.433132E-3,-3.092789E-3,7.3791477E-3,-8.572688E-3,1.0007728E-2,-2.5608917E-3],"categories":[],"categories_nodes":[],"categories_segments":[],"categories_sizes":[],"default_left":[0,0,0,0,0,0,0,0,0,0,0],"id":45,"left_children":[1,3,5,7,9,-1,-1,-1,-1,-1,-1],"loss_changes":[4.816342E0,1.818819E0,5.72052E-2,3.2279565E0,1.9139624E0,0E0,0E0,0E0,0E0,0E0,0E0],"parents":[2147483647,0,0,1,1,2,2,3,3,4,4],"right_children":[2,4,6,8,10,-1,-1,-1,-1,-1,-1],"split_conditions":[7.669236E-1,-5.303898E-1,1.8055638E0,-8.964816E-1,8.065678E-1,-8.433132E-3,-3.092789E-3,7.3791477E-3,-8.572688E-3,1.0007728E-2,-2.5608917E-3],"split_indices":[6,7,3,7,1,0,0,0,0,0,0],"split_type":[0,0,0,0,0,0,0,0,0,0,0],"sum_hessian":[1.3631922E1,9.585218E0,4.046703E0,3.087763E0,6.497455E0,1.8042234E0,2.2424796E0,1.4909884E0,1.5967748E0,5.4395337E0,1.0579215E0],"tree_param":{"num_deleted":"0","num_feature":"8","num_nodes":"11","size_leaf_vector":"1"}},{"base_weights":[1.1022751E-1,-3.856448E-1,1.6462302E-2,5.3811297E-2,-8.929309E-1,-6.1898967E-3,4.552718E-3,-2.6571618E-3,-1.0046032E-2],"categories":[],"categories_nodes":[],"categories_segments":[],"categories_sizes":[],"default_left":[0,0,0,0,0,0,0,0,0],"id":46,"left_children":[1,3,-1,5,7,-1,-1,-1,-1],"loss_changes":[1.1172829E1,2.5602922E0,0E0,2.167521E0,1.0342741E-1,0E0,0E0,0E0,0E0],"parents":[2147483647,0,0,1,1,3,3,4,4],"right_children":[2,4,-1,6,8,-1,-1,-1,-1],"split_conditions":[1.2507635E0,-1.6244769E-1,1.6462302E-2,-8.066708E-1,-6.6720027E-1,-6.1898967E-3,4.552718E-3,-2.6571618E-3,-1.0046032E-2],"split_indices":[7,0,0,0,7,0,0,0,0],"split_type":[0,0,0,0,0,0,0,0,0],"sum_hessian":[1.28355055E1,1.0269199E1,2.5663064E0,5.9814563E0,4.287743E0,2.0328283E0,3.9486282E0,1.1587846E0,3.1289585E0],"tree_param":{"num_deleted":"0","num_feature":"8","num_nodes":"9","size_leaf_vector":"1"}},{"base_weights":[1.2673819E-1,4.9173024E-1,-7.801715E-1,-1.4325589E-1,8.054322E-1,-9.034097E-3,-2.2086164E-3,3.6207398E-3,-7.700934E-3,9.263124E-3,9.6346735E-4],"categories":[],"categories_nodes":[],"categories_segments":[],"categories_sizes":[],"default_left":[0,0,0,0,0,0,0,0,0,0,0],"id":47,"left_children":[1,3,5,7,9,-1,-1,-1,-1,-1,-1],"loss_changes":[4.880241E0,2.1669998E0,9.581852E-2,1.6265526E0,5.145898E-1,0E0,0E0,0E0,0E0,0E0,0E0],"parents":[2147483647,0,0,1,1,2,2,3,3,4,4],"right_children":[2,4,6,8,10,-1,-1,-1,-1,-1,-1],"split_conditions":[7.669236E-1,-1.1158294E-1,-1.4552082E-1,-3.1702915E-1,2.1277955E0,-9.034097E-3,-2.2086164E-3,3.6207398E-3,-7.700934E-3,9.263124E-3,9.6346735E-4],"split_indices":[6,5,1,5,5,0,0,0,0,0,0],"split_type":[0,0,0,0,0,0,0,0,0,0,0],"sum_hessian":[1.2584307E1,9.299468E0,3.284839E0,3.2547128E0,6.044755E0,2.1876013E0,1.0972376E0,2.0358648E0,1.218848E0,4.902637E0,1.1421179E0],"tree_param":{"num_deleted":"0","num_feature":"8","num_nodes":"11","size_leaf_vector":"1"}},{"base_weights":[2.1599677E-1,1.0689467E0,-4.169882E-1,1.3010462E-2,2.255216E-3,-2.0039134E-2,-7.9757196E-1,-5.6463648E-3,4.314666E-3,-9.240457E-3,-2.1094715E-3],"categories":[],"categories_nodes":[],"categories_segments":[],"categories_sizes":[],"default_left":[0,0,0,0,0,0,0,0,0,0,0],"id":48,"left_children":[1,3,5,-1,-1,7,9,-1,-1,-1,-1],"loss_changes":[8.0102825E0,9.298892E-1,1.3076905E0,0E0,0E0,1.5503953E0,1.350367E-1,0E0,0E0,0E0,0E0],"parents":[2147483647,0,0,1,1,2,2,5,5,6,6],"right_children":[2,4,6,-1,-1,8,10,-1,-1,-1,-1],"split_conditions":[6.068108E-1,3.8135082E-1,7.669236E-1,1.3010462E-2,2.255216E-3,6.551399E-1,-1.9795015E-1,-5.6463648E-3,4.314666E-3,-9.240457E-3,-2.1094715E-3],"split_indices":[6,3,6,0,0,6,1,0,0,0,0],"split_type":[0,0,0,0,0,0,0,0,0,0,0],"sum_hessian":[1.3010894E1,5.2490444E0,7.7618494E0,3.690808E0,1.5582367E0,4.3144884E0,3.4473605E0,1.842064E0,2.4724245E0,2.362768E0,1.0845927E0],"tree_param":{"num_deleted":"0","num_feature":"8","num_nodes":"11","size_leaf_vector":"1"}},{"base_weights":[4.712915E-2,8.468823E-1,-4.478155E-1,1.1783754E0,-2.8522057E-3,2.0402872E-3,-5.673398E-1,1.5484844E-2,6.3309574E-4,-1.5960398E-4,-8.894731E-3],"categories":[],"categories_nodes":[],"categories_segments":[],"categories_sizes":[],"default_left":[0,0,0,0,0,0,0,0,0,0,0],"id":49,"left_children":[1,3,5,7,-1,-1,9,-1,-1,-1,-1],"loss_changes":[5.7926197E0,2.427924E0,8.248935E-1,1.7617369E0,0E0,0E0,1.3989398E0,0E0,0E0,0E0,0E0],"parents":[2147483647,0,0,1,1,2,2,3,3,6,6],"right_children":[2,4,6,8,-1,-1,10,-1,-1,-1,-1],"split_conditions":[6.068108E-1,3.8135082E-1,-8.442746E-1,2.0891998E0,-2.8522057E-3,2.0402872E-3,-3.2133338E-1,1.5484844E-2,6.3309574E-4,-1.5960398E-4,-8.894731E-3],"split_indices":[6,3,5,5,0,0,7,0,0,0,0],"split_type":[0,0,0,0,0,0,0,0,0,0,0],"sum_hessian":[1.2675881E1,4.5739803E0,8.101901E0,3.506394E0,1.0675865E0,1.1458457E0,6.9560556E0,2.3407621E0,1.1656318E0,2.9522998E0,4.003756E0],"tree_param":{"num_deleted":"0","num_feature":"8","num_nodes":"11","size_leaf_vector":"1"}},{"base_weights":[9.5240094E-2,8.964046E-1,-3.1805447E-1,-2.8843563E-3,1.2591443E0,4.7659606E-2,-8.26373E-1,1.5875021E-2,3.2988556E-3,-4.9857697E-3,3.2661792E-3,-9.444224E-3,-2.0571512E-3],"categories":[],"categories_nodes":[],"categories_segments":[],"categories_sizes":[],"default_left":[0,0,0,0,0,0,0,0,0,0,0,0,0],"id":50,"left_children":[1,3,5,-1,7,9,11,-1,-1,-1,-1,-1,-1],"loss_changes":[5.304013E0,2.6927066E0,2.035448E0,0E0,7.993784E-1,1.2584484E0,1.3888788E-1,0E0,0E0,0E0,0E0,0E0,0E0],"parents":[2147483647,0,0,1,1,2,2,4,4,5,5,6,6],"right_children":[2,4,6,-1,8,10,12,-1,-1,-1,-1,-1,-1],"split_conditions":[4.769792E-1,-7.897802E-1,3.0694178E-1,-2.8843563E-3,7.428102E-1,-1.1218681E0,1.713422E-1,1.5875021E-2,3.2988556E-3,-4.9857697E-3,3.2661792E-3,-9.444224E-3,-2.0571512E-3],"split_indices":[6,7,0,0,0,2,1,0,0,0,0,0,0],"split_type":[0,0,0,0,0,0,0,0,0,0,0,0,0],"sum_hessian":[1.4157506E1,4.4201655E0,9.73734E0,1.0840626E0,3.336103E0,6.1900773E0,3.5472631E0,1.9416566E0,1.3944464E0,1.8264229E0,4.363654E0,2.5421062E0,1.005157E0],"tree_param":{"num_deleted":"0","num_feature":"8","num_nodes":"13","size_leaf_vector":"1"}},{"base_weights":[1.1363836E-1,-2.6065463E-1,1.2853539E-2,2.7862054E-1,-9.135277E-1,-8.9271215E-4,9.180612E-3,-2.2684776E-3,-1.0360213E-2],"categories":[],"categories_nodes":[],"categories_segments":[],"categories_sizes":[],"default_left":[0,0,0,0,0,0,0,0,0],"id":51,"left_children":[1,3,-1,5,7,-1,-1,-1,-1],"loss_changes":[6.57568E0,4.3442855E0,0E0,1.7587234E0,2.2662354E-1,0E0,0E0,0E0,0E0],"parents":[2147483647,0,0,1,1,3,3,4,4],"right_children":[2,4,-1,6,8,-1,-1,-1,-1],"split_conditions":[1.621234E0,-1.6244769E-1,1.2853539E-2,-3.6776945E-1,-2.6122743E-1,-8.9271215E-4,9.180612E-3,-2.2684776E-3,-1.0360213E-2],"split_indices":[2,0,0,0,1,0,0,0,0],"split_type":[0,0,0,0,0,0,0,0,0],"sum_hessian":[1.3229697E1,1.0616049E1,2.6136477E0,6.127749E0,4.4883E0,4.435975E0,1.6917741E0,1.11117E0,3.37713E0],"tree_param":{"num_deleted":"0","num_feature":"8","num_nodes":"9","size_leaf_vector":"1"}},{"base_weights":[-1.2595624E-1,4.6520343E-1,-5.8776224E-1,9.689635E-3,-2.3763774E-1,2.072507E-3,-7.4555725E-1,5.11434E-3,-8.160963E-3,-1.0521857E-2,-1.5470042E-4],"categories":[],"categories_nodes":[],"categories_segments":[],"categories_sizes":[],"default_left":[0,0,0,0,0,0,0,0,0,0,0],"id":52,"left_children":[1,3,5,-1,7,-1,9,-1,-1,-1,-1],"loss_changes":[4.06329E0,2.5835834E0,1.1876671E0,0E0,1.9677669E0,0E0,1.5707552E0,0E0,0E0,0E0,0E0],"parents":[2147483647,0,0,1,1,2,2,4,4,6,6],"right_children":[2,4,6,-1,8,-1,10,-1,-1,-1,-1],"split_conditions":[6.068108E-1,-6.7533635E-2,-3.7707967E-1,9.689635E-3,-4.5645875E-1,2.072507E-3,7.8832614E-1,5.11434E-3,-8.160963E-3,-1.0521857E-2,-1.5470042E-4],"split_indices":[6,0,1,0,3,0,7,0,0,0,0],"split_type":[0,0,0,0,0,0,0,0,0,0,0],"sum_hessian":[1.2882222E1,5.646613E0,7.2356086E0,3.0685782E0,2.578035E0,1.1463879E0,6.0892205E0,1.1738422E0,1.4041929E0,3.9775257E0,2.1116948E0],"tree_param":{"num_deleted":"0","num_feature":"8","num_nodes":"11","size_leaf_vector":"1"}},{"base_weights":[1.8920639E-1,5.105039E-1,-6.2362874E-1,6.547137E-1,-3.6632381E-3,-2.2673649E-3,-8.308981E-3,9.79013E-3,-1.0557004E-3],"categories":[],"categories_nodes":[],"categories_segments":[],"categories_sizes":[],"default_left":[0,0,0,0,0,0,0,0,0],"id":53,"left_children":[1,3,5,7,-1,-1,-1,-1,-1],"loss_changes":[4.3169184E0,1.696892E0,2.0545006E-1,2.6316533E0,0E0,0E0,0E0,0E0,0E0],"parents":[2147483647,0,0,1,1,2,2,3,3],"right_children":[2,4,6,8,-1,-1,-1,-1,-1],"split_conditions":[7.669236E-1,8.065678E-1,-1.8785205E0,3.0694178E-1,-3.6632381E-3,-2.2673649E-3,-8.308981E-3,9.79013E-3,-1.0557004E-3],"split_indices":[6,1,4,0,0,0,0,0,0],"split_type":[0,0,0,0,0,0,0,0,0],"sum_hessian":[1.4310633E1,1.0523034E1,3.7875984E0,9.254314E0,1.26872E0,2.0177696E0,1.7698288E0,6.285526E0,2.9687881E0],"tree_param":{"num_deleted":"0","num_feature":"8","num_nodes":"9","size_leaf_vector":"1"}},{"base_weights":[-4.829174E-2,-4.0074888E-1,9.3696594E-1,1.2044786E-1,-1.0670475E-2,1.278526E-2,4.7053015E-4,-5.779198E-3,4.674909E-3],"categories":[],"categories_nodes":[],"categories_segments":[],"categories_sizes":[],"default_left":[0,0,0,0,0,0,0,0,0],"id":54,"left_children":[1,3,5,7,-1,-1,-1,-1,-1],"loss_changes":[5.3743467E0,4.053658E0,1.183749E0,2.0250046E0,0E0,0E0,0E0,0E0,0E0],"parents":[2147483647,0,0,1,1,2,2,3,3],"right_children":[2,4,6,8,-1,-1,-1,-1,-1],"split_conditions":[1.621234E0,-6.7533635E-2,2.1277955E0,-8.066708E-1,-1.0670475E-2,1.278526E-2,4.7053015E-4,-5.779198E-3,4.674909E-3],"split_indices":[2,0,5,0,0,0,0,0,0],"split_type":[0,0,0,0,0,0,0,0,0],"sum_hessian":[1.3395102E1,1.0302746E1,3.092356E0,6.2404923E0,4.0622535E0,1.9190959E0,1.1732601E0,1.850797E0,4.389695E0],"tree_param":{"num_deleted":"0","num_feature":"8","num_nodes":"9","size_leaf_vector":"1"}},{"base_weights":[-5.6113306E-2,7.333318E-1,-4.3784532E-1,-2.6816635E-3,1.0777723E0,1.8358494E-1,-6.579157E-1,1.437131E-2,2.6860726E-3,-3.962046E-3,7.853142E-3,-8.299981E-3,2.0268818E-3],"categories":[],"categories_nodes":[],"categories_segments":[],"categories_sizes":[],"default_left":[0,0,0,0,0,0,0,0,0,0,0,0,0],"id":55,"left_children":[1,3,5,-1,7,9,11,-1,-1,-1,-1,-1,-1],"loss_changes":[4.5388765E0,1.9916224E0,1.4966166E0,0E0,7.3983145E-1,1.501799E0,1.3007853E0,0E0,0E0,0E0,0E0,0E0,0E0],"parents":[2147483647,0,0,1,1,2,2,4,4,5,5,6,6],"right_children":[2,4,6,-1,8,10,12,-1,-1,-1,-1,-1,-1],"split_conditions":[4.7677374E-1,-8.6623085E-1,-7.3247594E-1,-2.6816635E-3,5.1922625E-1,-3.428266E-1,1.2507635E0,1.437131E-2,2.6860726E-3,-3.962046E-3,7.853142E-3,-8.299981E-3,2.0268818E-3],"split_indices":[6,7,7,0,1,1,7,0,0,0,0,0,0],"split_type":[0,0,0,0,0,0,0,0,0,0,0,0,0],"sum_hessian":[1.2996017E1,3.935695E0,9.060322E0,1.0638573E0,2.8718376E0,2.412825E0,6.647497E0,1.4512538E0,1.4205838E0,1.4027641E0,1.010061E0,5.5694237E0,1.0780735E0],"tree_param":{"num_deleted":"0","num_feature":"8","num_nodes":"13","size_leaf_vector":"1"}},{"base_weights":[-1.2663658E-1,6.289604E-1,-7.035158E-1,1.0300169E0,-1.0897091E-1,-1.490564E-3,-8.363329E-1,4.2750454E-4,1.3796721E-2,-7.137467E-3,5.0202124E-3,-9.199421E-3,-2.2124078E-3],"categories":[],"categories_nodes":[],"categories_segments":[],"categories_sizes":[],"default_left":[0,0,0,0,0,0,0,0,0,0,0,0,0],"id":56,"left_children":[1,3,5,7,9,-1,11,-1,-1,-1,-1,-1,-1],"loss_changes":[6.4709244E0,2.0405512E0,4.8764324E-1,1.4312692E0,1.5402342E0,0E0,1.3028336E-1,0E0,0E0,0E0,0E0,0E0,0E0],"parents":[2147483647,0,0,1,1,2,2,3,3,4,4,6,6],"right_children":[2,4,6,8,10,-1,12,-1,-1,-1,-1,-1,-1],"split_conditions":[6.068108E-1,-6.7533635E-2,-1.8785205E0,-9.102445E-1,1.6720865E0,-1.490564E-3,1.1566949E0,4.2750454E-4,1.3796721E-2,-7.137467E-3,5.0202124E-3,-9.199421E-3,-2.2124078E-3],"split_indices":[6,0,4,0,2,0,0,0,0,0,0,0,0],"split_type":[0,0,0,0,0,0,0,0,0,0,0,0,0],"sum_hessian":[1.2830246E1,5.5156116E0,7.3146343E0,3.3170302E0,2.1985815E0,1.8236938E0,5.4909406E0,1.1610421E0,2.155988E0,1.0203934E0,1.1781882E0,4.3975644E0,1.0933758E0],"tree_param":{"num_deleted":"0","num_feature":"8","num_nodes":"13","size_leaf_vector":"1"}},{"base_weights":[-5.6126416E-2,-4.587049E-1,8.010872E-1,-1.0316025E-2,2.8091494E-2,1.4055139E-2,1.0880227E-1,8.746198E-3,-3.6135467E-3,5.1887417E-3,-3.5799544E-3],"categories":[],"categories_nodes":[],"categories_segments":[],"categories_sizes":[],"default_left":[0,0,0,0,0,0,0,0,0,0,0],"id":57,"left_children":[1,3,5,-1,7,-1,9,-1,-1,-1,-1],"loss_changes":[5.104565E0,2.8111982E0,1.8349302E0,0E0,2.4150705E0,0E0,8.1711835E-1,0E0,0E0,0E0,0E0],"parents":[2147483647,0,0,1,1,2,2,4,4,6,6],"right_children":[2,4,6,-1,8,-1,10,-1,-1,-1,-1],"split_conditions":[1.2507635E0,1.0926934E0,-2.2006744E-1,-1.0316025E-2,1.1471543E0,1.4055139E-2,2.0703707E0,8.746198E-3,-3.6135467E-3,5.1887417E-3,-3.5799544E-3],"split_indices":[7,2,0,0,2,0,5,0,0,0,0],"split_type":[0,0,0,0,0,0,0,0,0,0,0],"sum_hessian":[1.2726921E1,8.976242E0,3.750679E0,3.6093404E0,5.366902E0,1.4523735E0,2.2983055E0,1.2985263E0,4.0683756E0,1.164104E0,1.1342016E0],"tree_param":{"num_deleted":"0","num_feature":"8","num_nodes":"11","size_leaf_vector":"1"}},{"base_weights":[1.2713961E-1,-1.6532834E-1,9.169522E-1,2.0292127E-1,-4.5058414E-1,1.2573388E-2,3.797034E-4,-2.1079157E-3,9.217018E-3,3.937342E-3,-7.297818E-3],"categories":[],"categories_nodes":[],"categories_segments":[],"categories_sizes":[],"default_left":[0,0,0,0,0,0,0,0,0,0,0],"id":58,"left_children":[1,3,5,7,9,-1,-1,-1,-1,-1,-1],"loss_changes":[3.52876E0,1.3011863E0,1.1800256E0,1.8941796E0,1.8903252E0,0E0,0E0,0E0,0E0,0E0,0E0],"parents":[2147483647,0,0,1,1,2,2,3,3,4,4],"right_children":[2,4,6,8,10,-1,-1,-1,-1,-1,-1],"split_conditions":[1.621234E0,-3.0537316E-1,2.1277955E0,-1.1158294E-1,6.352265E-1,1.2573388E-2,3.797034E-4,-2.1079157E-3,9.217018E-3,3.937342E-3,-7.297818E-3],"split_indices":[2,7,5,5,6,0,0,0,0,0,0],"split_type":[0,0,0,0,0,0,0,0,0,0,0],"sum_hessian":[1.3620072E1,1.0516487E1,3.1035857E0,4.716447E0,5.8000402E0,1.9269304E0,1.1766554E0,3.4420326E0,1.2744141E0,1.3393856E0,4.4606547E0],"tree_param":{"num_deleted":"0","num_feature":"8","num_nodes":"11","size_leaf_vector":"1"}},{"base_weights":[6.557084E-2,8.5745424E-1,-4.4786575E-1,1.16054835E-2,9.888447E-4,-9.341283E-3,-1.1159574E-1,-5.5085667E-3,1.8865592E-3],"categories":[],"categories_nodes":[],"categories_segments":[],"categories_sizes":[],"default_left":[0,0,0,0,0,0,0,0,0],"id":59,"left_children":[1,3,5,-1,-1,-1,7,-1,-1],"loss_changes":[6.0866275E0,1.2325616E0,1.3944916E0,0E0,0E0,0E0,9.683527E-1,0E0,0E0],"parents":[2147483647,0,0,1,1,2,2,6,6],"right_children":[2,4,6,-1,-1,-1,8,-1,-1],"split_conditions":[6.068108E-1,-2.2006744E-1,-7.9568595E-1,1.16054835E-2,9.888447E-4,-9.341283E-3,-3.428266E-1,-5.5085667E-3,1.8865592E-3],"split_indices":[6,0,2,0,0,0,1,0,0],"split_type":[0,0,0,0,0,0,0,0,0],"sum_hessian":[1.3025718E1,4.860006E0,8.165712E0,3.0938933E0,1.7661126E0,2.611478E0,5.554234E0,1.9162121E0,3.6380222E0],"tree_param":{"num_deleted":"0","num_feature":"8","num_nodes":"9","size_leaf_vector":"1"}},{"base_weights":[5.7385728E-2,-2.7437943E-1,1.0541413E-2,6.441658E-2,-9.800886E-3,3.4466486E-3,-5.656735E-3],"categories":[],"categories_nodes":[],"categories_segments":[],"categories_sizes":[],"default_left":[0,0,0,0,0,0,0],"id":60,"left_children":[1,3,-1,5,-1,-1,-1],"loss_changes":[5.1507115E0,2.889986E0,0E0,1.7712462E0,0E0,0E0,0E0],"parents":[2147483647,0,0,1,1,3,3],"right_children":[2,4,-1,6,-1,-1,-1],"split_conditions":[1.621234E0,3.0694178E-1,1.0541413E-2,7.669236E-1,-9.800886E-3,3.4466486E-3,-5.656735E-3],"split_indices":[2,0,0,6,0,0,0],"split_type":[0,0,0,0,0,0,0],"sum_hessian":[1.3701066E1,1.0823308E1,2.8777575E0,7.9266243E0,2.8966837E0,5.7999454E0,2.126679E0],"tree_param":{"num_deleted":"0","num_feature":"8","num_nodes":"7","size_leaf_vector":"1"}},{"base_weights":[-4.738597E-3,1.0763738E-2,-2.8813013E-1,8.002045E-2,-4.227684E-1,-3.4707722E-3,6.533078E-3,1.1515358E-3,-5.938935E-3],"categories":[],"categories_nodes":[],"categories_segments":[],"categories_sizes":[],"default_left":[0,0,0,0,0,0,0,0,0],"id":61,"left_children":[1,-1,3,5,7,-1,-1,-1,-1],"loss_changes":[4.647166E0,0E0,6.2886673E-1,1.219733E0,8.921772E-1,0E0,0E0,0E0,0E0],"parents":[2147483647,0,0,2,2,3,3,4,4],"right_children":[2,-1,4,6,8,-1,-1,-1,-1],"split_conditions":[3.872959E-1,1.0763738E-2,6.068108E-1,5.063676E-1,-1.8492354E0,-3.4707722E-3,6.533078E-3,1.1515358E-3,-5.938935E-3],"split_indices":[6,0,6,6,4,0,0,0,0],"split_type":[0,0,0,0,0,0,0,0,0],"sum_hessian":[1.3155809E1,2.1511574E0,1.1004652E1,3.0554872E0,7.9491644E0,1.977121E0,1.0783663E0,1.9974319E0,5.9517326E0],"tree_param":{"num_deleted":"0","num_feature":"8","num_nodes":"9","size_leaf_vector":"1"}},{"base_weights":[3.8673636E-2,-4.125419E-1,1.0334399E0,8.633117E-2,-1.0020413E-2,1.5987677E-2,-9.3119097E-4,-8.429808E-3,5.8955657E-3],"categories":[],"categories_nodes":[],"categories_segments":[],"categories_sizes":[],"default_left":[0,0,0,0,0,0,0,0,0],"id":62,"left_children":[1,3,5,7,-1,-1,-1,-1,-1],"loss_changes":[6.206041E0,2.901836E0,2.8896122E0,3.3523974E0,0E0,0E0,0E0,0E0,0E0],"parents":[2147483647,0,0,1,1,2,2,3,3],"right_children":[2,4,6,8,-1,-1,-1,-1,-1],"split_conditions":[1.2507635E0,-1.843211E-1,2.1277955E0,-8.066708E-1,-1.0020413E-2,1.5987677E-2,-9.3119097E-4,-8.429808E-3,5.8955657E-3],"split_indices":[7,0,5,0,0,0,0,0,0],"split_type":[0,0,0,0,0,0,0,0,0],"sum_hessian":[1.1876579E1,8.573168E0,3.3034112E0,5.105831E0,3.4673367E0,1.920506E0,1.3829054E0,1.5564193E0,3.549412E0],"tree_param":{"num_deleted":"0","num_feature":"8","num_nodes":"9","size_leaf_vector":"1"}},{"base_weights":[1.848758E-1,4.9090403E-1,-7.171443E-1,7.414759E-1,-1.1927655E-1,-2.0805155E-3,-8.35828E-3,9.304316E-3,-9.25914E-4,6.6148955E-3,-6.1408365E-3],"categories":[],"categories_nodes":[],"categories_segments":[],"categories_sizes":[],"default_left":[0,0,0,0,0,0,0,0,0,0,0],"id":63,"left_children":[1,3,5,7,9,-1,-1,-1,-1,-1,-1],"loss_changes":[4.219607E0,1.7786949E0,6.510663E-2,1.3430905E0,1.9822935E0,0E0,0E0,0E0,0E0,0E0,0E0],"parents":[2147483647,0,0,1,1,2,2,3,3,4,4],"right_children":[2,4,6,8,10,-1,-1,-1,-1,-1,-1],"split_conditions":[7.669236E-1,1.1283831E-1,-7.5417703E-1,2.1277955E0,-5.2960366E-1,-2.0805155E-3,-8.35828E-3,9.304316E-3,-9.25914E-4,6.6148955E-3,-6.1408365E-3],"split_indices":[6,3,5,5,5,0,0,0,0,0,0],"split_type":[0,0,0,0,0,0,0,0,0,0,0],"sum_hessian":[1.3010677E1,1.0055068E1,2.9556088E0,6.975423E0,3.0796454E0,1.0792346E0,1.8763741E0,5.5928435E0,1.3825794E0,1.0639515E0,2.015694E0],"tree_param":{"num_deleted":"0","num_feature":"8","num_nodes":"11","size_leaf_vector":"1"}},{"base_weights":[9.517213E-2,5.027518E-1,-5.084959E-1,6.9040394E-1,-3.63004E-3,-6.2298555E-2,-8.977104E-3,1.1046318E-2,-4.686982E-4,2.6291078E-3,-3.7323143E-3],"categories":[],"categories_nodes":[],"categories_segments":[],"categories_sizes":[],"default_left":[0,0,0,0,0,0,0,0,0,0,0],"id":64,"left_children":[1,3,5,7,-1,9,-1,-1,-1,-1,-1],"loss_changes":[3.7669864E0,1.7163601E0,1.0293391E0,2.4215305E0,0E0,5.0118554E-1,0E0,0E0,0E0,0E0,0E0],"parents":[2147483647,0,0,1,1,2,2,3,3,5,5],"right_children":[2,4,6,8,-1,10,-1,-1,-1,-1,-1],"split_conditions":[1.1283831E-1,8.065678E-1,-1.843211E-1,3.0694178E-1,-3.63004E-3,-3.2133338E-1,-8.977104E-3,1.1046318E-2,-4.686982E-4,2.6291078E-3,-3.7323143E-3],"split_indices":[3,1,0,0,0,7,0,0,0,0,0],"split_type":[0,0,0,0,0,0,0,0,0,0,0],"sum_hessian":[1.3271249E1,8.022115E0,5.249134E0,6.759532E0,1.2625828E0,2.9860144E0,2.2631197E0,4.00891E0,2.7506216E0,1.5349904E0,1.451024E0],"tree_param":{"num_deleted":"0","num_feature":"8","num_nodes":"11","size_leaf_vector":"1"}},{"base_weights":[-1.7803885E-2,4.294884E-1,-6.186455E-1,6.854401E-1,-4.0329304E-3,-1.5497612E-4,-7.9230946E-1,9.218919E-3,-2.618128E-3,-9.200631E-3,-1.9932126E-3],"categories":[],"categories_nodes":[],"categories_segments":[],"categories_sizes":[],"default_left":[0,0,0,0,0,0,0,0,0,0,0],"id":65,"left_children":[1,3,5,7,-1,-1,9,-1,-1,-1,-1],"loss_changes":[3.6941955E0,1.9610218E0,6.008849E-1,1.678343E0,0E0,0E0,1.594274E-1,0E0,0E0,0E0,0E0],"parents":[2147483647,0,0,1,1,2,2,3,3,6,6],"right_children":[2,4,6,8,-1,-1,10,-1,-1,-1,-1],"split_conditions":[1.1283831E-1,7.360246E-1,4.625121E-1,8.0438656E-1,-4.0329304E-3,-1.5497612E-4,2.4548507E0,9.218919E-3,-2.618128E-3,-9.200631E-3,-1.9932126E-3],"split_indices":[3,6,6,1,0,0,3,0,0,0,0],"split_type":[0,0,0,0,0,0,0,0,0,0,0],"sum_hessian":[1.1757103E1,6.903231E0,4.8538723E0,5.4156737E0,1.4875569E0,1.3286412E0,3.5252311E0,4.355287E0,1.0603869E0,2.4465702E0,1.078661E0],"tree_param":{"num_deleted":"0","num_feature":"8","num_nodes":"11","size_leaf_vector":"1"}},{"base_weights":[4.8714946E-3,5.1836723E-1,-6.705099E-1,-1.8660706E-1,8.629459E-1,-1.0683025E-2,5.7724374E-3,4.715832E-3,-7.7368068E-3,1.2341287E-2,1.1088186E-3],"categories":[],"categories_nodes":[],"categories_segments":[],"categories_sizes":[],"default_left":[0,0,0,0,0,0,0,0,0,0,0],"id":66,"left_children":[1,3,5,7,9,-1,-1,-1,-1,-1,-1],"loss_changes":[4.9244843E0,2.1192472E0,3.6623418E0,1.7052088E0,1.4242978E0,0E0,0E0,0E0,0E0,0E0,0E0],"parents":[2147483647,0,0,1,1,2,2,3,3,4,4],"right_children":[2,4,6,8,10,-1,-1,-1,-1,-1,-1],"split_conditions":[-6.7533635E-2,-8.066708E-1,1.992939E0,-1.1200743E0,6.352265E-1,-1.0683025E-2,5.7724374E-3,4.715832E-3,-7.7368068E-3,1.2341287E-2,1.1088186E-3],"split_indices":[0,0,5,0,6,0,0,0,0,0,0],"split_type":[0,0,0,0,0,0,0,0,0,0,0],"sum_hessian":[1.2197353E1,7.0611835E0,5.13617E0,2.4687703E0,4.5924134E0,4.00361E0,1.1325598E0,1.2566335E0,1.2121366E0,2.6456556E0,1.9467577E0],"tree_param":{"num_deleted":"0","num_feature":"8","num_nodes":"11","size_leaf_vector":"1"}},{"base_weights":[2.910387E-1,8.421022E-1,-2.1893479E-1,-1.8086213E-3,1.1997052E0,-4.5546827E-1,3.1902656E-1,1.4610984E-2,2.7931293E-3,-8.66032E-3,-3.2496318E-4,-2.7087682E-3,7.6612197E-3],"categories":[],"categories_nodes":[],"categories_segments":[],"categories_sizes":[],"default_left":[0,0,0,0,0,0,0,0,0,0,0,0,0],"id":67,"left_children":[1,3,5,-1,7,9,11,-1,-1,-1,-1,-1,-1],"loss_changes":[4.1846213E0,2.7952127E0,1.1870013E0,0E0,8.7982273E-1,1.0308535E0,1.0220325E0,0E0,0E0,0E0,0E0,0E0,0E0],"parents":[2147483647,0,0,1,1,2,2,4,4,5,5,6,6],"right_children":[2,4,6,-1,8,10,12,-1,-1,-1,-1,-1,-1],"split_conditions":[6.068108E-1,-6.513408E-1,7.8832614E-1,-1.8086213E-3,7.428102E-1,-4.2967495E-1,-3.2402012E-1,1.4610984E-2,2.7931293E-3,-8.66032E-3,-3.2496318E-4,-2.7087682E-3,7.6612197E-3],"split_indices":[6,7,7,0,0,5,3,0,0,0,0,0,0],"split_type":[0,0,0,0,0,0,0,0,0,0,0,0,0],"sum_hessian":[1.323438E1,6.047908E0,7.186472E0,1.6945868E0,4.353321E0,5.09821E0,2.088262E0,2.9328985E0,1.4204223E0,2.0555086E0,3.0427012E0,1.0702721E0,1.0179899E0],"tree_param":{"num_deleted":"0","num_feature":"8","num_nodes":"13","size_leaf_vector":"1"}},{"base_weights":[-7.351465E-2,-5.931242E-1,8.2806855E-1,-2.3757012E-1,-8.477823E-1,1.1725465E-2,-1.0617293E-3,-7.8122225E-3,6.9559906E-3,-2.1130221E-3,-9.699817E-3],"categories":[],"categories_nodes":[],"categories_segments":[],"categories_sizes":[],"default_left":[0,0,0,0,0,0,0,0,0,0,0],"id":68,"left_children":[1,3,5,7,9,-1,-1,-1,-1,-1,-1],"loss_changes":[6.9541826E0,6.4379454E-1,1.8821025E0,3.2245612E0,1.8779516E-1,0E0,0E0,0E0,0E0,0E0,0E0],"parents":[2147483647,0,0,1,1,2,2,3,3,4,4],"right_children":[2,4,6,8,10,-1,-1,-1,-1,-1,-1],"split_conditions":[9.996282E-1,-6.7533635E-2,2.1277955E0,-3.5449412E-1,-8.3515996E-1,1.1725465E-2,-1.0617293E-3,-7.8122225E-3,6.9559906E-3,-2.1130221E-3,-9.699817E-3],"split_indices":[7,0,5,0,7,0,0,0,0,0,0],"split_type":[0,0,0,0,0,0,0,0,0,0,0],"sum_hessian":[1.2796013E1,8.33464E0,4.461374E0,4.2849216E0,4.049718E0,3.0731487E0,1.3882247E0,2.8104305E0,1.474491E0,1.0918642E0,2.9578536E0],"tree_param":{"num_deleted":"0","num_feature":"8","num_nodes":"11","size_leaf_vector":"1"}},{"base_weights":[7.838671E-2,5.695047E-1,-7.41251E-1,-1.3609686E-2,8.0450433E-1,2.4527716E-3,-1.02587305E-2,5.4074004E-3,-4.659756E-3,9.709384E-3,1.13423564E-4],"categories":[],"categories_nodes":[],"categories_segments":[],"categories_sizes":[],"default_left":[0,0,0,0,0,0,0,0,0,0,0],"id":69,"left_children":[1,3,5,7,9,-1,-1,-1,-1,-1,-1],"loss_changes":[6.165947E0,1.3111229E0,1.8748047E0,1.1820202E0,8.839216E-1,0E0,0E0,0E0,0E0,0E0,0E0],"parents":[2147483647,0,0,1,1,2,2,3,3,4,4],"right_children":[2,4,6,8,10,-1,-1,-1,-1,-1,-1],"split_conditions":[6.6914517E-1,1.2012566E0,-8.2876146E-1,-4.2991173E-1,2.1277955E0,2.4527716E-3,-1.02587305E-2,5.4074004E-3,-4.659756E-3,9.709384E-3,1.13423564E-4],"split_indices":[6,2,5,5,5,0,0,0,0,0,0],"split_type":[0,0,0,0,0,0,0,0,0,0,0],"sum_hessian":[1.3268938E1,8.488123E0,4.780815E0,2.7087865E0,5.779336E0,1.10142E0,3.6793952E0,1.129404E0,1.5793825E0,4.5916963E0,1.1876402E0],"tree_param":{"num_deleted":"0","num_feature":"8","num_nodes":"11","size_leaf_vector":"1"}},{"base_weights":[7.329902E-2,7.864154E-1,-6.203403E-1,1.2939164E-2,3.082261E-1,-8.671977E-2,-8.4901816E-1,-2.2069819E-3,6.4695906E-3,1.9243242E-3,-3.2066235E-3,-1.6928978E-3,-9.796918E-3],"categories":[],"categories_nodes":[],"categories_segments":[],"categories_sizes":[],"default_left":[0,0,0,0,0,0,0,0,0,0,0,0,0],"id":70,"left_children":[1,3,5,-1,7,9,11,-1,-1,-1,-1,-1,-1],"loss_changes":[7.2812424E0,1.3516026E0,8.441446E-1,0E0,1.0433261E0,2.8178284E-1,2.9168034E-1,0E0,0E0,0E0,0E0,0E0,0E0],"parents":[2147483647,0,0,1,1,2,2,4,4,5,5,6,6],"right_children":[2,4,6,-1,8,10,12,-1,-1,-1,-1,-1,-1],"split_conditions":[6.068108E-1,3.4990698E-1,7.360246E-1,1.2939164E-2,1.1936795E0,-3.1792486E-1,-1.2793901E0,-2.2069819E-3,6.4695906E-3,1.9243242E-3,-3.2066235E-3,-1.6928978E-3,-9.796918E-3],"split_indices":[6,6,6,0,2,1,2,0,0,0,0,0,0],"split_type":[0,0,0,0,0,0,0,0,0,0,0,0,0],"sum_hessian":[1.273387E1,6.212832E0,6.521038E0,2.18647E0,4.026362E0,2.3699574E0,4.15108E0,1.7079281E0,2.3184338E0,1.1614698E0,1.2084876E0,1.0394846E0,3.1115956E0],"tree_param":{"num_deleted":"0","num_feature":"8","num_nodes":"13","size_leaf_vector":"1"}},{"base_weights":[5.0300397E-2,9.983933E-1,-3.976519E-1,1.5298326E-2,3.673441E-4,3.1546083E-1,-6.1373985E-1,7.69846E-3,-2.594238E-3,2.5008686E-3,-7.7361967E-3],"categories":[],"categories_nodes":[],"categories_segments":[],"categories_sizes":[],"default_left":[0,0,0,0,0,0,0,0,0,0,0],"id":71,"left_children":[1,3,5,-1,-1,7,9,-1,-1,-1,-1],"loss_changes":[6.6706986E0,2.5117822E0,1.8497087E0,0E0,0E0,1.025117E0,1.3794708E0,0E0,0E0,0E0,0E0],"parents":[2147483647,0,0,1,1,2,2,5,5,6,6],"right_children":[2,4,6,-1,-1,8,10,-1,-1,-1,-1],"split_conditions":[4.769792E-1,-2.2006744E-1,-7.3247594E-1,1.5298326E-2,3.673441E-4,7.360246E-1,-8.442746E-1,7.69846E-3,-2.594238E-3,2.5008686E-3,-7.7361967E-3],"split_indices":[6,0,7,0,0,6,5,0,0,0,0],"split_type":[0,0,0,0,0,0,0,0,0,0,0],"sum_hessian":[1.3772025E1,4.0247765E0,9.74725E0,2.2117019E0,1.8130744E0,2.1598024E0,7.5874467E0,1.016911E0,1.1428914E0,1.0968698E0,6.490577E0],"tree_param":{"num_deleted":"0","num_feature":"8","num_nodes":"11","size_leaf_vector":"1"}},{"base_weights":[-1.0408765E-2,5.2172405E-1,-6.318129E-1,-1.6365258E-1,8.5448384E-1,-9.256489E-1,4.5005064E-3,3.2645576E-3,-7.07039E-3,5.7929417E-4,1.0308868E-2,-2.0865195E-3,-1.04317935E-2],"categories":[],"categories_nodes":[],"categories_segments":[],"categories_sizes":[],"default_left":[0,0,0,0,0,0,0,0,0,0,0,0,0],"id":72,"left_children":[1,3,5,7,9,11,-1,-1,-1,-1,-1,-1,-1],"loss_changes":[5.1284075E0,2.047704E0,2.688516E0,1.1824653E0,7.5415087E-1,2.8353024E-1,0E0,0E0,0E0,0E0,0E0,0E0,0E0],"parents":[2147483647,0,0,1,1,2,2,3,3,4,4,5,5],"right_children":[2,4,6,8,10,12,-1,-1,-1,-1,-1,-1,-1],"split_conditions":[-6.7533635E-2,-2.3864059E-1,1.6720865E0,-3.7183002E-1,-1.0032133E0,-7.3247594E-1,4.5005064E-3,3.2645576E-3,-7.07039E-3,5.7929417E-4,1.0308868E-2,-2.0865195E-3,-1.04317935E-2],"split_indices":[0,1,2,1,0,7,0,0,0,0,0,0,0],"split_type":[0,0,0,0,0,0,0,0,0,0,0,0,0],"sum_hessian":[1.35123005E1,7.365416E0,6.1468844E0,2.5733502E0,4.7920656E0,4.9475226E0,1.1993619E0,1.562905E0,1.0104451E0,1.1096761E0,3.6823897E0,1.0876422E0,3.8598804E0],"tree_param":{"num_deleted":"0","num_feature":"8","num_nodes":"13","size_leaf_vector":"1"}},{"base_weights":[9.527543E-2,8.5197335E-1,-6.4281666E-1,1.3794119E0,6.9895715E-2,-1.21450685E-1,-9.888956E-3,4.609409E-3,1.5701093E-2,-7.0060072E-3,6.0357526E-3,6.059934E-3,-6.1014933E-3],"categories":[],"categories_nodes":[],"categories_segments":[],"categories_sizes":[],"default_left":[0,0,0,0,0,0,0,0,0,0,0,0,0],"id":73,"left_children":[1,3,5,7,9,11,-1,-1,-1,-1,-1,-1,-1],"loss_changes":[8.43704E0,2.9581199E0,1.2729769E0,4.151535E-2,2.082421E0,1.8700653E0,0E0,0E0,0E0,0E0,0E0,0E0,0E0],"parents":[2147483647,0,0,1,1,2,2,3,3,4,4,5,5],"right_children":[2,4,6,8,10,12,-1,-1,-1,-1,-1,-1,-1],"split_conditions":[6.352265E-1,-1.6244769E-1,7.669236E-1,-9.102445E-1,2.2119965E-1,1.1891445E0,-9.888956E-3,4.609409E-3,1.5701093E-2,-7.0060072E-3,6.0357526E-3,6.059934E-3,-6.1014933E-3],"split_indices":[6,0,6,0,5,2,0,0,0,0,0,0,0],"split_type":[0,0,0,0,0,0,0,0,0,0,0,0,0],"sum_hessian":[1.3125689E1,6.40497E0,6.7207184E0,3.3690686E0,3.0359018E0,3.2202952E0,3.500423E0,1.1667398E0,2.2023287E0,1.1143262E0,1.9215754E0,1.1976055E0,2.0226898E0],"tree_param":{"num_deleted":"0","num_feature":"8","num_nodes":"13","size_leaf_vector":"1"}},{"base_weights":[-4.592762E-2,3.7419835E-1,-6.375681E-1,-4.9635735E-3,6.2286496E-1,6.443615E-4,-8.33568E-1,1.0200659E-2,-1.4208743E-3,-1.6805338E-3,-9.738779E-3],"categories":[],"categories_nodes":[],"categories_segments":[],"categories_sizes":[],"default_left":[0,0,0,0,0,0,0,0,0,0,0],"id":74,"left_children":[1,3,5,-1,7,-1,9,-1,-1,-1,-1],"loss_changes":[3.6109788E0,2.1630652E0,8.797693E-1,0E0,2.303626E0,0E0,2.8128695E-1,0E0,0E0,0E0,0E0],"parents":[2147483647,0,0,1,1,2,2,4,4,6,6],"right_children":[2,4,6,-1,8,-1,10,-1,-1,-1,-1],"split_conditions":[1.1283831E-1,-7.1858436E-1,-6.8505174E-1,-4.9635735E-3,7.428102E-1,6.443615E-4,-1.2793901E0,1.0200659E-2,-1.4208743E-3,-1.6805338E-3,-9.738779E-3],"split_indices":[3,0,0,0,0,0,2,0,0,0,0],"split_type":[0,0,0,0,0,0,0,0,0,0,0],"sum_hessian":[1.2567564E1,7.5639215E0,5.003642E0,1.4592313E0,6.10469E0,1.2386098E0,3.7650325E0,3.7987103E0,2.3059797E0,1.0382342E0,2.7267983E0],"tree_param":{"num_deleted":"0","num_feature":"8","num_nodes":"11","size_leaf_vector":"1"}},{"base_weights":[-7.477489E-2,-3.4691072E-1,5.621347E-1,1.1347026E-1,-1.0056394E-2,1.137019E-2,-1.1836676E-3,3.98201E-3,-7.1274918E-3],"categories":[],"categories_nodes":[],"categories_segments":[],"categories_sizes":[],"default_left":[0,0,0,0,0,0,0,0,0],"id":75,"left_children":[1,3,5,7,-1,-1,-1,-1,-1],"loss_changes":[2.722086E0,3.3995688E0,1.9913938E0,1.9953682E0,0E0,0E0,0E0,0E0,0E0],"parents":[2147483647,0,0,1,1,2,2,3,3],"right_children":[2,4,6,8,-1,-1,-1,-1,-1],"split_conditions":[1.2507635E0,-1.9629627E-1,1.9504223E0,3.0694178E-1,-1.0056394E-2,1.137019E-2,-1.1836676E-3,3.98201E-3,-7.1274918E-3],"split_indices":[7,7,5,0,0,0,0,0,0],"split_type":[0,0,0,0,0,0,0,0,0],"sum_hessian":[1.35799055E1,9.83358E0,3.7463253E0,6.275453E0,3.5581272E0,1.6671069E0,2.0792184E0,5.0523596E0,1.2230935E0],"tree_param":{"num_deleted":"0","num_feature":"8","num_nodes":"9","size_leaf_vector":"1"}},{"base_weights":[3.4679335E-2,3.5974488E-1,-6.2905735E-1,7.247809E-1,-9.775825E-2,-1.988088E-3,-8.402454E-3,1.1084212E-2,-1.3848402E-3,-4.7896258E-3,7.781166E-3],"categories":[],"categories_nodes":[],"categories_segments":[],"categories_sizes":[],"default_left":[0,0,0,0,0,0,0,0,0,0,0],"id":76,"left_children":[1,3,5,7,9,-1,-1,-1,-1,-1,-1],"loss_changes":[3.2864933E0,1.7671032E0,2.8968406E-1,2.0638247E0,2.1719027E0,0E0,0E0,0E0,0E0,0E0,0E0],"parents":[2147483647,0,0,1,1,2,2,3,3,4,4],"right_children":[2,4,6,8,10,-1,-1,-1,-1,-1,-1],"split_conditions":[7.669236E-1,-1.6244769E-1,-1.843211E-1,6.352265E-1,6.551399E-1,-1.988088E-3,-8.402454E-3,1.1084212E-2,-1.3848402E-3,-4.7896258E-3,7.781166E-3],"split_indices":[6,0,0,6,6,0,0,0,0,0,0],"split_type":[0,0,0,0,0,0,0,0,0,0,0],"sum_hessian":[1.3183457E1,9.156873E0,4.0265846E0,4.768186E0,4.388686E0,1.9649075E0,2.0616772E0,3.104528E0,1.6636584E0,3.373576E0,1.01511E0],"tree_param":{"num_deleted":"0","num_feature":"8","num_nodes":"11","size_leaf_vector":"1"}},{"base_weights":[1.553361E-1,4.8354745E-1,-6.1046606E-1,-5.0717574E-2,6.839811E-1,-1.7669504E-3,-8.332995E-3,5.6022736E-3,-7.7433274E-3,8.612145E-3,-2.5094321E-3],"categories":[],"categories_nodes":[],"categories_segments":[],"categories_sizes":[],"default_left":[0,0,0,0,0,0,0,0,0,0,0],"id":77,"left_children":[1,3,5,7,9,-1,-1,-1,-1,-1,-1],"loss_changes":[4.0102696E0,1.2023916E0,3.2410014E-1,2.1605241E0,1.5414896E0,0E0,0E0,0E0,0E0,0E0,0E0],"parents":[2147483647,0,0,1,1,2,2,3,3,4,4],"right_children":[2,4,6,8,10,-1,-1,-1,-1,-1,-1],"split_conditions":[7.669236E-1,-7.897802E-1,-1.8785205E0,-8.964816E-1,8.065678E-1,-1.7669504E-3,-8.332995E-3,5.6022736E-3,-7.7433274E-3,8.612145E-3,-2.5094321E-3],"split_indices":[6,7,4,7,1,0,0,0,0,0,0],"split_type":[0,0,0,0,0,0,0,0,0,0,0],"sum_hessian":[1.3780801E1,9.904468E0,3.876333E0,2.9058235E0,6.9986444E0,1.9239969E0,1.9523362E0,1.6980019E0,1.2078216E0,5.9496174E0,1.0490272E0],"tree_param":{"num_deleted":"0","num_feature":"8","num_nodes":"11","size_leaf_vector":"1"}}]},"name":"gbtree"},"learner_model_param":{"base_score":"[3E-1]","boost_from_average":"1","num_class":"0","num_feature":"8","num_target":"1"},"objective":{"name":"binary:logistic","reg_loss_param":{"scale_pos_weight":"1"}}},"version":[3,1,2]}